{"learner":{"attributes":{},"gradient_booster":{"model":{"gbtree_model_param":{"num_trees":"25","size_leaf_vector":"0"},"tree_info":[0,0,0,0,0,0,0,0,0,0,0,0,0,0,0,0,0,0,0,0,0,0,0,0,0],"trees":[{"base_weights":[-4.99998867511749268e-01,-1.26339232921600342e+00,7.38947167992591858e-02,-1.79859411716461182e+00,-1.00046098232269287e+00,-1.61781325936317444e-01,5.60566663742065430e-01,-2.08212399482727051e+00,-1.61711788177490234e+00,-1.23049962520599365e+00,-7.38906264305114746e-01,-7.39958107471466064e-01,1.43272718414664268e-02,4.10704970359802246e-01,1.36485159397125244e+00,-2.20693540573120117e+00,-2.00413322448730469e+00,-1.66950464248657227e+00,-1.39073681831359863e+00,-1.27143418788909912e+00,-1.09337642788887024e-01,-1.81064832210540771e+00,-6.61675453186035156e-01,-1.18914878368377686e+00,-5.08576333522796631e-01,-7.03087627887725830e-01,2.98144906759262085e-01,7.03600108623504639e-01,1.88627749681472778e-01,1.12887823581695557e+00,1.96258759498596191e+00,-2.27658438682556152e+00,-2.16848230361938477e+00,-2.06026697158813477e+00,-1.93174684047698975e+00,-1.99097776412963867e+00,-1.61162984371185303e+00,-1.57662463188171387e+00,-1.21439623832702637e+00,-1.21905136108398438e+00,-1.96647477149963379e+00,-3.82020890712738037e-01,3.20667684078216553e-01,-1.91292166709899902e+00,-1.60528409481048584e+00,-5.63487410545349121e-01,-1.48518681526184082e+00,-9.34014022350311279e-01,-1.40135800838470459e+00,-2.75256365537643433e-01,-7.59815037250518799e-01,-9.94686901569366455e-01,-3.36608082056045532e-01,8.48785787820816040e-02,9.50306296348571777e-01,2.19624161720275879e-01,1.94211816787719727e+00,8.57480019330978394e-02,7.06150531768798828e-01,1.06837451457977295e+00,1.72390282154083252e+00,1.83237433433532715e+00,2.45561075210571289e+00,-2.21231079101562500e+00,-2.03592777252197266e+00,-2.00353407859802246e+00,-1.89693403244018555e+00,-2.05484676361083984e+00,-1.88497531414031982e+00,-1.72145330905914307e+00,-1.49657535552978516e+00,-1.81254696846008301e+00,-1.50891125202178955e+00,-1.53549802303314209e+00,-1.03000116348266602e+00,-2.11428022384643555e+00,-1.18153643608093262e+00,-2.08881974220275879e+00,-1.19529902935028076e+00,-5.28424680233001709e-01,-1.64497315883636475e-01,3.45932215452194214e-01,-2.03321194648742676e+00,6.13895943388342857e-03,-1.92448890209197998e+00,-1.62665319442749023e+00,-7.86656260490417480e-01,-7.14757502079010010e-01,-4.36145544052124023e-01,-1.77507531642913818e+00,-3.92483741044998169e-01,-1.11910808086395264e+00,-7.37817704677581787e-01,-1.53351581096649170e+00,-1.11818492412567139e+00,-4.67494636774063110e-01,-9.91299897432327271e-02,-8.90683770179748535e-01,-3.99234265089035034e-01,-3.79822909832000732e-01,-1.15340852737426758e+00,-4.51314359903335571e-01,2.70900964736938477e-01,-9.51836481690406799e-02,2.93294847011566162e-01,7.32186079025268555e-01,1.23345041275024414e+00,6.50924965739250183e-02,6.69309318065643311e-01,1.73589336872100830e+00,2.33551812171936035e+00,-1.24572165310382843e-01,2.42985099554061890e-01,5.62574207782745361e-01,1.06398832798004150e+00,9.66899812221527100e-01,1.55384218692779541e+00,1.50623226165771484e+00,1.89288437366485596e+00,1.66299617290496826e+00,2.43135213851928711e+00,2.31642341613769531e+00,2.72380971908569336e+00],"default_left":[true,true,true,true,true,true,true,true,true,true,true,true,true,true,true,true,true,true,true,true,true,true,true,true,true,true,true,true,true,true,true,false,false,true,true,true,true,true,true,true,true,true,true,true,true,true,true,true,true,true,true,true,true,true,true,true,true,true,true,true,true,true,true,false,false,false,false,false,false,false,false,false,false,false,false,false,false,false,false,false,false,false,false,false,false,false,false,false,false,false,false,false,false,false,false,false,false,false,false,false,false,false,false,false,false,false,false,false,false,false,false,false,false,false,false,false,false,false,false,false,false,false,false],"id":0,"leaf_child_counts":[0,0,0,0,0,0,0,0,0,0,0,0,0,0,0,2,0,0,0,0,0,0,0,0,0,0,0,0,0,0,0,0,0,2,2,2,2,2,2,2,2,2,2,2,2,2,2,2,2,2,2,2,2,2,2,2,2,2,2,2,2,2,2,0,0,0,0,0,0,0,0,0,0,0,0,0,0,0,0,0,0,0,0,0,0,0,0,0,0,0,0,0,0,0,0,0,0,0,0,0,0,0,0,0,0,0,0,0,0,0,0,0,0,0,0,0,0,0,0,0,0,0,0],"left_children":[1,3,5,7,9,11,13,15,17,19,21,23,25,27,29,31,33,35,37,39,41,43,45,47,49,51,53,55,57,59,61,-1,-1,63,65,67,69,71,73,75,77,79,81,83,85,87,89,91,93,95,97,99,101,103,105,107,109,111,113,115,117,119,121,-1,-1,-1,-1,-1,-1,-1,-1,-1,-1,-1,-1,-1,-1,-1,-1,-1,-1,-1,-1,-1,-1,-1,-1,-1,-1,-1,-1,-1,-1,-1,-1,-1,-1,-1,-1,-1,-1,-1,-1,-1,-1,-1,-1,-1,-1,-1,-1,-1,-1,-1,-1,-1,-1,-1,-1,-1,-1,-1,-1],"loss_changes":[1.94056343750000000e+05,2.67476250000000000e+04,2.90018945312500000e+04,3.21868750000000000e+03,7.66860937500000000e+03,1.73462871093750000e+04,9.94304882812500000e+03,2.33429687500000000e+02,4.50539062500000000e+02,3.11236718750000000e+03,4.93620312500000000e+03,4.13339257812500000e+03,2.65892753906250000e+04,4.52325000000000000e+03,1.82536718750000000e+03,2.02031250000000000e+01,5.71679687500000000e+01,5.73640625000000000e+02,2.33508789062500000e+02,2.37978906250000000e+03,2.80362548828125000e+02,8.11308593750000000e+01,4.49839843750000000e+03,7.30796875000000000e+02,1.53877490234375000e+03,3.95549218750000000e+03,1.30138750000000000e+04,1.79753652343750000e+04,2.10589794921875000e+03,3.32681640625000000e+02,2.30850585937500000e+02,0.00000000000000000e+00,0.00000000000000000e+00,2.68085937500000000e+01,1.26679687500000000e+01,2.81230468750000000e+01,3.29492187500000000e+02,5.30664062500000000e+01,2.16901855468750000e+02,2.04102343750000000e+03,4.30000000000000000e+02,4.65041809082031250e+01,5.58912582397460938e+01,5.93037109375000000e+01,2.21440429687500000e+01,9.57388671875000000e+02,1.87675097656250000e+03,2.22255859375000000e+02,2.74470703125000000e+02,4.60899658203125000e+02,5.96157226562500000e+02,2.01132617187500000e+03,1.14323657226562500e+03,2.64619506835937500e+03,1.42314648437500000e+03,1.49845153808593750e+03,6.79539062500000000e+02,1.09121240234375000e+03,3.36383300781250000e+02,4.14125976562500000e+02,2.86345214843750000e+01,2.90578125000000000e+02,2.21733398437500000e+01,0.00000000000000000e+00,0.00000000000000000e+00,0.00000000000000000e+00,0.00000000000000000e+00,0.00000000000000000e+00,0.00000000000000000e+00,0.00000000000000000e+00,0.00000000000000000e+00,0.00000000000000000e+00,0.00000000000000000e+00,0.00000000000000000e+00,0.00000000000000000e+00,0.00000000000000000e+00,0.00000000000000000e+00,0.00000000000000000e+00,0.00000000000000000e+00,0.00000000000000000e+00,0.00000000000000000e+00,0.00000000000000000e+00,0.00000000000000000e+00,0.00000000000000000e+00,0.00000000000000000e+00,0.00000000000000000e+00,0.00000000000000000e+00,0.00000000000000000e+00,0.00000000000000000e+00,0.00000000000000000e+00,0.00000000000000000e+00,0.00000000000000000e+00,0.00000000000000000e+00,0.00000000000000000e+00,0.00000000000000000e+00,0.00000000000000000e+00,0.00000000000000000e+00,0.00000000000000000e+00,0.00000000000000000e+00,0.00000000000000000e+00,0.00000000000000000e+00,0.00000000000000000e+00,0.00000000000000000e+00,0.00000000000000000e+00,0.00000000000000000e+00,0.00000000000000000e+00,0.00000000000000000e+00,0.00000000000000000e+00,0.00000000000000000e+00,0.00000000000000000e+00,0.00000000000000000e+00,0.00000000000000000e+00,0.00000000000000000e+00,0.00000000000000000e+00,0.00000000000000000e+00,0.00000000000000000e+00,0.00000000000000000e+00,0.00000000000000000e+00,0.00000000000000000e+00,0.00000000000000000e+00,0.00000000000000000e+00,0.00000000000000000e+00,0.00000000000000000e+00],"parents":[2147483647,0,0,1,1,2,2,3,3,4,4,5,5,6,6,7,7,8,8,9,9,10,10,11,11,12,12,13,13,14,14,15,15,16,16,17,17,18,18,19,19,20,20,21,21,22,22,23,23,24,24,25,25,26,26,27,27,28,28,29,29,30,30,33,33,34,34,35,35,36,36,37,37,38,38,39,39,40,40,41,41,42,42,43,43,44,44,45,45,46,46,47,47,48,48,49,49,50,50,51,51,52,52,53,53,54,54,55,55,56,56,57,57,58,58,59,59,60,60,61,61,62,62],"right_children":[2,4,6,8,10,12,14,16,18,20,22,24,26,28,30,32,34,36,38,40,42,44,46,48,50,52,54,56,58,60,62,-1,-1,64,66,68,70,72,74,76,78,80,82,84,86,88,90,92,94,96,98,100,102,104,106,108,110,112,114,116,118,120,122,-1,-1,-1,-1,-1,-1,-1,-1,-1,-1,-1,-1,-1,-1,-1,-1,-1,-1,-1,-1,-1,-1,-1,-1,-1,-1,-1,-1,-1,-1,-1,-1,-1,-1,-1,-1,-1,-1,-1,-1,-1,-1,-1,-1,-1,-1,-1,-1,-1,-1,-1,-1,-1,-1,-1,-1,-1,-1,-1,-1],"split_conditions":[9.63155254721641541e-02,1.02028667926788330e-01,1.29632711410522461e-01,6.90765976905822754e-02,8.66735428571701050e-02,-3.26641738414764404e-01,1.67070627212524414e-01,6.45059347152709961e-02,8.45527350902557373e-02,5.82033693790435791e-01,-2.06344321370124817e-01,1.09789222478866577e-01,-3.81410658359527588e-01,2.04999625682830811e-01,1.89170688390731812e-01,6.22669905424118042e-02,7.59578347206115723e-02,6.85108825564384460e-02,-3.15760254859924316e-01,1.91484123468399048e-01,8.61062943935394287e-01,4.23024892807006836e-01,2.02510267496109009e-01,1.18823468685150146e-01,1.43527418375015259e-01,8.97596478462219238e-01,1.11365228891372681e-01,-6.45759522914886475e-01,1.81543016433715820e+00,2.82218027114868164e+00,3.64376878738403320e+00,-6.82975351810455322e-01,-6.50544703006744385e-01,5.68094812333583832e-02,6.69247061014175415e-02,4.29302155971527100e-02,7.30702355504035950e-02,8.80344286561012268e-02,5.71198239922523499e-02,-1.43611237406730652e-01,4.37243938446044922e-01,7.29002833366394043e-01,1.85348153114318848e+00,2.17699944972991943e-01,-3.74376654624938965e-01,9.14133936166763306e-02,6.26217484474182129e-01,1.04075193405151367e-01,6.38092041015625000e-01,1.19090273976325989e-01,1.03768861293792725e+00,2.15918183326721191e-01,1.28029942512512207e+00,1.03826209902763367e-01,1.19850188493728638e-01,1.74018764495849609e+00,1.39430552721023560e-01,1.39960944652557373e-01,2.18132209777832031e+00,2.67726111412048340e+00,3.03936958312988281e+00,3.59027051925659180e+00,4.21935272216796875e+00,-6.63693249225616455e-01,-6.10778331756591797e-01,-6.01060271263122559e-01,-5.69080233573913574e-01,-6.16454064846038818e-01,-5.65492630004882812e-01,-5.16436040401458740e-01,-4.48972612619400024e-01,-5.43764114379882812e-01,-4.52673405408859253e-01,-4.60649430751800537e-01,-3.09000372886657715e-01,-6.34284079074859619e-01,-3.54460954666137695e-01,-6.26645922660827637e-01,-3.58589708805084229e-01,-1.58527404069900513e-01,-4.93491962552070618e-02,1.03779666125774384e-01,-6.09963595867156982e-01,1.84168794658035040e-03,-5.77346682548522949e-01,-4.87995982170104980e-01,-2.35996887087821960e-01,-2.14427262544631958e-01,-1.30843669176101685e-01,-5.32522618770599365e-01,-1.17745123803615570e-01,-3.35732430219650269e-01,-2.21345320343971252e-01,-4.60054755210876465e-01,-3.35455477237701416e-01,-1.40248402953147888e-01,-2.97389980405569077e-02,-2.67205148935317993e-01,-1.19770281016826630e-01,-1.13946877419948578e-01,-3.46022576093673706e-01,-1.35394319891929626e-01,8.12702924013137817e-02,-2.85550951957702637e-02,8.79884585738182068e-02,2.19655826687812805e-01,3.70035141706466675e-01,1.95277500897645950e-02,2.00792804360389709e-01,5.20768046379089355e-01,7.00655460357666016e-01,-3.73716503381729126e-02,7.28955343365669250e-02,1.68772265315055847e-01,3.19196522235870361e-01,2.90069967508316040e-01,4.66152667999267578e-01,4.51869696378707886e-01,5.67865312099456787e-01,4.98898863792419434e-01,7.29405641555786133e-01,6.94927036762237549e-01,8.17142963409423828e-01],"split_indices":[2,3,2,2,2,0,2,2,2,0,0,2,1,3,2,2,3,3,0,3,0,1,3,3,3,0,2,0,0,1,0,0,0,3,2,3,2,2,3,0,0,0,0,1,0,2,0,2,1,2,1,3,0,2,2,1,2,2,0,0,1,1,0,0,0,0,0,0,0,0,0,0,0,0,0,0,0,0,0,0,0,0,0,0,0,0,0,0,0,0,0,0,0,0,0,0,0,0,0,0,0,0,0,0,0,0,0,0,0,0,0,0,0,0,0,0,0,0,0,0,0,0,0],"sum_hessian":[4.42942000000000000e+05,1.90087000000000000e+05,2.52855000000000000e+05,6.26190000000000000e+04,1.27468000000000000e+05,1.70358000000000000e+05,8.24970000000000000e+04,2.44340000000000000e+04,3.81850000000000000e+04,6.78180000000000000e+04,5.96500000000000000e+04,3.97740000000000000e+04,1.30584000000000000e+05,6.95410000000000000e+04,1.29560000000000000e+04,9.38600000000000000e+03,1.50480000000000000e+04,3.10040000000000000e+04,7.18100000000000000e+03,6.54290000000000000e+04,2.38900000000000000e+03,4.00800000000000000e+03,5.56420000000000000e+04,1.35210000000000000e+04,2.62530000000000000e+04,3.70160000000000000e+04,9.35680000000000000e+04,2.99880000000000000e+04,3.95530000000000000e+04,9.29100000000000000e+03,3.66500000000000000e+03,3.31800000000000000e+03,6.06800000000000000e+03,8.46000000000000000e+03,6.58800000000000000e+03,4.72500000000000000e+03,2.62790000000000000e+04,3.49200000000000000e+03,3.68900000000000000e+03,6.08460000000000000e+04,4.58300000000000000e+03,1.46200000000000000e+03,9.27000000000000000e+02,2.67000000000000000e+03,1.33800000000000000e+03,4.97160000000000000e+04,5.92600000000000000e+03,6.14200000000000000e+03,7.37900000000000000e+03,1.36130000000000000e+04,1.26400000000000000e+04,2.06130000000000000e+04,1.64030000000000000e+04,7.05110000000000000e+04,2.30570000000000000e+04,2.15630000000000000e+04,8.42500000000000000e+03,3.29950000000000000e+04,6.55800000000000000e+03,8.43600000000000000e+03,8.55000000000000000e+02,2.90300000000000000e+03,7.62000000000000000e+02,1.15500000000000000e+03,7.30500000000000000e+03,2.13300000000000000e+03,4.45500000000000000e+03,2.93700000000000000e+03,1.78800000000000000e+03,1.34380000000000000e+04,1.28410000000000000e+04,7.73000000000000000e+02,2.71900000000000000e+03,1.34300000000000000e+03,2.34600000000000000e+03,2.44500000000000000e+03,5.84010000000000000e+04,3.95400000000000000e+03,6.29000000000000000e+02,8.73000000000000000e+02,5.89000000000000000e+02,9.18000000000000000e+02,9.00000000000000000e+00,1.60000000000000000e+01,2.65400000000000000e+03,1.30300000000000000e+03,3.50000000000000000e+01,2.27210000000000000e+04,2.69950000000000000e+04,4.68300000000000000e+03,1.24300000000000000e+03,3.15800000000000000e+03,2.98400000000000000e+03,5.02800000000000000e+03,2.35100000000000000e+03,6.50800000000000000e+03,7.10500000000000000e+03,9.27300000000000000e+03,3.36700000000000000e+03,4.23000000000000000e+03,1.63830000000000000e+04,1.37980000000000000e+04,2.60500000000000000e+03,3.78290000000000000e+04,3.26820000000000000e+04,1.30260000000000000e+04,1.00310000000000000e+04,1.60490000000000000e+04,5.51400000000000000e+03,5.53100000000000000e+03,2.89400000000000000e+03,1.41150000000000000e+04,1.88800000000000000e+04,4.68200000000000000e+03,1.87600000000000000e+03,6.98000000000000000e+03,1.45600000000000000e+03,3.78000000000000000e+02,4.77000000000000000e+02,2.26600000000000000e+03,6.37000000000000000e+02,5.08000000000000000e+02,2.54000000000000000e+02],"tree_param":{"num_feature":"4","num_nodes":"123","size_leaf_vector":"0"}},{"base_weights":[-3.50017189979553223e-01,-8.65731179714202881e-01,6.91085979342460632e-02,-1.20891523361206055e+00,-6.48071050643920898e-01,-8.92050713300704956e-02,4.11491572856903076e-01,-1.24382209777832031e+00,-2.48440280556678772e-01,-1.20223939418792725e+00,-5.71231007575988770e-01,-4.94115024805068970e-01,3.64651195704936981e-02,3.18575143814086914e-01,1.07081162929534912e+00,-1.43637812137603760e+00,-1.10544216632843018e+00,-4.96478438377380371e-01,1.80787721183151007e-03,-1.39287555217742920e+00,-1.09766268730163574e+00,-5.12561261653900146e-01,-1.04527258872985840e+00,-7.42242157459259033e-01,-2.91722893714904785e-01,2.35870286822319031e-01,-5.00447034835815430e-01,5.02030432224273682e-01,1.73133149743080139e-01,9.18960273265838623e-01,1.48979127407073975e+00,-1.49983000755310059e+00,-1.34927272796630859e+00,-1.46976065635681152e+00,-1.08293616771697998e+00,-4.64644312858581543e-01,-1.02735602855682373e+00,-7.78211206197738647e-02,4.14555400609970093e-01,-1.28665447235107422e+00,-1.48088097572326660e+00,-9.82143104076385498e-01,-1.25730133056640625e+00,-6.63386166095733643e-01,-3.15991848707199097e-01,-1.31411373615264893e+00,-2.05378785729408264e-01,-5.65737485885620117e-01,-8.96838247776031494e-01,-1.12149626016616821e-01,-4.68912780284881592e-01,9.27252918481826782e-02,7.60843157768249512e-01,-9.09152865409851074e-01,-2.99532264471054077e-01,1.82253971695899963e-01,1.44074296951293945e+00,4.64769825339317322e-02,4.64364171028137207e-01,8.67274522781372070e-01,1.42055869102478027e+00,1.40737068653106689e+00,1.82865607738494873e+00,-1.51657176017761230e+00,-1.00118327140808105e+00,-1.53199768066406250e+00,-1.33366954326629639e+00,9.26009535789489746e-01,-1.47585892677307129e+00,-1.15720069408416748e+00,-9.75137829780578613e-01,-5.98873972892761230e-01,-3.64706605672836304e-01,-7.16177046298980713e-01,-1.24951267242431641e+00,-1.73402205109596252e-01,1.08908517286181450e-02,3.32530856132507324e-01,7.40642905235290527e-01,-1.40480744838714600e+00,-1.20213568210601807e+00,7.41379186511039734e-02,-1.48966157436370850e+00,-1.10788619518280029e+00,-8.07582318782806396e-01,-1.62112757563591003e-01,-1.27164888381958008e+00,-7.96158790588378906e-01,-5.88875353336334229e-01,-3.96756470203399658e-01,-2.40589663386344910e-01,-1.42465627193450928e+00,-1.09224987030029297e+00,-3.82585912942886353e-01,6.97756171226501465e-01,-7.68998086452484131e-01,-4.40212070941925049e-01,-1.01858973503112793e+00,-6.77557408809661865e-01,-2.01095938682556152e-01,1.94352254271507263e-01,-5.74781954288482666e-01,-2.15310543775558472e-01,-2.06711217761039734e-02,2.75557428598403931e-01,6.29132986068725586e-01,9.81585085391998291e-01,-1.12712252140045166e+00,-7.42996335029602051e-01,-4.38715636730194092e-01,-1.30565455183386803e-02,8.30021128058433533e-02,7.06106424331665039e-01,1.29759836196899414e+00,1.75145316123962402e+00,-4.74348478019237518e-02,2.78189301490783691e-01,4.07359808683395386e-01,8.79652142524719238e-01,8.07638823986053467e-01,1.35099697113037109e+00,1.26269447803497314e+00,1.54553496837615967e+00,1.32651388645172119e+00,1.94315099716186523e+00,1.76109313964843750e+00,2.10031318664550781e+00],"default_left":[true,true,true,true,true,true,true,true,true,true,true,true,true,true,true,true,true,true,true,true,true,true,true,true,true,true,true,true,true,true,true,true,true,true,true,true,true,true,true,true,true,true,true,true,true,true,true,true,true,true,true,true,true,true,true,true,true,true,true,true,true,true,true,false,false,false,false,false,false,false,false,false,false,false,false,false,false,false,false,false,false,false,false,false,false,false,false,false,false,false,false,false,false,false,false,false,false,false,false,false,false,false,false,false,false,false,false,false,false,false,false,false,false,false,false,false,false,false,false,false,false,false,false,false,false,false,false],"id":1,"leaf_child_counts":[0,0,0,0,0,0,0,0,0,0,0,0,0,0,0,0,0,0,0,0,0,0,0,0,0,0,0,0,0,0,0,2,2,2,2,2,2,2,2,2,2,2,2,2,2,2,2,2,2,2,2,2,2,2,2,2,2,2,2,2,2,2,2,0,0,0,0,0,0,0,0,0,0,0,0,0,0,0,0,0,0,0,0,0,0,0,0,0,0,0,0,0,0,0,0,0,0,0,0,0,0,0,0,0,0,0,0,0,0,0,0,0,0,0,0,0,0,0,0,0,0,0,0,0,0,0,0],"left_children":[1,3,5,7,9,11,13,15,17,19,21,23,25,27,29,31,33,35,37,39,41,43,45,47,49,51,53,55,57,59,61,63,65,67,69,71,73,75,77,79,81,83,85,87,89,91,93,95,97,99,101,103,105,107,109,111,113,115,117,119,121,123,125,-1,-1,-1,-1,-1,-1,-1,-1,-1,-1,-1,-1,-1,-1,-1,-1,-1,-1,-1,-1,-1,-1,-1,-1,-1,-1,-1,-1,-1,-1,-1,-1,-1,-1,-1,-1,-1,-1,-1,-1,-1,-1,-1,-1,-1,-1,-1,-1,-1,-1,-1,-1,-1,-1,-1,-1,-1,-1,-1,-1,-1,-1,-1,-1],"loss_changes":[9.57417812500000000e+04,1.48333125000000000e+04,1.32450322265625000e+04,2.58363281250000000e+03,5.17391796875000000e+03,8.50261523437500000e+03,4.73285839843750000e+03,1.97998437500000000e+03,1.67841110229492188e+02,2.93466796875000000e+02,2.96766406250000000e+03,1.98729980468750000e+03,1.36525859375000000e+04,1.80682470703125000e+03,6.05781250000000000e+02,1.69824218750000000e+02,3.53238281250000000e+02,2.24728698730468750e+01,4.43036651611328125e+01,4.70595703125000000e+01,1.75064453125000000e+02,2.81547656250000000e+03,2.65353417968750000e+03,4.84625976562500000e+02,6.93560546875000000e+02,6.98749511718750000e+03,2.83548828125000000e+03,8.98887304687500000e+03,1.39335485839843750e+03,1.80427734375000000e+02,6.82836914062500000e+01,1.48582031250000000e+02,3.53457031250000000e+01,3.81108398437500000e+01,3.25183593750000000e+02,1.69925537109375000e+01,4.35904693603515625e+00,9.58336830139160156e+00,5.58459854125976562e+00,2.20881347656250000e+01,3.91333007812500000e+01,1.20948730468750000e+02,6.28041992187500000e+01,5.31162109375000000e+02,2.51018554687500000e+02,2.16792968750000000e+02,4.56546600341796875e+02,2.11532958984375000e+02,2.52298339843750000e+02,2.95234375000000000e+02,2.94459716796875000e+02,1.51480566406250000e+03,5.78593750000000000e+02,4.11349609375000000e+02,9.23205810546875000e+02,1.16136840820312500e+03,3.36148437500000000e+02,5.72902648925781250e+02,2.70676513671875000e+02,1.82232910156250000e+02,1.09316406250000000e+01,8.60148925781250000e+01,5.34960937500000000e+00,0.00000000000000000e+00,0.00000000000000000e+00,0.00000000000000000e+00,0.00000000000000000e+00,0.00000000000000000e+00,0.00000000000000000e+00,0.00000000000000000e+00,0.00000000000000000e+00,0.00000000000000000e+00,0.00000000000000000e+00,0.00000000000000000e+00,0.00000000000000000e+00,0.00000000000000000e+00,0.00000000000000000e+00,0.00000000000000000e+00,0.00000000000000000e+00,0.00000000000000000e+00,0.00000000000000000e+00,0.00000000000000000e+00,0.00000000000000000e+00,0.00000000000000000e+00,0.00000000000000000e+00,0.00000000000000000e+00,0.00000000000000000e+00,0.00000000000000000e+00,0.00000000000000000e+00,0.00000000000000000e+00,0.00000000000000000e+00,0.00000000000000000e+00,0.00000000000000000e+00,0.00000000000000000e+00,0.00000000000000000e+00,0.00000000000000000e+00,0.00000000000000000e+00,0.00000000000000000e+00,0.00000000000000000e+00,0.00000000000000000e+00,0.00000000000000000e+00,0.00000000000000000e+00,0.00000000000000000e+00,0.00000000000000000e+00,0.00000000000000000e+00,0.00000000000000000e+00,0.00000000000000000e+00,0.00000000000000000e+00,0.00000000000000000e+00,0.00000000000000000e+00,0.00000000000000000e+00,0.00000000000000000e+00,0.00000000000000000e+00,0.00000000000000000e+00,0.00000000000000000e+00,0.00000000000000000e+00,0.00000000000000000e+00,0.00000000000000000e+00,0.00000000000000000e+00,0.00000000000000000e+00,0.00000000000000000e+00,0.00000000000000000e+00,0.00000000000000000e+00,0.00000000000000000e+00,0.00000000000000000e+00,0.00000000000000000e+00,0.00000000000000000e+00],"parents":[2147483647,0,0,1,1,2,2,3,3,4,4,5,5,6,6,7,7,8,8,9,9,10,10,11,11,12,12,13,13,14,14,15,15,16,16,17,17,18,18,19,19,20,20,21,21,22,22,23,23,24,24,25,25,26,26,27,27,28,28,29,29,30,30,31,31,32,32,33,33,34,34,35,35,36,36,37,37,38,38,39,39,40,40,41,41,42,42,43,43,44,44,45,45,46,46,47,47,48,48,49,49,50,50,51,51,52,52,53,53,54,54,55,55,56,56,57,57,58,58,59,59,60,60,61,61,62,62],"right_children":[2,4,6,8,10,12,14,16,18,20,22,24,26,28,30,32,34,36,38,40,42,44,46,48,50,52,54,56,58,60,62,64,66,68,70,72,74,76,78,80,82,84,86,88,90,92,94,96,98,100,102,104,106,108,110,112,114,116,118,120,122,124,126,-1,-1,-1,-1,-1,-1,-1,-1,-1,-1,-1,-1,-1,-1,-1,-1,-1,-1,-1,-1,-1,-1,-1,-1,-1,-1,-1,-1,-1,-1,-1,-1,-1,-1,-1,-1,-1,-1,-1,-1,-1,-1,-1,-1,-1,-1,-1,-1,-1,-1,-1,-1,-1,-1,-1,-1,-1,-1,-1,-1,-1,-1,-1,-1],"split_conditions":[9.75260809063911438e-02,8.01893696188926697e-02,1.31503567099571228e-01,4.15359199047088623e-01,-1.57832533121109009e-01,-3.79608452320098877e-01,1.73128470778465271e-01,7.02773034572601318e-02,6.63993656635284424e-01,8.75736251473426819e-02,1.92631840705871582e-01,1.15358546376228333e-01,2.12360709905624390e-01,2.10878387093544006e-01,1.94848626852035522e-01,6.60575181245803833e-02,-8.57965871691703796e-02,2.10258364677429199e-01,1.01455450057983398e+00,8.42229723930358887e-02,1.16634473204612732e-01,8.93443375825881958e-02,5.65564990043640137e-01,1.23368002474308014e-01,1.43488228321075439e-01,1.14020958542823792e-01,7.92116284370422363e-01,-7.63977050781250000e-01,1.52685284614562988e-01,3.09481883049011230e+00,3.85118603706359863e+00,2.81470566987991333e-01,6.15703128278255463e-02,-5.77197408676147461e+00,7.62345492839813232e-02,5.04224181175231934e-01,-7.55589842796325684e-01,7.95758128166198730e-01,1.22487378120422363e+00,8.35244208574295044e-02,1.75094962120056152e-01,-3.72342348098754883e-01,2.06780970096588135e-01,8.32576155662536621e-02,9.36291068792343140e-02,4.32079583406448364e-01,1.06710338592529297e+00,1.05389714241027832e-01,7.20928192138671875e-01,-8.52433204650878906e-01,1.10658097267150879e+00,1.06110647320747375e-01,1.23293742537498474e-01,6.33850753307342529e-01,1.11869382858276367e+00,1.95363712310791016e+00,1.41938418149948120e-01,1.56368136405944824e+00,2.36975932121276855e+00,2.98377370834350586e+00,3.35608053207397461e+00,4.00747632980346680e+00,4.62144374847412109e+00,-4.54971551895141602e-01,-3.00354987382888794e-01,-4.59599316120147705e-01,-4.00100886821746826e-01,2.77802884578704834e-01,-4.42757695913314819e-01,-3.47160220146179199e-01,-2.92541354894638062e-01,-1.79662197828292847e-01,-1.09411984682083130e-01,-2.14853122830390930e-01,-3.74853819608688354e-01,-5.20206652581691742e-02,3.26725561171770096e-03,9.97592583298683167e-02,2.22192883491516113e-01,-4.21442240476608276e-01,-3.60640704631805420e-01,2.22413763403892517e-02,-4.46898490190505981e-01,-3.32365870475769043e-01,-2.42274701595306396e-01,-4.86338287591934204e-02,-3.81494671106338501e-01,-2.38847643136978149e-01,-1.76662608981132507e-01,-1.19026944041252136e-01,-7.21769034862518311e-02,-4.27396893501281738e-01,-3.27674984931945801e-01,-1.14775776863098145e-01,2.09326863288879395e-01,-2.30699434876441956e-01,-1.32063627243041992e-01,-3.05576920509338379e-01,-2.03267231583595276e-01,-6.03287853300571442e-02,5.83056770265102386e-02,-1.72434598207473755e-01,-6.45931661128997803e-02,-6.20133662596344948e-03,8.26672315597534180e-02,1.88739910721778870e-01,2.94475525617599487e-01,-3.38136762380599976e-01,-2.22898915410041809e-01,-1.31614699959754944e-01,-3.91696393489837646e-03,2.49006357043981552e-02,2.11831942200660706e-01,3.89279514551162720e-01,5.25435984134674072e-01,-1.42304552718997002e-02,8.34567919373512268e-02,1.22207947075366974e-01,2.63895660638809204e-01,2.42291659116744995e-01,4.05299097299575806e-01,3.78808349370956421e-01,4.63660508394241333e-01,3.97954195737838745e-01,5.82945346832275391e-01,5.28327941894531250e-01,6.30093991756439209e-01],"split_indices":[2,2,2,0,0,0,2,2,0,2,3,2,3,3,2,2,0,3,0,3,3,2,0,3,3,2,0,0,2,0,0,0,3,0,2,0,1,0,0,2,1,0,1,2,2,0,0,2,1,0,1,2,2,0,0,1,2,0,0,1,0,1,0,0,0,0,0,0,0,0,0,0,0,0,0,0,0,0,0,0,0,0,0,0,0,0,0,0,0,0,0,0,0,0,0,0,0,0,0,0,0,0,0,0,0,0,0,0,0,0,0,0,0,0,0,0,0,0,0,0,0,0,0,0,0,0,0],"sum_hessian":[4.42942000000000000e+05,1.98588000000000000e+05,2.44354000000000000e+05,7.70690000000000000e+04,1.21519000000000000e+05,1.67093000000000000e+05,7.72610000000000000e+04,7.43660000000000000e+04,2.70300000000000000e+03,1.47960000000000000e+04,1.06723000000000000e+05,3.95760000000000000e+04,1.27517000000000000e+05,6.77190000000000000e+04,9.54200000000000000e+03,3.10920000000000000e+04,4.32740000000000000e+04,1.35700000000000000e+03,1.34600000000000000e+03,5.23700000000000000e+03,9.55900000000000000e+03,9.49710000000000000e+04,1.17520000000000000e+04,1.77780000000000000e+04,2.17980000000000000e+04,9.29840000000000000e+04,3.45330000000000000e+04,2.99450000000000000e+04,3.77740000000000000e+04,7.00600000000000000e+03,2.53600000000000000e+03,1.79790000000000000e+04,1.31130000000000000e+04,2.51400000000000000e+03,4.07600000000000000e+04,1.28200000000000000e+03,7.50000000000000000e+01,1.12900000000000000e+03,2.17000000000000000e+02,2.38000000000000000e+03,2.85700000000000000e+03,5.55000000000000000e+03,4.00900000000000000e+03,5.37370000000000000e+04,4.12340000000000000e+04,8.90200000000000000e+03,2.85000000000000000e+03,8.30300000000000000e+03,9.47500000000000000e+03,1.08270000000000000e+04,1.09710000000000000e+04,7.30630000000000000e+04,1.99210000000000000e+04,1.13800000000000000e+04,2.31530000000000000e+04,2.23370000000000000e+04,7.60800000000000000e+03,2.63260000000000000e+04,1.14480000000000000e+04,6.35400000000000000e+03,6.52000000000000000e+02,2.04400000000000000e+03,4.92000000000000000e+02,1.73930000000000000e+04,5.86000000000000000e+02,1.02400000000000000e+03,1.20890000000000000e+04,6.00000000000000000e+00,2.50800000000000000e+03,2.41280000000000000e+04,1.66320000000000000e+04,5.45000000000000000e+02,7.37000000000000000e+02,3.30000000000000000e+01,4.20000000000000000e+01,5.43000000000000000e+02,5.86000000000000000e+02,1.75000000000000000e+02,4.20000000000000000e+01,9.86000000000000000e+02,1.39400000000000000e+03,1.60000000000000000e+01,2.84100000000000000e+03,3.22300000000000000e+03,2.32700000000000000e+03,5.20000000000000000e+01,3.95700000000000000e+03,1.93130000000000000e+04,3.44240000000000000e+04,1.99070000000000000e+04,2.13270000000000000e+04,5.93800000000000000e+03,2.96400000000000000e+03,2.38300000000000000e+03,4.67000000000000000e+02,3.16800000000000000e+03,5.13500000000000000e+03,6.09000000000000000e+03,3.38500000000000000e+03,8.39200000000000000e+03,2.43500000000000000e+03,7.73900000000000000e+03,3.23200000000000000e+03,4.50950000000000000e+04,2.79680000000000000e+04,1.24790000000000000e+04,7.44200000000000000e+03,4.92000000000000000e+03,6.46000000000000000e+03,1.55820000000000000e+04,7.57100000000000000e+03,1.87800000000000000e+04,3.55700000000000000e+03,5.21200000000000000e+03,2.39600000000000000e+03,1.87340000000000000e+04,7.59200000000000000e+03,1.00680000000000000e+04,1.38000000000000000e+03,5.65900000000000000e+03,6.95000000000000000e+02,2.93000000000000000e+02,3.59000000000000000e+02,1.77900000000000000e+03,2.65000000000000000e+02,4.00000000000000000e+02,9.20000000000000000e+01],"tree_param":{"num_feature":"4","num_nodes":"127","size_leaf_vector":"0"}},{"base_weights":[-2.45017707347869873e-01,-5.92523694038391113e-01,6.22601620852947235e-02,-8.67043375968933105e-01,-4.53656643629074097e-01,-1.61080546677112579e-02,4.12547051906585693e-01,-8.91502916812896729e-01,-1.66512489318847656e-01,-8.38991284370422363e-01,-3.97329390048980713e-01,-2.53812253475189209e-01,7.27069154381752014e-02,3.28026264905929565e-01,8.29435110092163086e-01,-1.02803432941436768e+00,-8.08457076549530029e-01,-3.36762219667434692e-01,-9.44730639457702637e-03,-1.01800906658172607e+00,-7.74482846260070801e-01,-5.26536285877227783e-01,-2.88478821516036987e-01,-4.60625052452087402e-01,-8.85583460330963135e-02,-2.48286142945289612e-01,2.50050127506256104e-01,2.93844074010848999e-01,7.71998763084411621e-01,7.26113379001617432e-01,1.08049082756042480e+00,-1.03819286823272705e+00,-6.98915898799896240e-01,-1.02735352516174316e+00,-7.92628347873687744e-01,-2.93347567319869995e-01,-5.50235152244567871e-01,-7.83670097589492798e-02,2.36290410161018372e-01,-1.07871460914611816e+00,-9.24969911575317383e-01,-7.08952248096466064e-01,-9.12258744239807129e-01,-8.13799440860748291e-01,-4.81135785579681396e-01,-2.33497977256774902e-01,-7.29682385921478271e-01,-3.32106113433837891e-01,-5.58091998100280762e-01,7.53268375992774963e-02,-2.17649787664413452e-01,-4.53191637992858887e-01,-4.89265806972980499e-02,1.09587498009204865e-01,6.91336691379547119e-01,2.58337467908859253e-01,5.27453720569610596e-01,8.24468433856964111e-01,4.25557255744934082e-01,6.91779494285583496e-01,1.22073316574096680e+00,1.31377136707305908e+00,1.01681852340698242e+00,-1.10662651062011719e+00,-9.95000779628753662e-01,-8.04989933967590332e-01,-5.45798122882843018e-01,-1.05984342098236084e+00,-9.40771043300628662e-01,-8.51479530334472656e-01,-7.34653234481811523e-01,-2.76706457138061523e-01,-1.04666733741760254e+00,-4.48474675416946411e-01,-1.03866243362426758e+00,-8.45767334103584290e-02,1.42534852027893066e+00,2.44130536913871765e-01,-9.32431578636169434e-01,9.07675147056579590e-01,-1.08328223228454590e+00,-9.64864075183868408e-01,-5.78079760074615479e-01,-7.73806691169738770e-01,-4.85927313566207886e-01,-7.60026276111602783e-01,-1.04013991355895996e+00,-1.05543100833892822e+00,-2.45861127972602844e-01,-9.05630230903625488e-01,-4.72286760807037354e-01,-3.09896916151046753e-01,-1.65738657116889954e-01,-8.55184018611907959e-01,-1.11547531560063362e-02,-4.55040246248245239e-01,-2.14745223522186279e-01,-6.66013002395629883e-01,-3.60437184572219849e-01,-5.25106973946094513e-02,1.50220707058906555e-01,-1.26930857077240944e-02,-4.03598576784133911e-01,-1.71656355261802673e-01,-5.52138090133666992e-01,5.83610177040100098e-01,-1.01735480129718781e-01,3.08082066476345062e-02,2.40613892674446106e-01,5.47546029090881348e-01,9.16501641273498535e-01,4.05209660530090332e-01,1.56695291399955750e-01,4.79480266571044922e-01,9.58885848522186279e-01,7.14986681938171387e-01,9.25061285495758057e-01,9.97628867626190186e-01,3.72684061527252197e-01,9.99910533428192139e-01,6.20391905307769775e-01,1.41193509101867676e+00,1.14921867847442627e+00,1.25699543952941895e+00,1.45564627647399902e+00,1.43411695957183838e+00,9.62941288948059082e-01],"default_left":[true,true,true,true,true,true,true,true,true,true,true,true,true,true,true,true,true,true,true,true,true,true,true,true,true,true,true,true,true,true,true,true,true,true,true,true,true,true,true,true,true,true,true,true,true,true,true,true,true,true,true,true,true,true,true,true,true,true,true,true,true,true,true,false,false,false,false,false,false,false,false,false,false,false,false,false,false,false,false,false,false,false,false,false,false,false,false,false,false,false,false,false,false,false,false,false,false,false,false,false,false,false,false,false,false,false,false,false,false,false,false,false,false,false,false,false,false,false,false,false,false,false,false,false,false,false,false],"id":2,"leaf_child_counts":[0,0,0,0,0,0,0,0,0,0,0,0,0,0,0,0,0,0,0,0,0,0,0,0,0,0,0,0,0,0,0,2,2,2,2,2,2,2,2,2,2,2,2,2,2,2,2,2,2,2,2,2,2,2,2,2,2,2,2,2,2,2,2,0,0,0,0,0,0,0,0,0,0,0,0,0,0,0,0,0,0,0,0,0,0,0,0,0,0,0,0,0,0,0,0,0,0,0,0,0,0,0,0,0,0,0,0,0,0,0,0,0,0,0,0,0,0,0,0,0,0,0,0,0,0,0,0],"left_children":[1,3,5,7,9,11,13,15,17,19,21,23,25,27,29,31,33,35,37,39,41,43,45,47,49,51,53,55,57,59,61,63,65,67,69,71,73,75,77,79,81,83,85,87,89,91,93,95,97,99,101,103,105,107,109,111,113,115,117,119,121,123,125,-1,-1,-1,-1,-1,-1,-1,-1,-1,-1,-1,-1,-1,-1,-1,-1,-1,-1,-1,-1,-1,-1,-1,-1,-1,-1,-1,-1,-1,-1,-1,-1,-1,-1,-1,-1,-1,-1,-1,-1,-1,-1,-1,-1,-1,-1,-1,-1,-1,-1,-1,-1,-1,-1,-1,-1,-1,-1,-1,-1,-1,-1,-1,-1],"loss_changes":[4.72978867187500000e+04,7.92378125000000000e+03,6.45324462890625000e+03,1.19629687500000000e+03,2.99580273437500000e+03,4.05561694335937500e+03,1.51408837890625000e+03,7.64171875000000000e+02,6.30237197875976562e+01,2.02505859375000000e+02,1.69370507812500000e+03,1.78579003906250000e+03,7.96115478515625000e+03,5.42085693359375000e+02,1.87121582031250000e+02,8.45761718750000000e+01,1.44560546875000000e+02,1.03205413818359375e+01,2.07991981506347656e+01,2.53217773437500000e+01,1.16228027343750000e+02,7.17800781250000000e+02,1.58555859375000000e+03,2.90525878906250000e+02,6.14518676757812500e+02,2.03303491210937500e+03,5.58359082031250000e+03,2.75097900390625000e+02,4.60749511718750000e+01,8.63593750000000000e+01,3.00048828125000000e+01,7.20488281250000000e+01,1.20180969238281250e+01,6.95263671875000000e+00,1.32888671875000000e+02,1.15193634033203125e+01,8.97768020629882812e+00,9.07536506652832031e+00,2.69246292114257812e+00,2.65151367187500000e+01,2.50026855468750000e+01,1.26575683593750000e+02,8.03701171875000000e+01,1.03089990234375000e+03,1.78206054687500000e+02,3.00862060546875000e+02,6.53138427734375000e+02,1.44351928710937500e+02,2.81266601562500000e+02,1.22548683166503906e+02,6.19229736328125000e+02,6.83597656250000000e+02,8.42731262207031250e+02,7.05337280273437500e+02,7.03689453125000000e+02,4.29964111328125000e+02,9.01322021484375000e+01,2.37545166015625000e+01,9.85177230834960938e+00,1.05052001953125000e+02,2.91702270507812500e+00,1.78698730468750000e+00,3.59855957031250000e+01,0.00000000000000000e+00,0.00000000000000000e+00,0.00000000000000000e+00,0.00000000000000000e+00,0.00000000000000000e+00,0.00000000000000000e+00,0.00000000000000000e+00,0.00000000000000000e+00,0.00000000000000000e+00,0.00000000000000000e+00,0.00000000000000000e+00,0.00000000000000000e+00,0.00000000000000000e+00,0.00000000000000000e+00,0.00000000000000000e+00,0.00000000000000000e+00,0.00000000000000000e+00,0.00000000000000000e+00,0.00000000000000000e+00,0.00000000000000000e+00,0.00000000000000000e+00,0.00000000000000000e+00,0.00000000000000000e+00,0.00000000000000000e+00,0.00000000000000000e+00,0.00000000000000000e+00,0.00000000000000000e+00,0.00000000000000000e+00,0.00000000000000000e+00,0.00000000000000000e+00,0.00000000000000000e+00,0.00000000000000000e+00,0.00000000000000000e+00,0.00000000000000000e+00,0.00000000000000000e+00,0.00000000000000000e+00,0.00000000000000000e+00,0.00000000000000000e+00,0.00000000000000000e+00,0.00000000000000000e+00,0.00000000000000000e+00,0.00000000000000000e+00,0.00000000000000000e+00,0.00000000000000000e+00,0.00000000000000000e+00,0.00000000000000000e+00,0.00000000000000000e+00,0.00000000000000000e+00,0.00000000000000000e+00,0.00000000000000000e+00,0.00000000000000000e+00,0.00000000000000000e+00,0.00000000000000000e+00,0.00000000000000000e+00,0.00000000000000000e+00,0.00000000000000000e+00,0.00000000000000000e+00,0.00000000000000000e+00,0.00000000000000000e+00,0.00000000000000000e+00,0.00000000000000000e+00,0.00000000000000000e+00,0.00000000000000000e+00,0.00000000000000000e+00],"parents":[2147483647,0,0,1,1,2,2,3,3,4,4,5,5,6,6,7,7,8,8,9,9,10,10,11,11,12,12,13,13,14,14,15,15,16,16,17,17,18,18,19,19,20,20,21,21,22,22,23,23,24,24,25,25,26,26,27,27,28,28,29,29,30,30,31,31,32,32,33,33,34,34,35,35,36,36,37,37,38,38,39,39,40,40,41,41,42,42,43,43,44,44,45,45,46,46,47,47,48,48,49,49,50,50,51,51,52,52,53,53,54,54,55,55,56,56,57,57,58,58,59,59,60,60,61,61,62,62],"right_children":[2,4,6,8,10,12,14,16,18,20,22,24,26,28,30,32,34,36,38,40,42,44,46,48,50,52,54,56,58,60,62,64,66,68,70,72,74,76,78,80,82,84,86,88,90,92,94,96,98,100,102,104,106,108,110,112,114,116,118,120,122,124,126,-1,-1,-1,-1,-1,-1,-1,-1,-1,-1,-1,-1,-1,-1,-1,-1,-1,-1,-1,-1,-1,-1,-1,-1,-1,-1,-1,-1,-1,-1,-1,-1,-1,-1,-1,-1,-1,-1,-1,-1,-1,-1,-1,-1,-1,-1,-1,-1,-1,-1,-1,-1,-1,-1,-1,-1,-1,-1,-1,-1,-1,-1,-1,-1],"split_conditions":[9.90241169929504395e-02,7.89224803447723389e-02,1.43867790699005127e-01,4.27987247705459595e-01,-1.43515095114707947e-01,-4.45940762758255005e-01,1.78202345967292786e-01,6.83392137289047241e-02,6.61805629730224609e-01,8.56386274099349976e-02,8.77230614423751831e-02,1.20820105075836182e-01,-4.54219698905944824e-01,2.29485082626342773e+00,1.97605624794960022e-01,2.68442213535308838e-01,7.40371793508529663e-02,2.02609151601791382e-01,9.53414559364318848e-01,3.05360049009323120e-01,1.31995975971221924e-01,-1.90865129232406616e-01,2.04045623540878296e-01,1.16871014237403870e-01,1.51308000087738037e-01,1.01623606681823730e+00,1.16623193025588989e-01,2.09716773033142090e+00,-2.91102075576782227e+00,3.35374546051025391e+00,-5.42030525207519531e+00,6.41336888074874878e-02,3.46190333366394043e-01,5.25306835770606995e-02,7.39359855651855469e-02,-8.64744111895561218e-02,-5.99900484085083008e-01,-2.69755542278289795e-01,2.20258474349975586e+00,-5.70935726165771484e+00,-3.02555650472640991e-01,-2.56925821304321289e-01,-1.03716611862182617e+00,3.90767812728881836e-01,8.44692438840866089e-02,9.32223349809646606e-02,7.66071438789367676e-01,1.11487179994583130e-01,8.15741002559661865e-01,1.27875596284866333e-01,-2.86241292953491211e+00,2.29680225253105164e-01,2.40607500076293945e-01,1.07340350747108459e-01,1.27590745687484741e-01,2.11545735597610474e-01,2.83631300926208496e+00,2.53529071807861328e+00,1.32451817393302917e-01,-4.33588218688964844e+00,1.85421317815780640e-01,4.47106933593750000e+00,-8.31830406188964844e+00,-3.31987977027893066e-01,-2.98500239849090576e-01,-2.41496995091438293e-01,-1.63739442825317383e-01,-3.17953050136566162e-01,-2.82231330871582031e-01,-2.55443871021270752e-01,-2.20395982265472412e-01,-8.30119401216506958e-02,-3.14000219106674194e-01,-1.34542405605316162e-01,-3.11598747968673706e-01,-2.53730211406946182e-02,4.27604585886001587e-01,7.32391625642776489e-02,-2.79729485511779785e-01,2.72302567958831787e-01,-3.24984669685363770e-01,-2.89459228515625000e-01,-1.73423931002616882e-01,-2.32142016291618347e-01,-1.45778194069862366e-01,-2.28007897734642029e-01,-3.12041997909545898e-01,-3.16629320383071899e-01,-7.37583413720130920e-02,-2.71689087152481079e-01,-1.41686037182807922e-01,-9.29690748453140259e-02,-4.97215986251831055e-02,-2.56555229425430298e-01,-3.34642617963254452e-03,-1.36512085795402527e-01,-6.44235685467720032e-02,-1.99803903698921204e-01,-1.08131162822246552e-01,-1.57532095909118652e-02,4.50662150979042053e-02,-3.80792585201561451e-03,-1.21079578995704651e-01,-5.14969080686569214e-02,-1.65641427040100098e-01,1.75083056092262268e-01,-3.05206459015607834e-02,9.24246199429035187e-03,7.21841678023338318e-02,1.64263814687728882e-01,2.74950504302978516e-01,1.21562905609607697e-01,4.70085889101028442e-02,1.43844082951545715e-01,2.87665754556655884e-01,2.14496016502380371e-01,2.77518391609191895e-01,2.99288660287857056e-01,1.11805222928524017e-01,2.99973160028457642e-01,1.86117574572563171e-01,4.23580557107925415e-01,3.44765603542327881e-01,3.77098649740219116e-01,4.36693906784057617e-01,4.30235117673873901e-01,2.88882404565811157e-01],"split_indices":[2,2,2,0,0,0,2,2,0,2,2,2,1,1,2,0,3,3,0,1,3,1,3,3,3,0,2,0,0,1,1,2,0,3,2,1,1,1,0,0,0,0,0,0,3,2,0,2,1,2,0,3,3,2,2,3,0,1,3,1,3,0,0,0,0,0,0,0,0,0,0,0,0,0,0,0,0,0,0,0,0,0,0,0,0,0,0,0,0,0,0,0,0,0,0,0,0,0,0,0,0,0,0,0,0,0,0,0,0,0,0,0,0,0,0,0,0,0,0,0,0,0,0,0,0,0,0],"sum_hessian":[4.42942000000000000e+05,2.07864000000000000e+05,2.35078000000000000e+05,6.98250000000000000e+04,1.38039000000000000e+05,1.92101000000000000e+05,4.29770000000000000e+04,6.74690000000000000e+04,2.35600000000000000e+03,1.76030000000000000e+04,1.20436000000000000e+05,5.22520000000000000e+04,1.39849000000000000e+05,3.57340000000000000e+04,7.24300000000000000e+03,2.55130000000000000e+04,4.19560000000000000e+04,1.13000000000000000e+03,1.22600000000000000e+03,4.65900000000000000e+03,1.29440000000000000e+04,5.50670000000000000e+04,6.53690000000000000e+04,2.32070000000000000e+04,2.90450000000000000e+04,4.97680000000000000e+04,9.00810000000000000e+04,3.31810000000000000e+04,2.55300000000000000e+03,5.13400000000000000e+03,2.10900000000000000e+03,2.47470000000000000e+04,7.66000000000000000e+02,2.82500000000000000e+03,3.91310000000000000e+04,9.41000000000000000e+02,1.89000000000000000e+02,9.58000000000000000e+02,2.68000000000000000e+02,2.81300000000000000e+03,1.84600000000000000e+03,8.77600000000000000e+03,4.16800000000000000e+03,7.51300000000000000e+03,4.75540000000000000e+04,5.81270000000000000e+04,7.24200000000000000e+03,1.00110000000000000e+04,1.31960000000000000e+04,1.27980000000000000e+04,1.62470000000000000e+04,2.45420000000000000e+04,2.52260000000000000e+04,6.83320000000000000e+04,2.17490000000000000e+04,2.88050000000000000e+04,4.37600000000000000e+03,2.21600000000000000e+03,3.37000000000000000e+02,4.80300000000000000e+03,3.31000000000000000e+02,4.48000000000000000e+02,1.66100000000000000e+03,9.56600000000000000e+03,1.51810000000000000e+04,4.50000000000000000e+02,3.16000000000000000e+02,2.04600000000000000e+03,7.79000000000000000e+02,1.94120000000000000e+04,1.97190000000000000e+04,9.22000000000000000e+02,1.90000000000000000e+01,1.58000000000000000e+02,3.10000000000000000e+01,9.55000000000000000e+02,3.00000000000000000e+00,2.67000000000000000e+02,1.00000000000000000e+00,6.00000000000000000e+00,2.80700000000000000e+03,1.65400000000000000e+03,1.92000000000000000e+02,6.79700000000000000e+03,1.97900000000000000e+03,1.90600000000000000e+03,2.26200000000000000e+03,5.27000000000000000e+03,2.24300000000000000e+03,9.69000000000000000e+02,4.65850000000000000e+04,2.73200000000000000e+04,3.08070000000000000e+04,6.16500000000000000e+03,1.07700000000000000e+03,4.88800000000000000e+03,5.12300000000000000e+03,8.53400000000000000e+03,4.66200000000000000e+03,4.72800000000000000e+03,8.07000000000000000e+03,7.72900000000000000e+03,8.51800000000000000e+03,6.38300000000000000e+03,1.81590000000000000e+04,1.94300000000000000e+03,2.32830000000000000e+04,4.26750000000000000e+04,2.56570000000000000e+04,1.32750000000000000e+04,8.47400000000000000e+03,1.17800000000000000e+04,1.70250000000000000e+04,3.94000000000000000e+03,4.36000000000000000e+02,1.06500000000000000e+03,1.15100000000000000e+03,2.70000000000000000e+01,3.10000000000000000e+02,9.01000000000000000e+02,3.90200000000000000e+03,8.50000000000000000e+01,2.46000000000000000e+02,3.27000000000000000e+02,1.21000000000000000e+02,1.87000000000000000e+02,1.47400000000000000e+03],"tree_param":{"num_feature":"4","num_nodes":"127","size_leaf_vector":"0"}},{"base_weights":[-1.71515241265296936e-01,-4.07337725162506104e-01,5.20451776683330536e-02,-5.79465866088867188e-01,-2.90167599916458130e-01,-8.39493144303560257e-03,2.73909032344818115e-01,-6.94481849670410156e-01,-5.05757033824920654e-01,-5.89459776878356934e-01,-2.47394531965255737e-01,-1.91596612334251404e-01,5.69015070796012878e-02,2.24656760692596436e-01,6.14997804164886475e-01,-7.48885214328765869e-01,-6.52111768722534180e-01,-5.27422726154327393e-01,-7.74196311831474304e-02,-6.49801969528198242e-01,-4.82150048017501831e-01,-2.13740929961204529e-01,-5.20592868328094482e-01,-2.59131342172622681e-01,6.05428479611873627e-02,1.72796890139579773e-01,-2.06416860222816467e-01,1.96754336357116699e-01,4.77521002292633057e-01,5.63478350639343262e-01,8.45001339912414551e-01,-8.12136113643646240e-01,-7.33005762100219727e-01,-6.87830686569213867e-01,-6.22548043727874756e-01,-5.14262735843658447e-01,-8.60602676868438721e-01,-1.81055039167404175e-01,1.09435245394706726e-01,-5.80653190612792969e-01,-6.97750449180603027e-01,-5.13973832130432129e-01,-3.10969173908233643e-01,-2.96277791261672974e-01,-1.27562612295150757e-01,-6.71789169311523438e-01,-2.70213391631841660e-02,-1.48920401930809021e-01,-3.35420191287994385e-01,-1.28839099779725075e-02,1.56293928623199463e-01,7.96714425086975098e-02,4.87411260604858398e-01,-3.07557106018066406e-01,1.53261974453926086e-01,8.41300114989280701e-02,2.86565601825714111e-01,6.34108483791351318e-01,3.94928216934204102e-01,4.83607709407806396e-01,8.13275992870330811e-01,7.78343200683593750e-01,9.40295338630676270e-01,-7.42078125476837158e-01,-6.49279117584228516e-01,-7.62638568878173828e-01,-6.83219671249389648e-01,-9.58703219890594482e-01,-6.17188692092895508e-01,-6.45603299140930176e-01,-4.79584783315658569e-01,-1.06795442104339600e+00,-5.92561542987823486e-01,-1.57974049448966980e-01,-7.32255518436431885e-01,5.86580820381641388e-02,4.58679139614105225e-01,-6.57897293567657471e-01,-5.33346235752105713e-01,5.46605810523033142e-02,-7.05670416355133057e-01,-5.81454634666442871e-01,-4.45106059312820435e-01,-1.89925968647003174e-01,-7.82992422580718994e-01,-3.04487764835357666e-01,4.31910939514636993e-02,-1.37566015124320984e-01,1.53400048613548279e-01,-5.98561167716979980e-01,-7.89339601993560791e-01,-1.13395825028419495e-01,8.46129357814788818e-01,-2.67419874668121338e-01,1.28628499805927277e-02,-4.54445809125900269e-01,-2.73562073707580566e-01,-2.77487058192491531e-02,7.24579632282257080e-01,1.52363181114196777e-01,1.13903307914733887e+00,3.13108973205089569e-02,1.94741562008857727e-01,3.68185997009277344e-01,6.05262398719787598e-01,-5.44938087463378906e-01,-2.46320724487304688e-01,9.69551429152488708e-02,6.59150421619415283e-01,4.17932450771331787e-01,9.62542090564966202e-03,1.12211239337921143e+00,1.53720200061798096e-01,6.71020805835723877e-01,5.68981111049652100e-01,5.99105238914489746e-01,2.63696789741516113e-01,9.56434845924377441e-01,4.65562850236892700e-01,7.29993522167205811e-01,9.58307623863220215e-01,1.17518436908721924e+00,7.50430107116699219e-01,8.96990954875946045e-01,1.04575562477111816e+00],"default_left":[true,true,true,true,true,true,true,true,true,true,true,true,true,true,true,true,true,true,true,true,true,true,true,true,true,true,true,true,true,true,true,false,true,true,true,true,true,true,true,true,true,true,true,true,true,true,true,true,true,true,true,true,true,true,true,true,true,true,true,true,true,true,true,false,false,false,false,false,false,false,false,false,false,false,false,false,false,false,false,false,false,false,false,false,false,false,false,false,false,false,false,false,false,false,false,false,false,false,false,false,false,false,false,false,false,false,false,false,false,false,false,false,false,false,false,false,false,false,false,false,false,false,false,false,false],"id":3,"leaf_child_counts":[0,0,0,0,0,0,0,0,0,0,0,0,0,0,0,1,0,0,0,0,0,0,0,0,0,0,0,0,0,0,0,0,2,2,2,2,2,2,2,2,2,2,2,2,2,2,2,2,2,2,2,2,2,2,2,2,2,2,2,2,2,2,2,0,0,0,0,0,0,0,0,0,0,0,0,0,0,0,0,0,0,0,0,0,0,0,0,0,0,0,0,0,0,0,0,0,0,0,0,0,0,0,0,0,0,0,0,0,0,0,0,0,0,0,0,0,0,0,0,0,0,0,0,0,0],"left_children":[1,3,5,7,9,11,13,15,17,19,21,23,25,27,29,31,33,35,37,39,41,43,45,47,49,51,53,55,57,59,61,-1,63,65,67,69,71,73,75,77,79,81,83,85,87,89,91,93,95,97,99,101,103,105,107,109,111,113,115,117,119,121,123,-1,-1,-1,-1,-1,-1,-1,-1,-1,-1,-1,-1,-1,-1,-1,-1,-1,-1,-1,-1,-1,-1,-1,-1,-1,-1,-1,-1,-1,-1,-1,-1,-1,-1,-1,-1,-1,-1,-1,-1,-1,-1,-1,-1,-1,-1,-1,-1,-1,-1,-1,-1,-1,-1,-1,-1,-1,-1,-1,-1,-1,-1],"loss_changes":[2.33522304687500000e+04,4.34730468750000000e+03,3.04910253906250000e+03,7.39785156250000000e+02,1.64175488281250000e+03,2.13773095703125000e+03,8.17690185546875000e+02,7.81035156250000000e+01,4.93759765625000000e+02,1.03530761718750000e+02,1.03166113281250000e+03,7.99607543945312500e+02,4.02060961914062500e+03,3.00055175781250000e+02,7.23044433593750000e+01,1.43916015625000000e+01,1.98203125000000000e+01,2.21630859375000000e+02,4.96517486572265625e+01,3.36196289062500000e+01,3.13056640625000000e+01,7.10645996093750000e+02,9.18406494140625000e+02,3.11352050781250000e+02,6.97534942626953125e+01,2.68028540039062500e+03,1.46480725097656250e+03,3.87529541015625000e+02,5.44173583984375000e+01,9.97832031250000000e+01,6.39520263671875000e+00,0.00000000000000000e+00,8.58544921875000000e+00,2.47070312500000000e+00,1.83283691406250000e+01,2.21619140625000000e+02,1.06245239257812500e+02,2.08633193969726562e+01,1.61993522644042969e+01,1.50257568359375000e+01,3.61208496093750000e+01,2.23686523437500000e+01,5.17300567626953125e+01,1.42250000000000000e+02,1.37405212402343750e+02,8.06230468750000000e+01,2.17827529907226562e+02,2.90485900878906250e+02,1.61015869140625000e+02,6.15840759277343750e+01,1.64600524902343750e+01,3.92816864013671875e+02,2.93355468750000000e+02,4.56714111328125000e+02,2.51686309814453125e+02,4.22782775878906250e+02,2.36587207031250000e+03,3.12322998046875000e+00,7.40626220703125000e+01,3.20364379882812500e+01,1.39759521484375000e+01,6.49542236328125000e+00,1.14904785156250000e+00,0.00000000000000000e+00,0.00000000000000000e+00,0.00000000000000000e+00,0.00000000000000000e+00,0.00000000000000000e+00,0.00000000000000000e+00,0.00000000000000000e+00,0.00000000000000000e+00,0.00000000000000000e+00,0.00000000000000000e+00,0.00000000000000000e+00,0.00000000000000000e+00,0.00000000000000000e+00,0.00000000000000000e+00,0.00000000000000000e+00,0.00000000000000000e+00,0.00000000000000000e+00,0.00000000000000000e+00,0.00000000000000000e+00,0.00000000000000000e+00,0.00000000000000000e+00,0.00000000000000000e+00,0.00000000000000000e+00,0.00000000000000000e+00,0.00000000000000000e+00,0.00000000000000000e+00,0.00000000000000000e+00,0.00000000000000000e+00,0.00000000000000000e+00,0.00000000000000000e+00,0.00000000000000000e+00,0.00000000000000000e+00,0.00000000000000000e+00,0.00000000000000000e+00,0.00000000000000000e+00,0.00000000000000000e+00,0.00000000000000000e+00,0.00000000000000000e+00,0.00000000000000000e+00,0.00000000000000000e+00,0.00000000000000000e+00,0.00000000000000000e+00,0.00000000000000000e+00,0.00000000000000000e+00,0.00000000000000000e+00,0.00000000000000000e+00,0.00000000000000000e+00,0.00000000000000000e+00,0.00000000000000000e+00,0.00000000000000000e+00,0.00000000000000000e+00,0.00000000000000000e+00,0.00000000000000000e+00,0.00000000000000000e+00,0.00000000000000000e+00,0.00000000000000000e+00,0.00000000000000000e+00,0.00000000000000000e+00,0.00000000000000000e+00,0.00000000000000000e+00,0.00000000000000000e+00,0.00000000000000000e+00],"parents":[2147483647,0,0,1,1,2,2,3,3,4,4,5,5,6,6,7,7,8,8,9,9,10,10,11,11,12,12,13,13,14,14,15,15,16,16,17,17,18,18,19,19,20,20,21,21,22,22,23,23,24,24,25,25,26,26,27,27,28,28,29,29,30,30,32,32,33,33,34,34,35,35,36,36,37,37,38,38,39,39,40,40,41,41,42,42,43,43,44,44,45,45,46,46,47,47,48,48,49,49,50,50,51,51,52,52,53,53,54,54,55,55,56,56,57,57,58,58,59,59,60,60,61,61,62,62],"right_children":[2,4,6,8,10,12,14,16,18,20,22,24,26,28,30,32,34,36,38,40,42,44,46,48,50,52,54,56,58,60,62,-1,64,66,68,70,72,74,76,78,80,82,84,86,88,90,92,94,96,98,100,102,104,106,108,110,112,114,116,118,120,122,124,-1,-1,-1,-1,-1,-1,-1,-1,-1,-1,-1,-1,-1,-1,-1,-1,-1,-1,-1,-1,-1,-1,-1,-1,-1,-1,-1,-1,-1,-1,-1,-1,-1,-1,-1,-1,-1,-1,-1,-1,-1,-1,-1,-1,-1,-1,-1,-1,-1,-1,-1,-1,-1,-1,-1,-1,-1,-1,-1,-1,-1,-1],"split_conditions":[1.00161589682102203e-01,8.17212164402008057e-02,1.41595959663391113e-01,8.85234326124191284e-02,-1.91104680299758911e-01,-5.30135512351989746e-01,1.80834889411926270e-01,6.95989876985549927e-02,4.64035511016845703e-01,4.29361104965209961e-01,1.98338747024536133e-01,1.26320934295654297e+00,2.27259725332260132e-01,2.18800044059753418e+00,3.41064596176147461e+00,6.24779984354972839e-02,6.73683732748031616e-02,1.80868685245513916e-01,7.93834328651428223e-01,8.75709801912307739e-02,-4.56645756959915161e-01,9.05811935663223267e-02,6.07124447822570801e-01,1.22095435857772827e-01,1.46974873542785645e+00,1.17754749953746796e-01,1.32386374473571777e+00,-1.08298873901367188e+00,-6.08489418029785156e+00,3.19778251647949219e+00,3.94435644149780273e+00,-2.43640840053558350e-01,2.51959234476089478e-01,6.32367208600044250e-02,-2.47479259967803955e-01,7.20335245132446289e-02,3.15478384494781494e-01,2.21251308917999268e-01,1.13680398464202881e+00,3.27909111976623535e-01,2.07186818122863770e-01,5.05419313907623291e-01,1.26435279846191406e-01,4.26964640617370605e-01,4.79001879692077637e-01,-6.08664631843566895e-01,1.27215576171875000e+00,1.20102025568485260e-01,8.00240874290466309e-01,-1.19148087501525879e+00,-1.39270794391632080e+00,1.09026178717613220e-01,1.25460326671600342e-01,7.45359420776367188e-01,1.77730071544647217e+00,1.29428133368492126e-01,2.31015324592590332e-01,-7.39622545242309570e+00,1.63416713476181030e-01,1.31729677319526672e-01,3.85309100151062012e+00,2.99648523330688477e-01,4.49952888488769531e+00,-2.22623452544212341e-01,-1.94783747196197510e-01,-2.28791579604148865e-01,-2.04965904355049133e-01,-2.87610977888107300e-01,-1.85156613588333130e-01,-1.93681001663208008e-01,-1.43875434994697571e-01,-3.20386350154876709e-01,-1.77768468856811523e-01,-4.73922155797481537e-02,-2.19676658511161804e-01,1.75974257290363312e-02,1.37603744864463806e-01,-1.97369202971458435e-01,-1.60003870725631714e-01,1.63981746882200241e-02,-2.11701139807701111e-01,-1.74436390399932861e-01,-1.33531823754310608e-01,-5.69777935743331909e-02,-2.34897732734680176e-01,-9.13463309407234192e-02,1.29573289304971695e-02,-4.12698052823543549e-02,4.60200160741806030e-02,-1.79568350315093994e-01,-2.36801892518997192e-01,-3.40187475085258484e-02,2.53838807344436646e-01,-8.02259668707847595e-02,3.85885522700846195e-03,-1.36333748698234558e-01,-8.20686221122741699e-02,-8.32461193203926086e-03,2.17373892664909363e-01,4.57089543342590332e-02,3.41709941625595093e-01,9.39326919615268707e-03,5.84224723279476166e-02,1.10455803573131561e-01,1.81578725576400757e-01,-1.63481429219245911e-01,-7.38962218165397644e-02,2.90865432471036911e-02,1.97745129466056824e-01,1.25379741191864014e-01,2.88762641139328480e-03,3.36633741855621338e-01,4.61160615086555481e-02,2.01306253671646118e-01,1.70694336295127869e-01,1.79731577634811401e-01,7.91090428829193115e-02,2.86930471658706665e-01,1.39668866991996765e-01,2.18998059630393982e-01,2.87492305040359497e-01,3.52555334568023682e-01,2.25129038095474243e-01,2.69097298383712769e-01,3.13726693391799927e-01],"split_indices":[2,2,2,3,0,0,2,3,0,1,3,1,3,1,0,2,2,3,0,3,0,2,0,3,1,2,0,0,0,1,0,0,1,2,0,2,0,3,0,1,1,1,3,0,0,1,0,2,1,0,0,2,2,0,0,3,3,0,3,3,1,3,0,0,0,0,0,0,0,0,0,0,0,0,0,0,0,0,0,0,0,0,0,0,0,0,0,0,0,0,0,0,0,0,0,0,0,0,0,0,0,0,0,0,0,0,0,0,0,0,0,0,0,0,0,0,0,0,0,0,0,0,0,0,0],"sum_hessian":[4.42942000000000000e+05,2.15559000000000000e+05,2.27383000000000000e+05,8.73030000000000000e+04,1.28256000000000000e+05,1.78702000000000000e+05,4.86810000000000000e+04,3.40940000000000000e+04,5.32090000000000000e+04,1.60360000000000000e+04,1.12220000000000000e+05,4.69560000000000000e+04,1.31746000000000000e+05,4.25400000000000000e+04,6.14100000000000000e+03,1.49200000000000000e+04,1.91740000000000000e+04,5.06470000000000000e+04,2.56200000000000000e+03,1.02610000000000000e+04,5.77500000000000000e+03,9.99140000000000000e+04,1.23060000000000000e+04,3.70360000000000000e+04,9.92000000000000000e+03,9.14820000000000000e+04,4.02640000000000000e+04,3.83140000000000000e+04,4.22600000000000000e+03,5.02000000000000000e+03,1.12100000000000000e+03,2.98400000000000000e+03,1.19360000000000000e+04,8.67300000000000000e+03,1.05010000000000000e+04,4.87250000000000000e+04,1.92200000000000000e+03,1.64800000000000000e+03,9.14000000000000000e+02,4.20700000000000000e+03,6.05400000000000000e+03,4.86800000000000000e+03,9.07000000000000000e+02,5.10340000000000000e+04,4.88800000000000000e+04,9.42000000000000000e+03,2.88600000000000000e+03,1.51510000000000000e+04,2.18850000000000000e+04,5.61500000000000000e+03,4.30500000000000000e+03,7.05890000000000000e+04,2.08930000000000000e+04,3.14270000000000000e+04,8.83700000000000000e+03,1.69990000000000000e+04,2.13150000000000000e+04,1.45700000000000000e+03,2.76900000000000000e+03,3.80600000000000000e+03,1.21400000000000000e+03,6.65000000000000000e+02,4.56000000000000000e+02,1.07620000000000000e+04,1.17400000000000000e+03,4.94000000000000000e+02,8.17900000000000000e+03,1.62000000000000000e+02,1.03390000000000000e+04,1.01740000000000000e+04,3.85510000000000000e+04,1.08200000000000000e+03,8.40000000000000000e+02,1.58300000000000000e+03,6.50000000000000000e+01,7.99000000000000000e+02,1.15000000000000000e+02,1.59300000000000000e+03,2.61400000000000000e+03,6.30000000000000000e+01,5.99100000000000000e+03,2.45500000000000000e+03,2.41300000000000000e+03,7.23000000000000000e+02,1.84000000000000000e+02,4.98290000000000000e+04,1.20500000000000000e+03,4.72000000000000000e+04,1.68000000000000000e+03,5.80800000000000000e+03,3.61200000000000000e+03,2.62700000000000000e+03,2.59000000000000000e+02,8.74500000000000000e+03,6.40600000000000000e+03,7.48200000000000000e+03,1.44030000000000000e+04,5.50500000000000000e+03,1.10000000000000000e+02,4.28900000000000000e+03,1.60000000000000000e+01,4.97020000000000000e+04,2.08870000000000000e+04,1.03880000000000000e+04,1.05050000000000000e+04,6.44300000000000000e+03,2.49840000000000000e+04,7.95300000000000000e+03,8.84000000000000000e+02,3.10100000000000000e+03,1.38980000000000000e+04,2.92300000000000000e+03,1.83920000000000000e+04,9.24000000000000000e+02,5.33000000000000000e+02,1.08200000000000000e+03,1.68700000000000000e+03,1.38000000000000000e+02,3.66800000000000000e+03,7.75000000000000000e+02,4.39000000000000000e+02,4.10000000000000000e+01,6.24000000000000000e+02,3.30000000000000000e+02,1.26000000000000000e+02],"tree_param":{"num_feature":"4","num_nodes":"125","size_leaf_vector":"0"}},{"base_weights":[-1.20060786604881287e-01,-3.18572074174880981e-01,1.27547634765505791e-02,-4.33171898126602173e-01,-2.49301686882972717e-01,-3.98199558258056641e-02,1.58179625868797302e-01,-4.47272300720214844e-01,-9.80362147092819214e-02,-4.49778437614440918e-01,-2.19801336526870728e-01,-1.85195311903953552e-01,7.31140794232487679e-03,1.03117451071739197e-01,3.28477174043655396e-01,-4.96313959360122681e-01,-3.92506480216979980e-01,-1.86102792620658875e-01,-9.96227189898490906e-03,-4.76826995611190796e-01,-3.45442533493041992e-01,-3.78464281558990479e-01,-1.91075488924980164e-01,-3.22262763977050781e-01,-1.02500103414058685e-01,-1.74979880452156067e-01,8.31770375370979309e-02,1.69723078608512878e-01,-1.80112738162279129e-02,2.95166522264480591e-01,5.59077262878417969e-01,-5.34738898277282715e-01,-4.71423327922821045e-01,-5.81597805023193359e-01,-3.79564642906188965e-01,-1.21945820748806000e-01,-3.71381342411041260e-01,-4.54881787300109863e-02,1.16385608911514282e-01,-5.47674953937530518e-01,-4.43366318941116333e-01,1.71289014816284180e+00,-3.48141103982925415e-01,-5.50626337528228760e-01,-1.25290930271148682e-01,-2.51361221075057983e-01,-1.36136695742607117e-01,-4.16075706481933594e-01,-2.33160495758056641e-01,-1.35534361004829407e-01,8.67104753851890564e-02,-4.46924597024917603e-01,-9.13700982928276062e-02,2.25597377866506577e-02,2.47099995613098145e-01,2.53047179430723190e-02,5.52172958850860596e-01,1.34310558438301086e-01,-2.12867125868797302e-01,4.81337368488311768e-01,2.44794994592666626e-01,6.03383839130401611e-01,4.00795549154281616e-01,-5.43537199497222900e-01,-3.60365003347396851e-01,-4.63421612977981567e-01,-5.76471984386444092e-01,-7.32721149921417236e-01,-3.93938750028610229e-01,-7.21892833709716797e-01,-3.74062627553939819e-01,-1.00481808185577393e-01,-7.93089807033538818e-01,-5.12182056903839111e-01,-2.50964969396591187e-01,2.76940930634737015e-02,-1.66547551751136780e-01,1.21475934982299805e-01,-6.95174932479858398e-01,-2.19611197710037231e-01,-5.77225506305694580e-01,-4.77542161941528320e-01,-2.95413970947265625e-01,-2.88258582353591919e-01,-4.23512727022171021e-01,-7.58663773536682129e-01,-4.52734559774398804e-01,-1.82805269956588745e-01,3.44792127609252930e-01,-5.12237966060638428e-01,-2.45548233389854431e-01,-1.34618297219276428e-01,-9.64909732341766357e-01,-3.53076934814453125e-01,-5.43476104736328125e-01,-2.72192716598510742e-01,3.54452640749514103e-03,-2.52344131469726562e-01,-7.84253552556037903e-02,1.79068326950073242e-01,-3.27576726675033569e-01,-5.40506601333618164e-01,-3.61675113439559937e-01,1.91983923316001892e-01,-1.68654859066009521e-01,-4.13773246109485626e-02,8.53422805666923523e-02,1.88477292656898499e-01,3.28171938657760620e-01,-1.00464865565299988e-01,1.71966344118118286e-01,2.72845178842544556e-01,6.85268580913543701e-01,8.44252705574035645e-02,3.34047317504882812e-01,-2.65665829181671143e-01,-1.01817399263381958e-01,4.32791501283645630e-01,6.33906483650207520e-01,5.97179055213928223e-01,2.24313139915466309e-01,1.10983550548553467e+00,5.89529573917388916e-01,1.03851127624511719e+00,3.80733579397201538e-01],"default_left":[true,true,true,true,true,true,true,true,true,true,true,true,true,true,true,true,true,true,true,true,true,true,true,true,true,true,true,true,true,true,true,true,true,true,true,true,true,true,true,true,true,false,true,true,true,true,true,true,true,true,true,true,true,true,true,true,true,true,true,true,true,true,true,false,false,false,false,false,false,false,false,false,false,false,false,false,false,false,false,false,false,false,false,false,false,false,false,false,false,false,false,false,false,false,false,false,false,false,false,false,false,false,false,false,false,false,false,false,false,false,false,false,false,false,false,false,false,false,false,false,false,false,false,false,false],"id":4,"leaf_child_counts":[0,0,0,0,0,0,0,0,0,0,0,0,0,0,0,0,0,0,0,0,1,0,0,0,0,0,0,0,0,0,0,2,2,2,2,2,2,2,2,2,2,0,2,2,2,2,2,2,2,2,2,2,2,2,2,2,2,2,2,2,2,2,2,0,0,0,0,0,0,0,0,0,0,0,0,0,0,0,0,0,0,0,0,0,0,0,0,0,0,0,0,0,0,0,0,0,0,0,0,0,0,0,0,0,0,0,0,0,0,0,0,0,0,0,0,0,0,0,0,0,0,0,0,0,0],"left_children":[1,3,5,7,9,11,13,15,17,19,21,23,25,27,29,31,33,35,37,39,41,43,45,47,49,51,53,55,57,59,61,63,65,67,69,71,73,75,77,79,81,-1,83,85,87,89,91,93,95,97,99,101,103,105,107,109,111,113,115,117,119,121,123,-1,-1,-1,-1,-1,-1,-1,-1,-1,-1,-1,-1,-1,-1,-1,-1,-1,-1,-1,-1,-1,-1,-1,-1,-1,-1,-1,-1,-1,-1,-1,-1,-1,-1,-1,-1,-1,-1,-1,-1,-1,-1,-1,-1,-1,-1,-1,-1,-1,-1,-1,-1,-1,-1,-1,-1,-1,-1,-1,-1,-1,-1],"loss_changes":[1.16783681640625000e+04,1.40941406250000000e+03,2.02906030273437500e+03,3.16051757812500000e+02,6.54406250000000000e+02,1.33553552246093750e+03,6.60741455078125000e+02,1.72208007812500000e+02,2.09558601379394531e+01,3.98955078125000000e+01,4.39629882812500000e+02,5.40887329101562500e+02,2.03571008300781250e+03,4.29632446289062500e+02,1.32086181640625000e+02,3.21328125000000000e+01,7.40024414062500000e+01,1.60139274597167969e+01,6.07391262054443359e+00,2.64741210937500000e+01,1.68488769531250000e+01,6.44493408203125000e+02,2.70515136718750000e+02,1.50004516601562500e+02,1.86062072753906250e+02,9.83526733398437500e+02,1.03281103515625000e+03,1.89772949218750000e+03,5.60817687988281250e+02,1.40979248046875000e+02,1.49902343750000000e+01,2.02153320312500000e+01,1.70131835937500000e+01,5.47574462890625000e+01,5.32021484375000000e+01,1.43977785110473633e+01,5.75474548339843750e+00,9.36013889312744141e+00,1.31138563156127930e+00,3.48800048828125000e+01,3.85910644531250000e+01,0.00000000000000000e+00,1.30707397460937500e+01,1.78910644531250000e+02,1.61930633544921875e+02,5.89365234375000000e+01,5.36552124023437500e+01,7.00041503906250000e+01,8.51117858886718750e+01,1.69033935546875000e+02,1.69370986938476562e+02,8.09549560546875000e+01,7.24602844238281250e+02,3.04603820800781250e+02,1.33297729492187500e+02,4.60086791992187500e+02,3.49948974609375000e+02,1.05639221191406250e+02,4.85795593261718750e+01,2.34490356445312500e+01,8.53498535156250000e+01,1.12387084960937500e+01,5.72006225585937500e+00,0.00000000000000000e+00,0.00000000000000000e+00,0.00000000000000000e+00,0.00000000000000000e+00,0.00000000000000000e+00,0.00000000000000000e+00,0.00000000000000000e+00,0.00000000000000000e+00,0.00000000000000000e+00,0.00000000000000000e+00,0.00000000000000000e+00,0.00000000000000000e+00,0.00000000000000000e+00,0.00000000000000000e+00,0.00000000000000000e+00,0.00000000000000000e+00,0.00000000000000000e+00,0.00000000000000000e+00,0.00000000000000000e+00,0.00000000000000000e+00,0.00000000000000000e+00,0.00000000000000000e+00,0.00000000000000000e+00,0.00000000000000000e+00,0.00000000000000000e+00,0.00000000000000000e+00,0.00000000000000000e+00,0.00000000000000000e+00,0.00000000000000000e+00,0.00000000000000000e+00,0.00000000000000000e+00,0.00000000000000000e+00,0.00000000000000000e+00,0.00000000000000000e+00,0.00000000000000000e+00,0.00000000000000000e+00,0.00000000000000000e+00,0.00000000000000000e+00,0.00000000000000000e+00,0.00000000000000000e+00,0.00000000000000000e+00,0.00000000000000000e+00,0.00000000000000000e+00,0.00000000000000000e+00,0.00000000000000000e+00,0.00000000000000000e+00,0.00000000000000000e+00,0.00000000000000000e+00,0.00000000000000000e+00,0.00000000000000000e+00,0.00000000000000000e+00,0.00000000000000000e+00,0.00000000000000000e+00,0.00000000000000000e+00,0.00000000000000000e+00,0.00000000000000000e+00,0.00000000000000000e+00,0.00000000000000000e+00,0.00000000000000000e+00,0.00000000000000000e+00,0.00000000000000000e+00,0.00000000000000000e+00],"parents":[2147483647,0,0,1,1,2,2,3,3,4,4,5,5,6,6,7,7,8,8,9,9,10,10,11,11,12,12,13,13,14,14,15,15,16,16,17,17,18,18,19,19,20,20,21,21,22,22,23,23,24,24,25,25,26,26,27,27,28,28,29,29,30,30,31,31,32,32,33,33,34,34,35,35,36,36,37,37,38,38,39,39,40,40,42,42,43,43,44,44,45,45,46,46,47,47,48,48,49,49,50,50,51,51,52,52,53,53,54,54,55,55,56,56,57,57,58,58,59,59,60,60,61,61,62,62],"right_children":[2,4,6,8,10,12,14,16,18,20,22,24,26,28,30,32,34,36,38,40,42,44,46,48,50,52,54,56,58,60,62,64,66,68,70,72,74,76,78,80,82,-1,84,86,88,90,92,94,96,98,100,102,104,106,108,110,112,114,116,118,120,122,124,-1,-1,-1,-1,-1,-1,-1,-1,-1,-1,-1,-1,-1,-1,-1,-1,-1,-1,-1,-1,-1,-1,-1,-1,-1,-1,-1,-1,-1,-1,-1,-1,-1,-1,-1,-1,-1,-1,-1,-1,-1,-1,-1,-1,-1,-1,-1,-1,-1,-1,-1,-1,-1,-1,-1,-1,-1,-1,-1,-1,-1,-1],"split_conditions":[9.46379005908966064e-02,7.84196481108665466e-02,1.33853554725646973e-01,3.76832485198974609e-01,-1.04257285594940186e-01,-2.63786852359771729e-01,1.61363527178764343e-01,7.10239410400390625e-02,6.22848331928253174e-01,9.20262932777404785e-02,-2.01383262872695923e-01,1.11580625176429749e-01,-3.62138688564300537e-01,2.64043211936950684e-01,2.95891499519348145e+00,6.50929808616638184e-02,-1.05815127491950989e-01,1.97094067931175232e-01,9.31250333786010742e-01,2.79077887535095215e-01,-6.01704454421997070e+00,4.20993059873580933e-01,1.21095992624759674e-01,5.62059640884399414e-01,-7.25305318832397461e-01,6.70920670032501221e-01,1.10138624906539917e-01,-8.23498249053955078e-01,-2.49561667442321777e+00,-3.97245025634765625e+00,-4.11456966400146484e+00,2.37714663147926331e-01,1.02030530571937561e-01,2.68854260444641113e-01,-2.56372988224029541e-01,-7.97111988067626953e-02,5.43757796287536621e-01,2.10918247699737549e-01,2.20258474349975586e+00,1.85376152396202087e-01,-2.87252128124237061e-01,5.13867080211639404e-01,1.20606780052185059e-01,3.05667936801910400e-01,9.47147130966186523e-01,8.79026725888252258e-02,1.84698462486267090e-01,1.52768701314926147e-01,-6.07409834861755371e-01,9.19036269187927246e-01,1.66016057133674622e-01,5.47541022300720215e-01,2.37453818321228027e-01,1.01994901895523071e-01,1.65002673864364624e-01,1.56738495826721191e+00,-9.68348026275634766e-01,1.97852051258087158e+00,1.49637341499328613e-01,3.44125366210937500e+00,1.23998865485191345e-01,1.68162047863006592e-01,2.85862326622009277e-01,-1.63061171770095825e-01,-1.08109503984451294e-01,-1.39026492834091187e-01,-1.72941595315933228e-01,-2.19816356897354126e-01,-1.18181630969047546e-01,-2.16567859053611755e-01,-1.12218789756298065e-01,-3.01445443183183670e-02,-2.37926945090293884e-01,-1.53654620051383972e-01,-7.52894952893257141e-02,8.30822810530662537e-03,-4.99642677605152130e-02,3.64427827298641205e-02,-2.08552494645118713e-01,-6.58833608031272888e-02,-1.73167660832405090e-01,-1.43262654542922974e-01,-8.86241942644119263e-02,-8.64775776863098145e-02,-1.27053827047348022e-01,-2.27599143981933594e-01,-1.35820373892784119e-01,-5.48415817320346832e-02,1.03437639772891998e-01,-1.53671398758888245e-01,-7.36644715070724487e-02,-4.03854921460151672e-02,-2.89472937583923340e-01,-1.05923086404800415e-01,-1.63042843341827393e-01,-8.16578194499015808e-02,1.06335792224854231e-03,-7.57032409310340881e-02,-2.35276073217391968e-02,5.37205003201961517e-02,-9.82730239629745483e-02,-1.62151992321014404e-01,-1.08502537012100220e-01,5.75951784849166870e-02,-5.05964607000350952e-02,-1.24131981283426285e-02,2.56026852875947952e-02,5.65431900322437286e-02,9.84515845775604248e-02,-3.01394611597061157e-02,5.15899062156677246e-02,8.18535536527633667e-02,2.05580577254295349e-01,2.53275819122791290e-02,1.00214198231697083e-01,-7.96997547149658203e-02,-3.05452216416597366e-02,1.29837453365325928e-01,1.90171957015991211e-01,1.79153725504875183e-01,6.72939419746398926e-02,3.32950651645660400e-01,1.76858872175216675e-01,3.11553388833999634e-01,1.14220075309276581e-01],"split_indices":[2,2,2,0,0,0,2,2,0,2,1,2,1,3,0,2,1,3,0,1,0,0,3,1,0,0,2,0,1,0,1,0,3,0,0,1,0,3,0,1,0,0,3,0,0,3,3,3,0,1,3,0,3,2,3,1,1,0,2,1,3,2,3,0,0,0,0,0,0,0,0,0,0,0,0,0,0,0,0,0,0,0,0,0,0,0,0,0,0,0,0,0,0,0,0,0,0,0,0,0,0,0,0,0,0,0,0,0,0,0,0,0,0,0,0,0,0,0,0,0,0,0,0,0,0],"sum_hessian":[4.42942000000000000e+05,1.77557000000000000e+05,2.65385000000000000e+05,6.68900000000000000e+04,1.10667000000000000e+05,1.94918000000000000e+05,7.04670000000000000e+04,6.41890000000000000e+04,2.70100000000000000e+03,1.41940000000000000e+04,9.64730000000000000e+04,4.77210000000000000e+04,1.47197000000000000e+05,5.32510000000000000e+04,1.72160000000000000e+04,3.38600000000000000e+04,3.03290000000000000e+04,1.35000000000000000e+03,1.35100000000000000e+03,1.12690000000000000e+04,2.92500000000000000e+03,1.47870000000000000e+04,8.16860000000000000e+04,1.79560000000000000e+04,2.97650000000000000e+04,4.32570000000000000e+04,1.03940000000000000e+05,3.43580000000000000e+04,1.88930000000000000e+04,1.50450000000000000e+04,2.17100000000000000e+03,1.33030000000000000e+04,2.05570000000000000e+04,1.94000000000000000e+03,2.83890000000000000e+04,1.00400000000000000e+03,3.46000000000000000e+02,1.05500000000000000e+03,2.96000000000000000e+02,3.61000000000000000e+03,7.65900000000000000e+03,3.00000000000000000e+00,2.92200000000000000e+03,8.80100000000000000e+03,5.98600000000000000e+03,3.89460000000000000e+04,4.27400000000000000e+04,8.74500000000000000e+03,9.21100000000000000e+03,2.53410000000000000e+04,4.42400000000000000e+03,1.01710000000000000e+04,3.30860000000000000e+04,7.58810000000000000e+04,2.80590000000000000e+04,2.49410000000000000e+04,9.41700000000000000e+03,1.06040000000000000e+04,8.28900000000000000e+03,3.20200000000000000e+03,1.18430000000000000e+04,1.69400000000000000e+03,4.77000000000000000e+02,1.26620000000000000e+04,6.41000000000000000e+02,1.91070000000000000e+04,1.45000000000000000e+03,1.07300000000000000e+03,8.67000000000000000e+02,4.47000000000000000e+02,2.79420000000000000e+04,9.74000000000000000e+02,3.00000000000000000e+01,1.58000000000000000e+02,1.88000000000000000e+02,6.58000000000000000e+02,3.97000000000000000e+02,2.95000000000000000e+02,1.00000000000000000e+00,2.99000000000000000e+02,3.31100000000000000e+03,6.22000000000000000e+03,1.43900000000000000e+03,1.63100000000000000e+03,1.29100000000000000e+03,2.81400000000000000e+03,5.98700000000000000e+03,5.33400000000000000e+03,6.52000000000000000e+02,8.47000000000000000e+02,3.80990000000000000e+04,4.26630000000000000e+04,7.70000000000000000e+01,5.85400000000000000e+03,2.89100000000000000e+03,7.90700000000000000e+03,1.30400000000000000e+03,8.32000000000000000e+03,1.70210000000000000e+04,3.61800000000000000e+03,8.06000000000000000e+02,4.84600000000000000e+03,5.32500000000000000e+03,7.09000000000000000e+03,2.59960000000000000e+04,3.75950000000000000e+04,3.82860000000000000e+04,1.62860000000000000e+04,1.17730000000000000e+04,1.34270000000000000e+04,1.15140000000000000e+04,3.04000000000000000e+03,6.37700000000000000e+03,8.48600000000000000e+03,2.11800000000000000e+03,5.61700000000000000e+03,2.67200000000000000e+03,2.43200000000000000e+03,7.70000000000000000e+02,6.49000000000000000e+02,1.11940000000000000e+04,4.30000000000000000e+01,1.65100000000000000e+03,1.30000000000000000e+01,4.64000000000000000e+02],"tree_param":{"num_feature":"4","num_nodes":"125","size_leaf_vector":"0"}},{"base_weights":[-8.40465351939201355e-02,-2.25815057754516602e-01,7.17111956328153610e-03,-2.81461149454116821e-01,-1.57472997903823853e-01,-4.30167913436889648e-02,8.95664691925048828e-02,-2.91845440864562988e-01,-7.22755342721939087e-02,-3.04665029048919678e-01,-1.32918402552604675e-01,-1.69515758752822876e-01,-7.97553732991218567e-03,6.23111128807067871e-02,2.38259792327880859e-01,-2.84347891807556152e-01,-5.71952641010284424e-01,-1.19753539562225342e-01,5.77797777950763702e-02,1.05479884147644043e+00,-3.05738002061843872e-01,-1.11289434134960175e-01,-2.93539583683013916e-01,-2.65120893716812134e-01,-1.21449172496795654e-01,3.85871492326259613e-02,-1.65951579809188843e-01,1.08262628316879272e-01,-3.11233568936586380e-02,3.78535360097885132e-01,1.98793664574623108e-01,-3.46740663051605225e-01,-2.45008841156959534e-01,-6.24832332134246826e-01,-4.15001451969146729e-01,-4.67678606510162354e-02,-3.29522013664245605e-01,6.16882070899009705e-02,-1.13603305816650391e+00,-2.71848320960998535e-01,-3.48366826772689819e-01,-1.17408305406570435e-01,6.92401975393295288e-02,-3.74728381633758545e-01,-4.66339103877544403e-02,-3.29968482255935669e-01,-2.18354552984237671e-01,-8.34571570158004761e-02,-1.79210677742958069e-01,-2.41059586405754089e-02,1.00696802139282227e-01,-2.81950622797012329e-01,-1.90473385155200958e-02,-2.33146105892956257e-03,3.10501694679260254e-01,6.01314902305603027e-02,-1.90867096185684204e-01,6.65956437587738037e-01,3.51314455270767212e-01,1.44125893712043762e-01,3.35507541894912720e-01,-3.97928953170776367e-01,-3.34010630846023560e-01,-4.39388185739517212e-01,-2.35950797796249390e-01,-7.63105988502502441e-01,-5.11908531188964844e-01,-2.79673248529434204e-01,-4.70385223627090454e-01,-1.05647243559360504e-01,4.59113791584968567e-02,-4.00283426046371460e-01,-1.99950203299522400e-01,3.90850938856601715e-02,3.71315240859985352e-01,-3.43461126089096069e-01,-2.36818954348564148e-01,-2.83233880996704102e-01,-4.21207159757614136e-01,-1.11983180046081543e-01,-7.65347242355346680e-01,2.96445842832326889e-03,1.62286981940269470e-01,-3.22383850812911987e-01,-4.38267052173614502e-01,1.53978876769542694e-02,-5.58176279067993164e-01,-2.23053246736526489e-01,-4.13291871547698975e-01,-2.46422931551933289e-01,-9.19096469879150391e-02,-1.72711133956909180e-01,1.35849630460143089e-02,-9.59916859865188599e-02,-2.90206700563430786e-01,-5.82458198070526123e-01,-1.90546382218599319e-02,6.88326582312583923e-02,1.62335678935050964e-01,-3.44290286302566528e-01,-2.03418165445327759e-01,3.58816593885421753e-01,-9.30478200316429138e-02,1.38285934925079346e-01,-6.02948628365993500e-02,2.59865522384643555e-01,6.77800357341766357e-01,1.99530757963657379e-02,2.39955469965934753e-01,-2.27384969592094421e-01,-9.07076075673103333e-02,1.02295672893524170e+00,6.16292417049407959e-01,4.41462099552154541e-01,3.00843417644500732e-01,3.82232874631881714e-01,1.25467464327812195e-01,5.86255729198455811e-01,3.12240809202194214e-01],"default_left":[true,true,true,true,true,true,true,true,true,true,true,true,true,true,true,true,true,true,true,false,true,true,true,true,true,true,true,true,true,true,true,true,true,true,true,true,true,true,false,true,true,true,true,true,true,true,true,true,true,true,true,true,true,true,true,true,true,true,true,true,true,false,false,false,false,false,false,false,false,false,false,false,false,false,false,false,false,false,false,false,false,false,false,false,false,false,false,false,false,false,false,false,false,false,false,false,false,false,false,false,false,false,false,false,false,false,false,false,false,false,false,false,false,false,false,false,false,false,false],"id":5,"leaf_child_counts":[0,0,0,0,0,0,0,0,0,1,0,0,0,0,0,0,0,0,1,0,0,0,0,0,0,0,0,0,0,0,0,2,2,2,2,2,2,2,0,2,2,2,2,2,2,2,2,2,2,2,2,2,2,2,2,2,2,2,2,2,2,0,0,0,0,0,0,0,0,0,0,0,0,0,0,0,0,0,0,0,0,0,0,0,0,0,0,0,0,0,0,0,0,0,0,0,0,0,0,0,0,0,0,0,0,0,0,0,0,0,0,0,0,0,0,0,0,0,0],"left_children":[1,3,5,7,9,11,13,15,17,19,21,23,25,27,29,31,33,35,37,-1,39,41,43,45,47,49,51,53,55,57,59,61,63,65,67,69,71,73,-1,75,77,79,81,83,85,87,89,91,93,95,97,99,101,103,105,107,109,111,113,115,117,-1,-1,-1,-1,-1,-1,-1,-1,-1,-1,-1,-1,-1,-1,-1,-1,-1,-1,-1,-1,-1,-1,-1,-1,-1,-1,-1,-1,-1,-1,-1,-1,-1,-1,-1,-1,-1,-1,-1,-1,-1,-1,-1,-1,-1,-1,-1,-1,-1,-1,-1,-1,-1,-1,-1,-1,-1,-1],"loss_changes":[5.72804785156250000e+03,6.59462890625000000e+02,1.11455725097656250e+03,2.07617187500000000e+02,2.81266845703125000e+02,7.42472900390625000e+02,4.13464965820312500e+02,1.91085937500000000e+02,2.79292163848876953e+01,1.65532226562500000e+01,2.31712158203125000e+02,1.66937500000000000e+02,9.64843078613281250e+02,3.70198028564453125e+02,8.74177856445312500e+01,2.17612304687500000e+02,1.94354858398437500e+01,5.07069320678710938e+01,5.71585512161254883e+00,0.00000000000000000e+00,1.59687500000000000e+01,6.49520263671875000e+01,1.58666442871093750e+02,3.67901611328125000e+01,5.30474853515625000e+01,3.94480346679687500e+02,5.08831542968750000e+02,1.29273632812500000e+03,4.14388397216796875e+02,2.69069824218750000e+01,9.21489257812500000e+01,2.22143554687500000e+01,9.56782226562500000e+01,2.72936401367187500e+01,4.37292480468750000e+00,1.34233598709106445e+01,7.75918579101562500e+00,8.43271827697753906e+00,0.00000000000000000e+00,1.54691467285156250e+01,2.32274169921875000e+01,1.99803405761718750e+02,1.18890018463134766e+01,1.96710815429687500e+01,6.22031059265136719e+01,4.52611694335937500e+01,2.50517883300781250e+01,1.26354774475097656e+02,8.85824890136718750e+01,1.42188644409179688e+02,9.99422607421875000e+01,8.16143798828125000e+01,3.68462188720703125e+02,3.04565979003906250e+02,3.79848876953125000e+02,1.30710693359375000e+02,3.77807922363281250e+01,4.67085266113281250e+00,1.42947387695312500e+01,3.91100158691406250e+01,2.03704833984375000e+01,0.00000000000000000e+00,0.00000000000000000e+00,0.00000000000000000e+00,0.00000000000000000e+00,0.00000000000000000e+00,0.00000000000000000e+00,0.00000000000000000e+00,0.00000000000000000e+00,0.00000000000000000e+00,0.00000000000000000e+00,0.00000000000000000e+00,0.00000000000000000e+00,0.00000000000000000e+00,0.00000000000000000e+00,0.00000000000000000e+00,0.00000000000000000e+00,0.00000000000000000e+00,0.00000000000000000e+00,0.00000000000000000e+00,0.00000000000000000e+00,0.00000000000000000e+00,0.00000000000000000e+00,0.00000000000000000e+00,0.00000000000000000e+00,0.00000000000000000e+00,0.00000000000000000e+00,0.00000000000000000e+00,0.00000000000000000e+00,0.00000000000000000e+00,0.00000000000000000e+00,0.00000000000000000e+00,0.00000000000000000e+00,0.00000000000000000e+00,0.00000000000000000e+00,0.00000000000000000e+00,0.00000000000000000e+00,0.00000000000000000e+00,0.00000000000000000e+00,0.00000000000000000e+00,0.00000000000000000e+00,0.00000000000000000e+00,0.00000000000000000e+00,0.00000000000000000e+00,0.00000000000000000e+00,0.00000000000000000e+00,0.00000000000000000e+00,0.00000000000000000e+00,0.00000000000000000e+00,0.00000000000000000e+00,0.00000000000000000e+00,0.00000000000000000e+00,0.00000000000000000e+00,0.00000000000000000e+00,0.00000000000000000e+00,0.00000000000000000e+00,0.00000000000000000e+00,0.00000000000000000e+00,0.00000000000000000e+00],"parents":[2147483647,0,0,1,1,2,2,3,3,4,4,5,5,6,6,7,7,8,8,9,9,10,10,11,11,12,12,13,13,14,14,15,15,16,16,17,17,18,18,20,20,21,21,22,22,23,23,24,24,25,25,26,26,27,27,28,28,29,29,30,30,31,31,32,32,33,33,34,34,35,35,36,36,37,37,39,39,40,40,41,41,42,42,43,43,44,44,45,45,46,46,47,47,48,48,49,49,50,50,51,51,52,52,53,53,54,54,55,55,56,56,57,57,58,58,59,59,60,60],"right_children":[2,4,6,8,10,12,14,16,18,20,22,24,26,28,30,32,34,36,38,-1,40,42,44,46,48,50,52,54,56,58,60,62,64,66,68,70,72,74,-1,76,78,80,82,84,86,88,90,92,94,96,98,100,102,104,106,108,110,112,114,116,118,-1,-1,-1,-1,-1,-1,-1,-1,-1,-1,-1,-1,-1,-1,-1,-1,-1,-1,-1,-1,-1,-1,-1,-1,-1,-1,-1,-1,-1,-1,-1,-1,-1,-1,-1,-1,-1,-1,-1,-1,-1,-1,-1,-1,-1,-1,-1,-1,-1,-1,-1,-1,-1,-1,-1,-1,-1,-1],"split_conditions":[9.41114127635955811e-02,8.27987641096115112e-02,1.24069429934024811e-01,3.39288949966430664e-01,-1.00247040390968323e-01,-2.18089520931243896e-01,1.63043886423110962e-01,1.70136809349060059e-01,7.44202136993408203e-01,-5.97974824905395508e+00,1.91790580749511719e-01,1.05998784303665161e-01,2.06656575202941895e-01,2.57783561944961548e-01,-3.72536087036132812e+00,7.12419897317886353e-02,2.89789646863937378e-01,2.03637450933456421e-01,2.20328116416931152e+00,3.16439658403396606e-01,1.05518162250518799e-01,3.92847597599029541e-01,5.41163802146911621e-01,4.88939613103866577e-01,1.52372330427169800e-01,1.47002309560775757e-01,8.39958786964416504e-01,-8.22159647941589355e-01,-2.21400356292724609e+00,2.92180418968200684e-01,2.60603046417236328e+00,6.31801933050155640e-02,-2.22985565662384033e-01,1.91355586051940918e-01,1.76773637533187866e-01,7.54729807376861572e-02,6.14737033843994141e-01,1.21509408950805664e+00,-3.40809941291809082e-01,4.31962013244628906e-02,-6.57392203807830811e-01,1.78505241870880127e-01,-3.24599474668502808e-01,-5.78768730163574219e-01,2.56925910711288452e-01,9.75483953952789307e-02,-5.67906022071838379e-01,-9.06563401222229004e-01,-1.77882695198059082e+00,1.04380778968334198e-01,1.09732031822204590e-01,6.94486498832702637e-01,2.32440531253814697e-01,1.32786303758621216e-01,1.43915951251983643e-01,1.92053318023681641e+00,1.47244036197662354e-01,2.77669817209243774e-01,-8.22027111053466797e+00,1.31829589605331421e-01,1.46078035235404968e-01,-1.19378693401813507e-01,-1.00203193724155426e-01,-1.31816461682319641e-01,-7.07852393388748169e-02,-2.28931799530982971e-01,-1.53572559356689453e-01,-8.39019790291786194e-02,-1.41115576028823853e-01,-3.16941738128662109e-02,1.37734143063426018e-02,-1.20085030794143677e-01,-5.99850639700889587e-02,1.17255290970206261e-02,1.11394576728343964e-01,-1.03038340806961060e-01,-7.10456892848014832e-02,-8.49701687693595886e-02,-1.26362159848213196e-01,-3.35949547588825226e-02,-2.29604184627532959e-01,8.89337563421577215e-04,4.86860983073711395e-02,-9.67151597142219543e-02,-1.31480127573013306e-01,4.61936648935079575e-03,-1.67452886700630188e-01,-6.69159740209579468e-02,-1.23987562954425812e-01,-7.39268809556961060e-02,-2.75728944689035416e-02,-5.18133416771888733e-02,4.07548900693655014e-03,-2.87975072860717773e-02,-8.70620161294937134e-02,-1.74737468361854553e-01,-5.71639183908700943e-03,2.06497982144355774e-02,4.87007051706314087e-02,-1.03287093341350555e-01,-6.10254518687725067e-02,1.07644982635974884e-01,-2.79143471270799637e-02,4.14857827126979828e-02,-1.80884599685668945e-02,7.79596567153930664e-02,2.03340113162994385e-01,5.98592311143875122e-03,7.19866454601287842e-02,-6.82154968380928040e-02,-2.72122826427221298e-02,3.06887030601501465e-01,1.84887737035751343e-01,1.32438629865646362e-01,9.02530252933502197e-02,1.14669866859912872e-01,3.76402400434017181e-02,1.75876721739768982e-01,9.36722457408905029e-02],"split_indices":[2,2,2,0,0,0,2,3,0,0,3,2,3,3,1,2,0,3,0,0,3,0,0,1,3,3,0,0,1,3,1,2,0,3,3,2,0,0,0,3,0,3,1,1,3,2,0,0,0,3,2,0,3,3,2,0,2,3,1,3,3,0,0,0,0,0,0,0,0,0,0,0,0,0,0,0,0,0,0,0,0,0,0,0,0,0,0,0,0,0,0,0,0,0,0,0,0,0,0,0,0,0,0,0,0,0,0,0,0,0,0,0,0,0,0,0,0,0,0],"sum_hessian":[4.42942000000000000e+05,1.73418000000000000e+05,2.69524000000000000e+05,9.55860000000000000e+04,7.78320000000000000e+04,1.67499000000000000e+05,1.02025000000000000e+05,9.10650000000000000e+04,4.52100000000000000e+03,1.11260000000000000e+04,6.67060000000000000e+04,3.63330000000000000e+04,1.31166000000000000e+05,8.62220000000000000e+04,1.58030000000000000e+04,8.86930000000000000e+04,2.37200000000000000e+03,3.31200000000000000e+03,1.20900000000000000e+03,8.00000000000000000e+00,1.11180000000000000e+04,5.87910000000000000e+04,7.91500000000000000e+03,1.21540000000000000e+04,2.41790000000000000e+04,1.01307000000000000e+05,2.98590000000000000e+04,5.77970000000000000e+04,2.84250000000000000e+04,3.46800000000000000e+03,1.23350000000000000e+04,3.42940000000000000e+04,5.43990000000000000e+04,1.77200000000000000e+03,6.00000000000000000e+02,2.45800000000000000e+03,8.54000000000000000e+02,1.20600000000000000e+03,3.00000000000000000e+00,6.19800000000000000e+03,4.92000000000000000e+03,5.68640000000000000e+04,1.92700000000000000e+03,5.95600000000000000e+03,1.95900000000000000e+03,5.09000000000000000e+03,7.06400000000000000e+03,1.45870000000000000e+04,9.59200000000000000e+03,5.04170000000000000e+04,5.08900000000000000e+04,1.66840000000000000e+04,1.31750000000000000e+04,3.73650000000000000e+04,2.04320000000000000e+04,1.80910000000000000e+04,1.03340000000000000e+04,2.98000000000000000e+02,3.17000000000000000e+03,8.81300000000000000e+03,3.52200000000000000e+03,6.82400000000000000e+03,2.74700000000000000e+04,2.42000000000000000e+03,5.19790000000000000e+04,7.94000000000000000e+02,9.78000000000000000e+02,1.76000000000000000e+02,4.24000000000000000e+02,1.50300000000000000e+03,9.55000000000000000e+02,5.51000000000000000e+02,3.03000000000000000e+02,1.12500000000000000e+03,8.10000000000000000e+01,2.03300000000000000e+03,4.16500000000000000e+03,2.60000000000000000e+03,2.32000000000000000e+03,5.63930000000000000e+04,4.71000000000000000e+02,1.12600000000000000e+03,8.01000000000000000e+02,3.26900000000000000e+03,2.68700000000000000e+03,1.74800000000000000e+03,2.11000000000000000e+02,2.23100000000000000e+03,2.85900000000000000e+03,5.78000000000000000e+03,1.28400000000000000e+03,7.59800000000000000e+03,6.98900000000000000e+03,5.48300000000000000e+03,4.10900000000000000e+03,4.51000000000000000e+02,4.99660000000000000e+04,3.35490000000000000e+04,1.73410000000000000e+04,9.29900000000000000e+03,7.38500000000000000e+03,2.15700000000000000e+03,1.10180000000000000e+04,1.09060000000000000e+04,2.64590000000000000e+04,1.79580000000000000e+04,2.47400000000000000e+03,1.47880000000000000e+04,3.30300000000000000e+03,7.57200000000000000e+03,2.76200000000000000e+03,3.40000000000000000e+01,2.64000000000000000e+02,1.13500000000000000e+03,2.03500000000000000e+03,6.39000000000000000e+02,8.17400000000000000e+03,2.97000000000000000e+02,3.22500000000000000e+03],"tree_param":{"num_feature":"4","num_nodes":"119","size_leaf_vector":"0"}},{"base_weights":[-5.88356181979179382e-02,-1.38980984687805176e-01,2.26543415337800980e-02,-1.92391768097877502e-01,-8.75856131315231323e-02,2.38469731993973255e-03,1.26827567815780640e-01,-2.44381040334701538e-01,-1.70736432075500488e-01,-1.93041190505027771e-01,-6.89416080713272095e-02,-5.86169995367527008e-02,3.06262671947479248e-02,3.21469843387603760e-01,1.05749458074569702e-01,-2.81316488981246948e-01,-2.29771047830581665e-01,-1.78593307733535767e-01,-5.06772622466087341e-02,-1.71925157308578491e-01,-2.39804953336715698e-01,-5.44172376394271851e-02,-1.89865425229072571e-01,-8.61152037978172302e-02,9.34800282120704651e-02,-6.49683102965354919e-02,9.41331908106803894e-02,3.78010481595993042e-01,2.61203706264495850e-01,8.11046659946441650e-02,2.62301206588745117e-01,-3.06017875671386719e-01,-1.81221455335617065e-01,-3.78526091575622559e-01,-2.27203980088233948e-01,-3.22110652923583984e-01,-1.65670394897460938e-01,-8.61933231353759766e-02,4.79779802262783051e-02,-2.07820355892181396e-01,-1.27698212862014771e-01,-1.64993122220039368e-01,-3.43740731477737427e-01,-6.22675344347953796e-02,2.02316686511039734e-01,-2.07058370113372803e-01,8.55429828166961670e-01,-4.67563308775424957e-02,-1.38395592570304871e-01,2.07098186016082764e-01,7.12560713291168213e-02,-1.12816803157329559e-01,1.19603097438812256e-01,7.01745525002479553e-02,2.79122412204742432e-01,4.35328453779220581e-01,2.54095941781997681e-01,2.10558980703353882e-01,4.20957624912261963e-01,2.65245765447616577e-01,5.52987121045589447e-02,7.06805646419525146e-01,2.46626168489456177e-01,-3.47924143075942993e-01,-2.81697928905487061e-01,-2.47762918472290039e-01,-1.33384615182876587e-01,3.99920374155044556e-01,-3.87628972530364990e-01,-3.09175085276365280e-02,-2.30725154280662537e-01,-4.00979131460189819e-01,-1.73546522855758667e-01,-2.14193210005760193e-01,-1.41021654009819031e-01,-2.58950199931859970e-02,-2.66301512718200684e-01,5.40787354111671448e-02,-1.23405969142913818e+00,-2.72048294544219971e-01,-1.60938978195190430e-01,-2.77554869651794434e-01,-4.31247353553771973e-02,-1.35646745562553406e-01,-2.03638255596160889e-01,-2.92037785053253174e-01,-4.30058598518371582e-01,-3.63503873348236084e-01,-5.15044666826725006e-02,9.06059443950653076e-02,2.76876986026763916e-01,-2.24707096815109253e-01,1.30203664302825928e-01,6.88950479030609131e-01,1.44671654701232910e+00,-2.01953724026679993e-01,-1.93215068429708481e-02,-6.28082007169723511e-02,-1.91258609294891357e-01,1.70108124613761902e-01,2.60553240776062012e-01,2.21288397908210754e-01,4.85339611768722534e-02,-2.55778133869171143e-01,-8.48894417285919189e-02,5.29899895191192627e-01,7.22738057374954224e-02,-4.17116761207580566e-01,7.34904482960700989e-02,2.40049138665199280e-01,6.29066705703735352e-01,4.80128377676010132e-01,3.95910143852233887e-01,3.01637232303619385e-01,1.56925305724143982e-01,3.08881789445877075e-01,1.81834802031517029e-01,3.68844032287597656e-01,6.08400225639343262e-01,2.69785463809967041e-01,-8.61063778400421143e-01,-6.98240546626038849e-05,1.10063999891281128e-01,1.07555246353149414e+00,6.04806005954742432e-01,2.97697484493255615e-01,1.67947322130203247e-01],"default_left":[true,true,true,true,true,true,true,true,true,true,true,true,true,true,true,true,true,true,true,true,true,true,true,true,true,true,true,true,true,true,true,true,true,true,true,true,true,true,true,true,true,true,true,true,true,true,true,true,true,true,true,true,true,true,true,true,true,true,true,true,true,true,true,false,false,false,false,false,false,false,false,false,false,false,false,false,false,false,false,false,false,false,false,false,false,false,false,false,false,false,false,false,false,false,false,false,false,false,false,false,false,false,false,false,false,false,false,false,false,false,false,false,false,false,false,false,false,false,false,false,false,false,false,false,false,false,false],"id":6,"leaf_child_counts":[0,0,0,0,0,0,0,0,0,0,0,0,0,0,0,0,0,0,0,0,0,0,0,0,0,0,0,0,0,0,0,2,2,2,2,2,2,2,2,2,2,2,2,2,2,2,2,2,2,2,2,2,2,2,2,2,2,2,2,2,2,2,2,0,0,0,0,0,0,0,0,0,0,0,0,0,0,0,0,0,0,0,0,0,0,0,0,0,0,0,0,0,0,0,0,0,0,0,0,0,0,0,0,0,0,0,0,0,0,0,0,0,0,0,0,0,0,0,0,0,0,0,0,0,0,0,0],"left_children":[1,3,5,7,9,11,13,15,17,19,21,23,25,27,29,31,33,35,37,39,41,43,45,47,49,51,53,55,57,59,61,63,65,67,69,71,73,75,77,79,81,83,85,87,89,91,93,95,97,99,101,103,105,107,109,111,113,115,117,119,121,123,125,-1,-1,-1,-1,-1,-1,-1,-1,-1,-1,-1,-1,-1,-1,-1,-1,-1,-1,-1,-1,-1,-1,-1,-1,-1,-1,-1,-1,-1,-1,-1,-1,-1,-1,-1,-1,-1,-1,-1,-1,-1,-1,-1,-1,-1,-1,-1,-1,-1,-1,-1,-1,-1,-1,-1,-1,-1,-1,-1,-1,-1,-1,-1,-1],"loss_changes":[2.89288232421875000e+03,6.12995117187500000e+02,4.63760314941406250e+02,1.23248291015625000e+02,2.23742309570312500e+02,3.16747650146484375e+02,1.46735717773437500e+02,1.73107910156250000e+01,7.29177246093750000e+01,1.68414306640625000e+01,1.69845520019531250e+02,2.43352325439453125e+02,7.62968627929687500e+02,1.18103942871093750e+01,1.24520935058593750e+02,2.24985351562500000e+01,8.72668457031250000e+00,1.34524658203125000e+02,1.66474037170410156e+01,1.86777954101562500e+01,4.12785034179687500e+01,1.74027481079101562e+02,1.86543823242187500e+02,1.01386535644531250e+02,2.24808731079101562e+01,4.43043945312500000e+02,3.34651977539062500e+02,1.26810607910156250e+01,1.36250915527343750e+01,1.32521606445312500e+02,3.04135437011718750e+01,7.35711669921875000e+00,5.72205734252929688e+00,2.91859817504882812e+00,1.56745605468750000e+01,7.01505126953125000e+01,7.95893554687500000e+01,3.79278450012207031e+01,9.90605831146240234e+00,1.95343627929687500e+01,6.69188919067382812e+01,3.48012542724609375e+00,9.79986572265625000e+00,2.71615112304687500e+02,2.13142852783203125e+01,6.07600097656250000e+01,1.55407028198242188e+01,1.19696006774902344e+02,8.45506591796875000e+01,2.83660888671875000e+00,2.53969154357910156e+01,1.59032836914062500e+02,2.00521728515625000e+02,1.08053863525390625e+02,1.18233825683593750e+02,1.98200988769531250e+00,2.59508895874023438e+00,3.58428192138671875e+00,3.75129699707031250e+00,1.77600555419921875e+01,7.41815490722656250e+01,4.95368957519531250e+00,1.69953308105468750e+01,0.00000000000000000e+00,0.00000000000000000e+00,0.00000000000000000e+00,0.00000000000000000e+00,0.00000000000000000e+00,0.00000000000000000e+00,0.00000000000000000e+00,0.00000000000000000e+00,0.00000000000000000e+00,0.00000000000000000e+00,0.00000000000000000e+00,0.00000000000000000e+00,0.00000000000000000e+00,0.00000000000000000e+00,0.00000000000000000e+00,0.00000000000000000e+00,0.00000000000000000e+00,0.00000000000000000e+00,0.00000000000000000e+00,0.00000000000000000e+00,0.00000000000000000e+00,0.00000000000000000e+00,0.00000000000000000e+00,0.00000000000000000e+00,0.00000000000000000e+00,0.00000000000000000e+00,0.00000000000000000e+00,0.00000000000000000e+00,0.00000000000000000e+00,0.00000000000000000e+00,0.00000000000000000e+00,0.00000000000000000e+00,0.00000000000000000e+00,0.00000000000000000e+00,0.00000000000000000e+00,0.00000000000000000e+00,0.00000000000000000e+00,0.00000000000000000e+00,0.00000000000000000e+00,0.00000000000000000e+00,0.00000000000000000e+00,0.00000000000000000e+00,0.00000000000000000e+00,0.00000000000000000e+00,0.00000000000000000e+00,0.00000000000000000e+00,0.00000000000000000e+00,0.00000000000000000e+00,0.00000000000000000e+00,0.00000000000000000e+00,0.00000000000000000e+00,0.00000000000000000e+00,0.00000000000000000e+00,0.00000000000000000e+00,0.00000000000000000e+00,0.00000000000000000e+00,0.00000000000000000e+00,0.00000000000000000e+00,0.00000000000000000e+00,0.00000000000000000e+00,0.00000000000000000e+00,0.00000000000000000e+00,0.00000000000000000e+00,0.00000000000000000e+00],"parents":[2147483647,0,0,1,1,2,2,3,3,4,4,5,5,6,6,7,7,8,8,9,9,10,10,11,11,12,12,13,13,14,14,15,15,16,16,17,17,18,18,19,19,20,20,21,21,22,22,23,23,24,24,25,25,26,26,27,27,28,28,29,29,30,30,31,31,32,32,33,33,34,34,35,35,36,36,37,37,38,38,39,39,40,40,41,41,42,42,43,43,44,44,45,45,46,46,47,47,48,48,49,49,50,50,51,51,52,52,53,53,54,54,55,55,56,56,57,57,58,58,59,59,60,60,61,61,62,62],"right_children":[2,4,6,8,10,12,14,16,18,20,22,24,26,28,30,32,34,36,38,40,42,44,46,48,50,52,54,56,58,60,62,64,66,68,70,72,74,76,78,80,82,84,86,88,90,92,94,96,98,100,102,104,106,108,110,112,114,116,118,120,122,124,126,-1,-1,-1,-1,-1,-1,-1,-1,-1,-1,-1,-1,-1,-1,-1,-1,-1,-1,-1,-1,-1,-1,-1,-1,-1,-1,-1,-1,-1,-1,-1,-1,-1,-1,-1,-1,-1,-1,-1,-1,-1,-1,-1,-1,-1,-1,-1,-1,-1,-1,-1,-1,-1,-1,-1,-1,-1,-1,-1,-1,-1,-1,-1,-1],"split_conditions":[1.01178929209709167e-01,8.44208598136901855e-02,1.47258162498474121e-01,8.59180390834808350e-02,-1.27173975110054016e-01,-2.37617269158363342e-01,-5.56698322296142578e+00,6.02747201919555664e-02,3.53507876396179199e-01,1.36428892612457275e-01,2.07031667232513428e-01,1.41304612159729004e+00,-5.32543063163757324e-01,1.67067736387252808e-01,2.48987460136413574e+00,2.47058972716331482e-01,-2.11659461259841919e-01,-1.44021064043045044e-01,7.55662441253662109e-01,-3.82987111806869507e-01,-8.56233358383178711e-01,5.25672435760498047e-01,1.39829051494598389e+00,1.57245546579360962e-01,-5.21858501434326172e+00,1.42454266548156738e+00,1.77256971597671509e-01,-6.38030338287353516e+00,3.71299171447753906e+00,1.46195143461227417e-01,2.82329916954040527e-01,4.71374243497848511e-02,-3.16266477108001709e-01,2.36655116081237793e-01,-4.41291034221649170e-02,2.90578752756118774e-01,7.53078833222389221e-02,2.05349504947662354e-01,1.85348153114318848e+00,4.32356059551239014e-01,5.21913543343544006e-02,-1.26543319225311279e+00,-3.50642442703247070e-01,-3.27446281909942627e-01,5.89625179767608643e-01,9.60328817367553711e-01,1.89229297637939453e+00,5.82118965685367584e-02,-2.12567472457885742e+00,1.71453332901000977e+00,1.00946351885795593e-01,7.15878188610076904e-01,2.60822534561157227e-01,1.18134632706642151e-01,2.04966813325881958e-01,-7.39230966567993164e+00,2.32225507497787476e-01,-9.95586776733398438e+00,4.56272792816162109e+00,-6.15254402160644531e-01,-1.08298873901367188e+00,2.70000308752059937e-01,-4.40464115142822266e+00,-1.04377247393131256e-01,-8.45093801617622375e-02,-7.43288770318031311e-02,-4.00153845548629761e-02,1.19976118206977844e-01,-1.16288699209690094e-01,-9.27525293081998825e-03,-6.92175477743148804e-02,-1.20293743908405304e-01,-5.20639605820178986e-02,-6.42579644918441772e-02,-4.23064976930618286e-02,-7.76850618422031403e-03,-7.98904597759246826e-02,1.62236206233501434e-02,-3.70217919349670410e-01,-8.16144943237304688e-02,-4.82816956937313080e-02,-8.32664668560028076e-02,-1.29374209791421890e-02,-4.06940244138240814e-02,-6.10914789140224457e-02,-8.76113399863243103e-02,-1.29017591476440430e-01,-1.09051167964935303e-01,-1.54513409361243248e-02,2.71817836910486221e-02,8.30630958080291748e-02,-6.74121305346488953e-02,3.90610992908477783e-02,2.06685155630111694e-01,4.34014976024627686e-01,-6.05861209332942963e-02,-5.79645205289125443e-03,-1.88424605876207352e-02,-5.73775842785835266e-02,5.10324388742446899e-02,7.81659781932830811e-02,6.63865208625793457e-02,1.45601890981197357e-02,-7.67334401607513428e-02,-2.54668332636356354e-02,1.58969968557357788e-01,2.16821432113647461e-02,-1.25135034322738647e-01,2.20471359789371490e-02,7.20147415995597839e-02,1.88720017671585083e-01,1.44038513302803040e-01,1.18773050606250763e-01,9.04911756515502930e-02,4.70775924623012543e-02,9.26645398139953613e-02,5.45504428446292877e-02,1.10653214156627655e-01,1.82520076632499695e-01,8.09356421232223511e-02,-2.58319139480590820e-01,-2.09472163987811655e-05,3.30191999673843384e-02,3.22665750980377197e-01,1.81441813707351685e-01,8.93092453479766846e-02,5.03841973841190338e-02],"split_indices":[2,2,2,3,0,0,0,3,0,3,3,1,1,2,0,1,0,1,0,0,0,0,0,3,0,0,3,0,1,3,3,3,0,1,0,0,2,3,0,1,3,0,0,1,0,0,0,3,0,1,3,0,3,3,3,0,3,0,1,0,0,3,1,0,0,0,0,0,0,0,0,0,0,0,0,0,0,0,0,0,0,0,0,0,0,0,0,0,0,0,0,0,0,0,0,0,0,0,0,0,0,0,0,0,0,0,0,0,0,0,0,0,0,0,0,0,0,0,0,0,0,0,0,0,0,0,0],"sum_hessian":[4.42942000000000000e+05,2.23313000000000000e+05,2.19629000000000000e+05,1.09508000000000000e+05,1.13805000000000000e+05,1.83856000000000000e+05,3.57730000000000000e+04,3.21980000000000000e+04,7.73100000000000000e+04,