{"learner":{"attributes":{},"gradient_booster":{"model":{"gbtree_model_param":{"num_trees":"25","size_leaf_vector":"0"},"tree_info":[0,0,0,0,0,0,0,0,0,0,0,0,0,0,0,0,0,0,0,0,0,0,0,0,0],"trees":[{"base_weights":[-4.99998867511749268e-01,-6.81172907352447510e-01,1.74148261547088623e+00,-8.19559812545776367e-01,-1.32662191987037659e-01,1.22362780570983887e+00,2.93667244911193848e+00,-8.51032257080078125e-01,-2.47685760259628296e-01,-4.68092620372772217e-01,1.60624489188194275e-01,-2.13352162390947342e-02,1.54549574851989746e+00,7.18741416931152344e-01,3.28015160560607910e+00,-9.39239740371704102e-01,-7.64477908611297607e-01,-3.22241663932800293e-01,3.01058769226074219e+00,-7.12049603462219238e-01,-3.51861059665679932e-01,-3.43783289194107056e-01,4.66692745685577393e-01,-4.28188204765319824e-01,1.63899123668670654e-01,1.18492968380451202e-01,1.95036685466766357e+00,6.45267128944396973e-01,4.27875328063964844e+00,8.02954435348510742e-01,3.75342774391174316e+00,-9.81621563434600830e-01,-9.02037143707275391e-01,-6.14456653594970703e-01,-8.01945686340332031e-01,-6.11845374107360840e-01,3.14992696046829224e-01,-3.09538662433624268e-01,3.25393843650817871e+00,-7.51910150051116943e-01,-6.34369611740112305e-01,1.10227437689900398e-02,-6.00954413414001465e-01,-3.65402042865753174e-01,4.77767324447631836e+00,1.56185925006866455e-01,1.57971417903900146e+00,-4.89134669303894043e-01,-3.53027671575546265e-01,-1.06214592233300209e-02,1.33925008773803711e+00,-4.04250055551528931e-01,2.74809747934341431e-01,7.31486260890960693e-01,2.41406607627868652e+00,5.30309438705444336e-01,1.40812313556671143e+00,2.60651755332946777e+00,5.10909700393676758e+00,6.76001250743865967e-01,3.81962299346923828e+00,3.49342441558837891e+00,6.89103603363037109e+00,-1.00130927562713623e+00,-9.60655868053436279e-01,-9.14825975894927979e-01,-7.73888170719146729e-01,-8.19260776042938232e-01,-3.44408869743347168e-01,-8.12080442905426025e-01,-6.04664623737335205e-01,-6.69606029987335205e-01,9.04521048069000244e-02,2.13450193405151367e-01,1.21426725387573242e+00,-1.75481185317039490e-01,-3.90735596418380737e-01,2.92008233070373535e+00,3.52705955505371094e+00,-7.84759700298309326e-01,-7.16456174850463867e-01,-6.82577788829803467e-01,-5.08223056793212891e-01,-5.70366203784942627e-01,5.81026852130889893e-01,-6.39573752880096436e-01,-5.23980200290679932e-01,-6.42947494983673096e-01,-2.51498878002166748e-01,9.49687063694000244e-02,6.39678287506103516e+00,5.57389140129089355e-01,-2.71637469530105591e-01,1.28705763816833496e+00,2.32062697410583496e+00,-5.01150250434875488e-01,-2.55200415849685669e-01,-4.18395936489105225e-01,8.90726819634437561e-02,-1.96905657649040222e-01,1.39477133750915527e-01,7.16278731822967529e-01,1.66276836395263672e+00,-4.87275511026382446e-01,-2.70286411046981812e-01,3.29560562968254089e-02,1.96153175830841064e+00,-4.20279651880264282e-01,1.15824198722839355e+00,2.17592263221740723e+00,3.54045152664184570e+00,-1.40055283904075623e-01,5.97287356853485107e-01,2.85542249679565430e+00,9.03554975986480713e-01,3.93674850463867188e+00,7.13538408279418945e+00,3.26538890600204468e-01,1.08082747459411621e+00,3.06732869148254395e+00,4.18336153030395508e+00,7.46465206146240234e-01,3.72210669517517090e+00,6.00000238418579102e+00,8.64548683166503906e+00],"default_left":[true,true,true,true,true,true,true,true,true,true,true,true,true,true,true,true,true,true,true,true,true,true,true,true,true,true,true,true,true,true,true,true,true,true,true,true,true,true,true,true,true,true,true,true,true,true,true,true,true,true,true,true,true,true,true,true,true,false,true,true,true,true,true,false,false,false,false,false,false,false,false,false,false,false,false,false,false,false,false,false,false,false,false,false,false,false,false,false,false,false,false,false,false,false,false,false,false,false,false,false,false,false,false,false,false,false,false,false,false,false,false,false,false,false,false,false,false,false,false,false,false,false,false,false,false],"id":0,"leaf_child_counts":[0,0,0,0,0,0,0,0,0,0,0,0,0,0,0,0,0,0,0,0,0,0,0,0,0,0,0,0,1,0,0,2,2,2,2,2,2,2,2,2,2,2,2,2,2,2,2,2,2,2,2,2,2,2,2,2,2,0,2,2,2,2,2,0,0,0,0,0,0,0,0,0,0,0,0,0,0,0,0,0,0,0,0,0,0,0,0,0,0,0,0,0,0,0,0,0,0,0,0,0,0,0,0,0,0,0,0,0,0,0,0,0,0,0,0,0,0,0,0,0,0,0,0,0,0],"left_children":[1,3,5,7,9,11,13,15,17,19,21,23,25,27,29,31,33,35,37,39,41,43,45,47,49,51,53,55,57,59,61,63,65,67,69,71,73,75,77,79,81,83,85,87,89,91,93,95,97,99,101,103,105,107,109,111,113,-1,115,117,119,121,123,-1,-1,-1,-1,-1,-1,-1,-1,-1,-1,-1,-1,-1,-1,-1,-1,-1,-1,-1,-1,-1,-1,-1,-1,-1,-1,-1,-1,-1,-1,-1,-1,-1,-1,-1,-1,-1,-1,-1,-1,-1,-1,-1,-1,-1,-1,-1,-1,-1,-1,-1,-1,-1,-1,-1,-1,-1,-1,-1,-1,-1,-1],"loss_changes":[1.79879593750000000e+05,3.11078906250000000e+04,2.04986328125000000e+04,5.88979687500000000e+03,8.12269482421875000e+03,9.26172656250000000e+03,7.62567187500000000e+03,2.36745312500000000e+03,4.14816113281250000e+03,1.09188964843750000e+03,6.80089550781250000e+03,3.57969726562500000e+02,1.06101875000000000e+04,3.48788085937500000e+02,1.01616796875000000e+04,2.41343750000000000e+02,8.79554687500000000e+02,3.08044042968750000e+03,3.09645996093750000e+02,3.80043945312500000e+01,2.35824218750000000e+03,1.84367687988281250e+03,9.47474218750000000e+03,6.63433837890625000e+00,6.69535522460937500e+02,3.31867919921875000e+02,8.08389843750000000e+03,1.14836791992187500e+02,2.41733703613281250e+01,5.30519897460937500e+02,5.91405468750000000e+03,2.86796875000000000e+01,1.33382812500000000e+02,1.73038183593750000e+03,2.49976562500000000e+02,4.65586425781250000e+02,4.76037658691406250e+02,2.25329875946044922e-01,2.21618652343750000e+01,8.99707031250000000e+00,2.53222656250000000e+01,3.51973681640625000e+03,4.56523437500000000e+01,5.23575927734375000e+02,5.30119384765625000e+02,3.67968652343750000e+03,1.29367480468750000e+03,2.17140197753906250e+00,1.93709182739257812e+01,7.95205764770507812e+01,8.38599853515625000e+01,1.02677307128906250e+01,1.27515551757812500e+03,1.93905200195312500e+03,2.77208203125000000e+03,5.15835571289062500e+01,1.23024902343750000e+02,0.00000000000000000e+00,1.22935485839843750e+01,1.88794555664062500e+02,2.49200439453125000e+00,4.22110937500000000e+03,8.17308593750000000e+02,0.00000000000000000e+00,0.00000000000000000e+00,0.00000000000000000e+00,0.00000000000000000e+00,0.00000000000000000e+00,0.00000000000000000e+00,0.00000000000000000e+00,0.00000000000000000e+00,0.00000000000000000e+00,0.00000000000000000e+00,0.00000000000000000e+00,0.00000000000000000e+00,0.00000000000000000e+00,0.00000000000000000e+00,0.00000000000000000e+00,0.00000000000000000e+00,0.00000000000000000e+00,0.00000000000000000e+00,0.00000000000000000e+00,0.00000000000000000e+00,0.00000000000000000e+00,0.00000000000000000e+00,0.00000000000000000e+00,0.00000000000000000e+00,0.00000000000000000e+00,0.00000000000000000e+00,0.00000000000000000e+00,0.00000000000000000e+00,0.00000000000000000e+00,0.00000000000000000e+00,0.00000000000000000e+00,0.00000000000000000e+00,0.00000000000000000e+00,0.00000000000000000e+00,0.00000000000000000e+00,0.00000000000000000e+00,0.00000000000000000e+00,0.00000000000000000e+00,0.00000000000000000e+00,0.00000000000000000e+00,0.00000000000000000e+00,0.00000000000000000e+00,0.00000000000000000e+00,0.00000000000000000e+00,0.00000000000000000e+00,0.00000000000000000e+00,0.00000000000000000e+00,0.00000000000000000e+00,0.00000000000000000e+00,0.00000000000000000e+00,0.00000000000000000e+00,0.00000000000000000e+00,0.00000000000000000e+00,0.00000000000000000e+00,0.00000000000000000e+00,0.00000000000000000e+00,0.00000000000000000e+00,0.00000000000000000e+00,0.00000000000000000e+00,0.00000000000000000e+00,0.00000000000000000e+00,0.00000000000000000e+00],"parents":[2147483647,0,0,1,1,2,2,3,3,4,4,5,5,6,6,7,7,8,8,9,9,10,10,11,11,12,12,13,13,14,14,15,15,16,16,17,17,18,18,19,19,20,20,21,21,22,22,23,23,24,24,25,25,26,26,27,27,28,28,29,29,30,30,31,31,32,32,33,33,34,34,35,35,36,36,37,37,38,38,39,39,40,40,41,41,42,42,43,43,44,44,45,45,46,46,47,47,48,48,49,49,50,50,51,51,52,52,53,53,54,54,55,55,56,56,58,58,59,59,60,60,61,61,62,62],"right_children":[2,4,6,8,10,12,14,16,18,20,22,24,26,28,30,32,34,36,38,40,42,44,46,48,50,52,54,56,58,60,62,64,66,68,70,72,74,76,78,80,82,84,86,88,90,92,94,96,98,100,102,104,106,108,110,112,114,-1,116,118,120,122,124,-1,-1,-1,-1,-1,-1,-1,-1,-1,-1,-1,-1,-1,-1,-1,-1,-1,-1,-1,-1,-1,-1,-1,-1,-1,-1,-1,-1,-1,-1,-1,-1,-1,-1,-1,-1,-1,-1,-1,-1,-1,-1,-1,-1,-1,-1,-1,-1,-1,-1,-1,-1,-1,-1,-1,-1,-1,-1,-1,-1,-1,-1],"split_conditions":[1.48701518774032593e-01,1.20262078940868378e-01,1.72205179929733276e-01,2.40384042263031006e-01,1.90752252936363220e-01,-2.83466053009033203e+00,-5.60017442703247070e+00,9.12761911749839783e-02,2.97674208879470825e-01,1.33160680532455444e-01,-2.03518152236938477e+00,1.73062533140182495e-01,-3.12557888031005859e+00,2.16344505548477173e-01,-5.10123443603515625e+00,1.08040034770965576e-01,-3.09082776308059692e-01,-1.23730754852294922e+00,1.19060039520263672e+00,1.03898048400878906e-01,-5.43539643287658691e-01,3.27099055051803589e-01,2.69179552793502808e-01,1.39881819486618042e-01,-3.92546939849853516e+00,2.90121674537658691e-01,1.92485123872756958e-01,2.04895511269569397e-01,-6.76281452178955078e+00,2.16281622648239136e-01,3.21229934692382812e-01,7.22338408231735229e-02,1.98739364743232727e-01,1.38120770454406738e-01,2.22502350807189941e-01,2.88939118385314941e-01,2.63280689716339111e-01,8.94605278968811035e-01,3.04039359092712402e-01,1.30618736147880554e-01,-1.76366591453552246e+00,-2.31312751770019531e+00,1.31749361753463745e-01,2.74915397167205811e-01,2.07085895538330078e+00,-5.07742762565612793e-01,2.87197202444076538e-01,1.70309931039810181e-01,-3.37958860397338867e+00,2.20917075872421265e-01,1.58803835511207581e-01,2.83662825822830200e-01,-4.08420562744140625e+00,1.21538721024990082e-01,3.01073670387268066e-01,3.10093045234680176e-01,3.98973774909973145e+00,7.81955301761627197e-01,3.23174953460693359e-01,1.86037778854370117e-01,2.20765233039855957e-01,1.47551804780960083e-01,3.35948407649993896e-01,-3.00392806529998779e-01,-2.88196772336959839e-01,-2.74447798728942871e-01,-2.32166454195976257e-01,-2.45778247714042664e-01,-1.03322662413120270e-01,-2.43624135851860046e-01,-1.81399390101432800e-01,-2.00881823897361755e-01,2.71356329321861267e-02,6.40350580215454102e-02,3.64280194044113159e-01,-5.26443570852279663e-02,-1.17220684885978699e-01,8.76024723052978516e-01,1.05811786651611328e+00,-2.35427916049957275e-01,-2.14936867356300354e-01,-2.04773351550102234e-01,-1.52466922998428345e-01,-1.71109870076179504e-01,1.74308061599731445e-01,-1.91872134804725647e-01,-1.57194063067436218e-01,-1.92884251475334167e-01,-7.54496678709983826e-02,2.84906122833490372e-02,1.91903495788574219e+00,1.67216747999191284e-01,-8.14912468194961548e-02,3.86117309331893921e-01,6.96188092231750488e-01,-1.50345087051391602e-01,-7.65601247549057007e-02,-1.25518783926963806e-01,2.67218053340911865e-02,-5.90717010200023651e-02,4.18431423604488373e-02,2.14883625507354736e-01,4.98830527067184448e-01,-1.46182656288146973e-01,-8.10859277844429016e-02,9.88681707531213760e-03,5.88459551334381104e-01,-1.26083895564079285e-01,3.47472608089447021e-01,6.52776837348937988e-01,1.06213545799255371e+00,-4.20165881514549255e-02,1.79186210036277771e-01,8.56626808643341064e-01,2.71066516637802124e-01,1.18102455139160156e+00,2.14061522483825684e+00,9.79616716504096985e-02,3.24248254299163818e-01,9.20198619365692139e-01,1.25500845909118652e+00,2.23939567804336548e-01,1.11663210391998291e+00,1.80000078678131104e+00,2.59364604949951172e+00],"split_indices":[2,2,2,3,3,0,1,2,3,3,1,3,1,2,0,3,0,1,0,3,0,3,3,3,0,3,3,2,1,2,3,2,3,3,3,3,3,0,3,2,0,0,2,3,0,0,3,2,0,3,2,3,1,3,3,3,0,0,3,2,2,3,3,0,0,0,0,0,0,0,0,0,0,0,0,0,0,0,0,0,0,0,0,0,0,0,0,0,0,0,0,0,0,0,0,0,0,0,0,0,0,0,0,0,0,0,0,0,0,0,0,0,0,0,0,0,0,0,0,0,0,0,0,0,0],"sum_hessian":[4.42942000000000000e+05,4.09818000000000000e+05,3.31240000000000000e+04,3.27253000000000000e+05,8.25650000000000000e+04,2.31120000000000000e+04,1.00120000000000000e+04,3.10182000000000000e+05,1.70710000000000000e+04,3.85150000000000000e+04,4.40500000000000000e+04,4.74800000000000000e+03,1.83640000000000000e+04,1.34300000000000000e+03,8.66900000000000000e+03,1.53619000000000000e+05,1.56563000000000000e+05,1.66900000000000000e+04,3.81000000000000000e+02,1.24270000000000000e+04,2.60880000000000000e+04,1.66350000000000000e+04,2.74150000000000000e+04,1.48500000000000000e+03,3.26300000000000000e+03,4.05900000000000000e+03,1.43050000000000000e+04,1.31700000000000000e+03,2.60000000000000000e+01,1.39100000000000000e+03,7.27800000000000000e+03,7.17990000000000000e+04,8.18200000000000000e+04,3.12910000000000000e+04,1.25272000000000000e+05,1.14750000000000000e+04,5.21500000000000000e+03,2.60000000000000000e+01,3.55000000000000000e+02,8.20700000000000000e+03,4.22000000000000000e+03,1.06190000000000000e+04,1.54690000000000000e+04,1.65660000000000000e+04,6.90000000000000000e+01,2.14360000000000000e+04,5.97900000000000000e+03,8.17000000000000000e+02,6.68000000000000000e+02,2.84200000000000000e+03,4.21000000000000000e+02,9.34000000000000000e+02,3.12500000000000000e+03,3.94300000000000000e+03,1.03620000000000000e+04,1.14600000000000000e+03,1.71000000000000000e+02,1.00000000000000000e+01,1.60000000000000000e+01,1.33600000000000000e+03,5.50000000000000000e+01,6.72300000000000000e+03,5.55000000000000000e+02,3.70040000000000000e+04,3.47950000000000000e+04,7.43900000000000000e+04,7.43000000000000000e+03,1.77940000000000000e+04,1.34970000000000000e+04,1.19148000000000000e+05,6.12400000000000000e+03,1.06030000000000000e+04,8.72000000000000000e+02,4.68700000000000000e+03,5.28000000000000000e+02,1.10000000000000000e+01,1.50000000000000000e+01,1.65000000000000000e+02,1.90000000000000000e+02,4.24900000000000000e+03,3.95800000000000000e+03,3.05000000000000000e+03,1.17000000000000000e+03,5.25700000000000000e+03,5.36200000000000000e+03,1.02960000000000000e+04,5.17300000000000000e+03,4.81900000000000000e+03,1.17470000000000000e+04,1.80000000000000000e+01,5.10000000000000000e+01,1.10620000000000000e+04,1.03740000000000000e+04,4.28800000000000000e+03,1.69100000000000000e+03,7.76000000000000000e+02,4.10000000000000000e+01,5.82000000000000000e+02,8.60000000000000000e+01,1.26800000000000000e+03,1.57400000000000000e+03,1.45000000000000000e+02,2.76000000000000000e+02,5.75000000000000000e+02,3.59000000000000000e+02,2.73400000000000000e+03,3.91000000000000000e+02,1.06600000000000000e+03,2.87700000000000000e+03,8.55600000000000000e+03,1.80600000000000000e+03,1.04000000000000000e+02,1.04200000000000000e+03,4.30000000000000000e+01,1.28000000000000000e+02,1.20000000000000000e+01,4.00000000000000000e+00,7.18000000000000000e+02,6.18000000000000000e+02,2.10000000000000000e+01,3.40000000000000000e+01,5.17000000000000000e+02,6.20600000000000000e+03,3.71000000000000000e+02,1.84000000000000000e+02],"tree_param":{"num_feature":"4","num_nodes":"125","size_leaf_vector":"0"}},{"base_weights":[-3.49958062171936035e-01,-4.83650743961334229e-01,1.14713501930236816e+00,-5.91305792331695557e-01,-1.68655097484588623e-01,8.34311187267303467e-01,2.21229720115661621e+00,-5.95081388950347900e-01,1.89362382888793945e+00,-3.89130890369415283e-01,7.38238962367177010e-03,-3.23062241077423096e-02,1.05013787746429443e+00,6.41954541206359863e-01,2.51297116279602051e+00,-6.41107499599456787e-01,-4.96751815080642700e-01,-4.66950923204421997e-01,2.17619109153747559e+00,-5.26569247245788574e-01,-3.20212781429290771e-01,-4.89346265792846680e-01,9.09612998366355896e-02,-3.08779716491699219e-01,1.11874468624591827e-01,5.09121231734752655e-02,1.31771123409271240e+00,4.68567758798599243e-01,2.78616666793823242e+00,5.73366463184356689e-01,2.87444901466369629e+00,-6.78183197975158691e-01,-6.00423932075500488e-01,-5.24751245975494385e-01,-2.53681480884552002e-01,-5.18863379955291748e-01,-2.07414850592613220e-01,-5.56231081485748291e-01,-4.81823652982711792e-01,-1.03374473750591278e-01,-4.42119598388671875e-01,-5.44181048870086670e-01,-4.34207946062088013e-01,1.22349929809570312e+00,-8.08555632829666138e-02,-3.45142662525177002e-01,-2.06004530191421509e-01,-2.68459543585777283e-02,9.60616350173950195e-01,-3.26550364494323730e-01,1.94076552987098694e-01,5.23619294166564941e-01,1.70511543750762939e+00,-5.63446879386901855e-01,5.79815030097961426e-01,1.18114912509918213e+00,3.60754275321960449e+00,4.19659763574600220e-01,1.57009577751159668e+00,2.37982201576232910e+00,4.22239828109741211e+00,-6.95056855678558350e-01,-6.55065655708312988e-01,-6.19013845920562744e-01,-5.59448122978210449e-01,-2.92725980281829834e-01,-5.56709527969360352e-01,-4.90216910839080811e-01,3.53531032800674438e-01,-2.46265932917594910e-01,-3.46736498177051544e-02,-5.77604711055755615e-01,-5.34470498561859131e-01,-5.14821350574493408e-01,-4.34457600116729736e-01,-4.51323300600051880e-01,2.70588457584381104e-01,-4.60859417915344238e-01,-3.90019088983535767e-01,-6.01347744464874268e-01,-4.87191945314407349e-01,-4.60175067186355591e-01,6.91877678036689758e-02,9.73226487636566162e-01,1.91267049312591553e+00,-4.66283470392227173e-01,1.22402198612689972e-01,-3.33196312189102173e-01,-5.13444304466247559e-01,-2.68549054861068726e-01,5.90666830539703369e-01,-1.71000599861145020e-01,8.97287130355834961e-02,6.36075019836425781e-01,1.50665724277496338e+00,-4.34268474578857422e-01,-1.23444467782974243e-01,3.80370067432522774e-03,1.55251669883728027e+00,7.52427220344543457e-01,-5.96145868301391602e-01,2.40452146530151367e+00,1.31367897987365723e+00,-1.27917572855949402e-01,-1.13052523136138916e+00,3.86816680431365967e-01,1.57375192642211914e+00,1.54945206642150879e+00,1.05446577072143555e-01,3.02777838706970215e+00,5.50327157974243164e+00,-1.61814630031585693e-01,5.43935596942901611e-01,2.24796557426452637e+00,3.86130392551422119e-01,1.30729961395263672e+00,2.77875256538391113e+00,2.92794489860534668e+00,4.76743268966674805e+00],"default_left":[true,true,true,true,true,true,true,true,true,true,true,true,true,true,true,true,true,true,false,true,true,true,true,true,true,true,true,true,true,true,true,true,true,true,true,false,true,true,true,true,true,true,true,true,true,true,true,true,true,true,true,true,true,true,true,true,true,true,true,true,true,false,false,false,false,false,false,false,false,false,false,false,false,false,false,false,false,false,false,false,false,false,false,false,false,false,false,false,false,false,false,false,false,false,false,false,false,false,false,false,false,false,false,false,false,false,false,false,false,false,false,false,false,false,false,false,false,false,false],"id":1,"leaf_child_counts":[0,0,0,0,0,0,0,0,1,0,0,0,0,0,0,0,0,1,0,0,0,0,0,0,0,0,0,0,0,0,0,2,2,2,2,0,2,2,2,2,2,2,2,2,2,2,2,2,2,2,2,2,2,2,2,2,2,2,2,2,2,0,0,0,0,0,0,0,0,0,0,0,0,0,0,0,0,0,0,0,0,0,0,0,0,0,0,0,0,0,0,0,0,0,0,0,0,0,0,0,0,0,0,0,0,0,0,0,0,0,0,0,0,0,0,0,0,0,0],"left_children":[1,3,5,7,9,11,13,15,17,19,21,23,25,27,29,31,33,35,-1,37,39,41,43,45,47,49,51,53,55,57,59,61,63,65,67,-1,69,71,73,75,77,79,81,83,85,87,89,91,93,95,97,99,101,103,105,107,109,111,113,115,117,-1,-1,-1,-1,-1,-1,-1,-1,-1,-1,-1,-1,-1,-1,-1,-1,-1,-1,-1,-1,-1,-1,-1,-1,-1,-1,-1,-1,-1,-1,-1,-1,-1,-1,-1,-1,-1,-1,-1,-1,-1,-1,-1,-1,-1,-1,-1,-1,-1,-1,-1,-1,-1,-1,-1,-1,-1,-1],"loss_changes":[8.86557656250000000e+04,1.37891171875000000e+04,1.20979414062500000e+04,2.84440625000000000e+03,4.01999462890625000e+03,5.25041210937500000e+03,3.89041015625000000e+03,1.36915625000000000e+03,3.07845703125000000e+02,4.35392089843750000e+02,2.39107788085937500e+03,2.23182815551757812e+02,6.00872070312500000e+03,4.91672058105468750e+02,4.84872656250000000e+03,3.10492187500000000e+02,6.56521484375000000e+02,5.66038131713867188e-01,0.00000000000000000e+00,2.01127929687500000e+01,8.09603515625000000e+02,2.48436279296875000e+01,9.59314941406250000e+03,7.10060119628906250e+00,4.33300994873046875e+02,2.56641510009765625e+02,5.45254296875000000e+03,1.41311859130859375e+02,1.26252929687500000e+02,1.66027038574218750e+02,3.87766796875000000e+03,4.16054687500000000e+01,7.45195312500000000e+01,6.41371093750000000e+02,1.43185021972656250e+03,0.00000000000000000e+00,5.85728883743286133e-02,3.98339843750000000e+00,9.35571289062500000e+00,1.43456457519531250e+03,1.89626464843750000e+01,1.32435302734375000e+01,5.41619262695312500e+01,1.11822851562500000e+03,3.35353125000000000e+03,2.67591857910156250e+00,2.52716484069824219e+01,5.31856651306152344e+01,9.06606750488281250e+01,2.85192871093750000e+01,8.89921020507812500e+02,1.49005993652343750e+03,3.25857421875000000e+03,2.94929008483886719e+01,2.12128723144531250e+02,1.37030715942382812e+01,5.47772827148437500e+01,6.83044738769531250e+01,1.15505279541015625e+02,1.82248046875000000e+03,1.08947656250000000e+03,0.00000000000000000e+00,0.00000000000000000e+00,0.00000000000000000e+00,0.00000000000000000e+00,0.00000000000000000e+00,0.00000000000000000e+00,0.00000000000000000e+00,0.00000000000000000e+00,0.00000000000000000e+00,0.00000000000000000e+00,0.00000000000000000e+00,0.00000000000000000e+00,0.00000000000000000e+00,0.00000000000000000e+00,0.00000000000000000e+00,0.00000000000000000e+00,0.00000000000000000e+00,0.00000000000000000e+00,0.00000000000000000e+00,0.00000000000000000e+00,0.00000000000000000e+00,0.00000000000000000e+00,0.00000000000000000e+00,0.00000000000000000e+00,0.00000000000000000e+00,0.00000000000000000e+00,0.00000000000000000e+00,0.00000000000000000e+00,0.00000000000000000e+00,0.00000000000000000e+00,0.00000000000000000e+00,0.00000000000000000e+00,0.00000000000000000e+00,0.00000000000000000e+00,0.00000000000000000e+00,0.00000000000000000e+00,0.00000000000000000e+00,0.00000000000000000e+00,0.00000000000000000e+00,0.00000000000000000e+00,0.00000000000000000e+00,0.00000000000000000e+00,0.00000000000000000e+00,0.00000000000000000e+00,0.00000000000000000e+00,0.00000000000000000e+00,0.00000000000000000e+00,0.00000000000000000e+00,0.00000000000000000e+00,0.00000000000000000e+00,0.00000000000000000e+00,0.00000000000000000e+00,0.00000000000000000e+00,0.00000000000000000e+00,0.00000000000000000e+00,0.00000000000000000e+00,0.00000000000000000e+00,0.00000000000000000e+00],"parents":[2147483647,0,0,1,1,2,2,3,3,4,4,5,5,6,6,7,7,8,8,9,9,10,10,11,11,12,12,13,13,14,14,15,15,16,16,17,17,19,19,20,20,21,21,22,22,23,23,24,24,25,25,26,26,27,27,28,28,29,29,30,30,31,31,32,32,33,33,34,34,36,36,37,37,38,38,39,39,40,40,41,41,42,42,43,43,44,44,45,45,46,46,47,47,48,48,49,49,50,50,51,51,52,52,53,53,54,54,55,55,56,56,57,57,58,58,59,59,60,60],"right_children":[2,4,6,8,10,12,14,16,18,20,22,24,26,28,30,32,34,36,-1,38,40,42,44,46,48,50,52,54,56,58,60,62,64,66,68,-1,70,72,74,76,78,80,82,84,86,88,90,92,94,96,98,100,102,104,106,108,110,112,114,116,118,-1,-1,-1,-1,-1,-1,-1,-1,-1,-1,-1,-1,-1,-1,-1,-1,-1,-1,-1,-1,-1,-1,-1,-1,-1,-1,-1,-1,-1,-1,-1,-1,-1,-1,-1,-1,-1,-1,-1,-1,-1,-1,-1,-1,-1,-1,-1,-1,-1,-1,-1,-1,-1,-1,-1,-1,-1,-1],"split_conditions":[1.46954387426376343e-01,1.14142805337905884e-01,1.76027566194534302e-01,2.88593709468841553e-01,1.79475024342536926e-01,-2.89652395248413086e+00,-5.08551979064941406e+00,1.45301282405853271e-01,-2.30236053466796875e+00,1.26633867621421814e-01,-2.66954278945922852e+00,1.80315464735031128e-01,-3.20502066612243652e+00,2.10998117923736572e-01,-5.32624435424804688e+00,8.61082449555397034e-02,2.43114471435546875e-01,-3.02016043663024902e+00,6.52857363224029541e-01,1.29137292504310608e-01,-4.92086410522460938e-01,1.32999628782272339e-01,-4.09628212451934814e-01,1.57440543174743652e-01,-4.19164180755615234e+00,2.94419199228286743e-01,2.01179951429367065e-01,3.05713295936584473e-01,-6.91789340972900391e+00,2.06666976213455200e-01,1.95224255323410034e-01,7.85098746418952942e-02,1.00528717041015625e-01,-1.44384682178497314e-01,-1.11509752273559570e+00,-1.55659019947052002e-01,2.92808502912521362e-01,8.36233198642730713e-02,9.65101867914199829e-02,-1.97533178329467773e+00,1.28123998641967773e-01,-3.57087326049804688e+00,-3.51804041862487793e+00,2.13613182306289673e-01,2.55149722099304199e-01,1.72194376587867737e-01,-3.22215270996093750e+00,2.23921135067939758e-01,1.65894359350204468e-01,-3.58996057510375977e+00,-4.36850547790527344e+00,-1.09342360496520996e+00,-6.86934590339660645e-01,-5.58647632598876953e+00,-6.65880060195922852e+00,4.76794242858886719e+00,3.23174953460693359e-01,1.95334523916244507e-01,4.30584335327148438e+00,2.02149718999862671e-01,2.06094652414321899e-01,-2.08517059683799744e-01,-1.96519702672958374e-01,-1.85704156756401062e-01,-1.67834445834159851e-01,-8.78177955746650696e-02,-1.67012870311737061e-01,-1.47065073251724243e-01,1.06059312820434570e-01,-7.38797858357429504e-02,-1.04020955041050911e-02,-1.73281416296958923e-01,-1.60341158509254456e-01,-1.54446408152580261e-01,-1.30337283015251160e-01,-1.35397002100944519e-01,8.11765417456626892e-02,-1.38257831335067749e-01,-1.17005728185176849e-01,-1.80404335260391235e-01,-1.46157592535018921e-01,-1.38052523136138916e-01,2.07563303411006927e-02,2.91967958211898804e-01,5.73801159858703613e-01,-1.39885053038597107e-01,3.67206595838069916e-02,-9.99588966369628906e-02,-1.54033303260803223e-01,-8.05647224187850952e-02,1.77200049161911011e-01,-5.13001829385757446e-02,2.69186142832040787e-02,1.90822511911392212e-01,4.51997190713882446e-01,-1.30280554294586182e-01,-3.70333418250083923e-02,1.14111020229756832e-03,4.65755015611648560e-01,2.25728169083595276e-01,-1.78843766450881958e-01,7.21356451511383057e-01,3.94103705883026123e-01,-3.83752733469009399e-02,-3.39157581329345703e-01,1.16045005619525909e-01,4.72125589847564697e-01,4.64835643768310547e-01,3.16339731216430664e-02,9.08333539962768555e-01,1.65098154544830322e+00,-4.85443919897079468e-02,1.63180679082870483e-01,6.74389719963073730e-01,1.15839123725891113e-01,3.92189890146255493e-01,8.33625793457031250e-01,8.78383517265319824e-01,1.43022990226745605e+00],"split_indices":[2,2,2,3,3,0,1,3,1,3,0,3,1,2,0,2,3,1,0,2,0,2,0,3,0,3,3,3,1,2,2,2,2,0,1,0,3,3,3,0,2,0,0,3,3,2,0,3,2,1,1,0,0,1,1,0,3,3,1,3,3,0,0,0,0,0,0,0,0,0,0,0,0,0,0,0,0,0,0,0,0,0,0,0,0,0,0,0,0,0,0,0,0,0,0,0,0,0,0,0,0,0,0,0,0,0,0,0,0,0,0,0,0,0,0,0,0,0,0],"sum_hessian":[4.42942000000000000e+05,4.06630000000000000e+05,3.63120000000000000e+04,3.03055000000000000e+05,1.03575000000000000e+05,2.80700000000000000e+04,8.24200000000000000e+03,3.02596000000000000e+05,4.59000000000000000e+02,4.59830000000000000e+04,5.75920000000000000e+04,5.59700000000000000e+03,2.24730000000000000e+04,1.32500000000000000e+03,6.91700000000000000e+03,2.06113000000000000e+05,9.64830000000000000e+04,4.90000000000000000e+01,4.10000000000000000e+02,1.53550000000000000e+04,3.06280000000000000e+04,8.29400000000000000e+03,4.92980000000000000e+04,1.91800000000000000e+03,3.67900000000000000e+03,4.74700000000000000e+03,1.77260000000000000e+04,1.22700000000000000e+03,9.80000000000000000e+01,1.08700000000000000e+03,5.83000000000000000e+03,1.07830000000000000e+05,9.82830000000000000e+04,8.65160000000000000e+04,9.96700000000000000e+03,4.00000000000000000e+01,9.00000000000000000e+00,9.22700000000000000e+03,6.12800000000000000e+03,1.10230000000000000e+04,1.96050000000000000e+04,4.15400000000000000e+03,4.14000000000000000e+03,6.49300000000000000e+03,4.28050000000000000e+04,1.41500000000000000e+03,5.03000000000000000e+02,3.16300000000000000e+03,5.16000000000000000e+02,1.30500000000000000e+03,3.44200000000000000e+03,5.81300000000000000e+03,1.19130000000000000e+04,1.19000000000000000e+02,1.10800000000000000e+03,3.40000000000000000e+01,6.40000000000000000e+01,9.43000000000000000e+02,1.44000000000000000e+02,4.26700000000000000e+03,1.56300000000000000e+03,6.23160000000000000e+04,4.55140000000000000e+04,6.76000000000000000e+04,3.06830000000000000e+04,1.04750000000000000e+04,7.60410000000000000e+04,7.17300000000000000e+03,2.79400000000000000e+03,7.00000000000000000e+00,2.00000000000000000e+00,4.64200000000000000e+03,4.58500000000000000e+03,3.60600000000000000e+03,2.52200000000000000e+03,5.71000000000000000e+03,5.31300000000000000e+03,1.44130000000000000e+04,5.19200000000000000e+03,2.06900000000000000e+03,2.08500000000000000e+03,3.93700000000000000e+03,2.03000000000000000e+02,4.76500000000000000e+03,1.72800000000000000e+03,1.47790000000000000e+04,2.80260000000000000e+04,1.32400000000000000e+03,9.10000000000000000e+01,4.67000000000000000e+02,3.60000000000000000e+01,1.41400000000000000e+03,1.74900000000000000e+03,3.25000000000000000e+02,1.91000000000000000e+02,8.52000000000000000e+02,4.53000000000000000e+02,3.02000000000000000e+03,4.22000000000000000e+02,4.82700000000000000e+03,9.86000000000000000e+02,4.27300000000000000e+03,7.64000000000000000e+03,6.80000000000000000e+01,5.10000000000000000e+01,9.29000000000000000e+02,1.79000000000000000e+02,2.50000000000000000e+01,9.00000000000000000e+00,5.10000000000000000e+01,1.30000000000000000e+01,1.66000000000000000e+02,7.77000000000000000e+02,9.10000000000000000e+01,5.30000000000000000e+01,1.15800000000000000e+03,3.10900000000000000e+03,4.65000000000000000e+02,1.09800000000000000e+03],"tree_param":{"num_feature":"4","num_nodes":"119","size_leaf_vector":"0"}},{"base_weights":[-2.44951725006103516e-01,-3.29525530338287354e-01,9.44682180881500244e-01,-3.76769125461578369e-01,1.25484764575958252e-01,7.64438331127166748e-01,1.81884741783142090e+00,-4.01067465543746948e-01,-5.78959919512271881e-02,-2.81297832727432251e-01,2.42731839418411255e-01,1.84232424944639206e-02,9.36478793621063232e-01,6.83519899845123291e-01,2.13168883323669434e+00,-4.43622708320617676e-01,-3.15116673707962036e-01,-2.93501406908035278e-01,5.22375643253326416e-01,-3.07822227478027344e-01,3.54511427879333496e+00,3.39399911463260651e-02,1.12361395359039307e+00,-2.28413566946983337e-01,1.54227480292320251e-01,1.96268726140260696e-02,1.16053545475006104e+00,5.26941478252410889e-01,2.81983017921447754e+00,4.85653072595596313e-01,2.45385265350341797e+00,-4.75223511457443237e-01,-4.16709512472152710e-01,-3.60429108142852783e-01,-2.38738968968391418e-01,-3.17727774381637573e-01,4.30268621444702148e+00,2.76552617549896240e-01,8.57896685600280762e-01,-5.39690434932708740e-01,-2.00886741280555725e-01,1.53254345059394836e-01,4.99511957168579102e+00,1.72838538885116577e-01,-3.01554888486862183e-01,7.74908185005187988e-01,1.47592902183532715e+00,-4.10300552845001221e-01,-2.00626328587532043e-01,5.94238229095935822e-02,8.00595581531524658e-01,-3.64553421735763550e-01,1.92529320716857910e-01,-2.01716184616088867e-01,1.32740902900695801e+00,-1.16045713424682617e+00,6.21210575103759766e-01,2.22143220901489258e+00,3.77921056747436523e+00,2.36623823642730713e-01,1.23436474800109863e+00,2.03418040275573730e+00,3.30640721321105957e+00,-4.96210724115371704e-01,-4.62409913539886475e-01,-2.71455705165863037e-01,-4.28043782711029053e-01,-4.22249227762222290e-01,-3.47985625267028809e-01,-3.14788259565830231e-02,-3.42846632003784180e-01,-3.51712882518768311e-01,5.25007009506225586e-01,-1.73213660717010498e-01,4.86414194107055664e+00,1.89538061618804932e-01,6.09031915664672852e-01,7.56959199905395508e-01,1.39278697967529297e+00,-4.93680864572525024e-01,-1.13811576366424561e+00,-2.87075489759445190e-01,1.16278862953186035e+00,4.27335113286972046e-01,2.48444229364395142e-02,-2.33955770730972290e-01,6.21113359928131104e-01,-2.64912188053131104e-01,-8.46372425556182861e-01,8.19620966911315918e-01,2.71780759096145630e-01,1.26413965225219727e+00,1.81491303443908691e+00,-2.80480802059173584e-01,-9.35265243053436279e-01,-2.32899054884910583e-01,-1.10292388126254082e-02,-5.07345795631408691e-02,1.60426482558250427e-01,6.82181656360626221e-01,1.93817794322967529e+00,-2.27065622806549072e-01,-1.04410099983215332e+00,4.92848530411720276e-02,1.44717156887054443e+00,-5.16264438629150391e-01,1.64334014058113098e-01,1.17179262638092041e+00,2.45562505722045898e+00,-6.49096131324768066e-01,-2.06827497482299805e+00,3.79924058914184570e-01,1.38643014430999756e+00,6.16203069686889648e-01,2.24247550964355469e+00,1.50175428390502930e+00,4.65909957885742188e+00,6.30028486251831055e-01,5.22432588040828705e-02,-2.74849414825439453e-01,1.84044039249420166e+00,1.80669248104095459e+00,3.39698362350463867e+00,2.23090362548828125e+00,3.86212277412414551e+00],"default_left":[true,true,true,true,true,true,true,true,true,true,true,true,true,true,true,true,true,true,true,true,true,true,true,true,true,true,true,true,true,true,true,true,true,true,true,true,true,true,true,true,true,true,false,true,true,true,true,true,true,true,true,true,true,true,true,true,true,true,true,true,true,true,true,false,false,false,false,false,false,false,false,false,false,false,false,false,false,false,false,false,false,false,false,false,false,false,false,false,false,false,false,false,false,false,false,false,false,false,false,false,false,false,false,false,false,false,false,false,false,false,false,false,false,false,false,false,false,false,false,false,false,false,false,false,false],"id":2,"leaf_child_counts":[0,0,0,0,0,0,0,0,0,0,0,0,0,0,0,0,0,0,0,0,1,0,0,0,0,0,0,0,0,0,0,2,2,2,2,2,2,2,2,2,2,2,0,2,2,2,2,2,2,2,2,2,2,2,2,2,2,2,2,2,2,2,2,0,0,0,0,0,0,0,0,0,0,0,0,0,0,0,0,0,0,0,0,0,0,0,0,0,0,0,0,0,0,0,0,0,0,0,0,0,0,0,0,0,0,0,0,0,0,0,0,0,0,0,0,0,0,0,0,0,0,0,0,0,0],"left_children":[1,3,5,7,9,11,13,15,17,19,21,23,25,27,29,31,33,35,37,39,41,43,45,47,49,51,53,55,57,59,61,63,65,67,69,71,73,75,77,79,81,83,-1,85,87,89,91,93,95,97,99,101,103,105,107,109,111,113,115,117,119,121,123,-1,-1,-1,-1,-1,-1,-1,-1,-1,-1,-1,-1,-1,-1,-1,-1,-1,-1,-1,-1,-1,-1,-1,-1,-1,-1,-1,-1,-1,-1,-1,-1,-1,-1,-1,-1,-1,-1,-1,-1,-1,-1,-1,-1,-1,-1,-1,-1,-1,-1,-1,-1,-1,-1,-1,-1,-1,-1,-1,-1,-1,-1],"loss_changes":[4.45656328125000000e+04,8.88971875000000000e+03,4.63096093750000000e+03,2.90276171875000000e+03,1.85536767578125000e+03,3.12851562500000000e+03,1.78330859375000000e+03,1.27315625000000000e+03,3.62693261718750000e+03,8.84488708496093750e+02,5.55382470703125000e+03,1.53194885253906250e+02,4.06907031250000000e+03,3.62115631103515625e+02,2.08763281250000000e+03,1.97824218750000000e+02,3.98895507812500000e+02,2.10229931640625000e+03,6.31632812500000000e+02,2.14243896484375000e+02,2.94327392578125000e+02,1.13764538574218750e+03,7.09690917968750000e+02,8.11549377441406250e+00,1.80600158691406250e+02,2.58532623291015625e+02,3.61880664062500000e+03,1.62017364501953125e+02,3.40874633789062500e+01,1.20155334472656250e+02,1.17184570312500000e+03,2.85683593750000000e+01,2.06916015625000000e+02,5.55126953125000000e+01,9.26305664062500000e+02,5.37765502929687500e+02,2.49631713867187500e+02,1.27844329833984375e+02,1.73820800781250000e+02,7.45488891601562500e+01,6.95896972656250000e+02,6.58082246780395508e-01,0.00000000000000000e+00,3.14851513671875000e+03,1.42475524902343750e+02,6.52412109375000000e+01,2.04254882812500000e+02,1.43219451904296875e+01,8.61883926391601562e+00,2.86249618530273438e+01,4.94618072509765625e+01,1.12625747680664062e+02,4.82298706054687500e+02,2.00198974609375000e+02,2.48686523437500000e+03,2.37255096435546875e+01,1.76909576416015625e+02,2.39578247070312500e-01,4.71087341308593750e+01,3.52196655273437500e+01,1.47772186279296875e+02,6.79009765625000000e+02,6.39860351562500000e+02,0.00000000000000000e+00,0.00000000000000000e+00,0.00000000000000000e+00,0.00000000000000000e+00,0.00000000000000000e+00,0.00000000000000000e+00,0.00000000000000000e+00,0.00000000000000000e+00,0.00000000000000000e+00,0.00000000000000000e+00,0.00000000000000000e+00,0.00000000000000000e+00,0.00000000000000000e+00,0.00000000000000000e+00,0.00000000000000000e+00,0.00000000000000000e+00,0.00000000000000000e+00,0.00000000000000000e+00,0.00000000000000000e+00,0.00000000000000000e+00,0.00000000000000000e+00,0.00000000000000000e+00,0.00000000000000000e+00,0.00000000000000000e+00,0.00000000000000000e+00,0.00000000000000000e+00,0.00000000000000000e+00,0.00000000000000000e+00,0.00000000000000000e+00,0.00000000000000000e+00,0.00000000000000000e+00,0.00000000000000000e+00,0.00000000000000000e+00,0.00000000000000000e+00,0.00000000000000000e+00,0.00000000000000000e+00,0.00000000000000000e+00,0.00000000000000000e+00,0.00000000000000000e+00,0.00000000000000000e+00,0.00000000000000000e+00,0.00000000000000000e+00,0.00000000000000000e+00,0.00000000000000000e+00,0.00000000000000000e+00,0.00000000000000000e+00,0.00000000000000000e+00,0.00000000000000000e+00,0.00000000000000000e+00,0.00000000000000000e+00,0.00000000000000000e+00,0.00000000000000000e+00,0.00000000000000000e+00,0.00000000000000000e+00,0.00000000000000000e+00,0.00000000000000000e+00,0.00000000000000000e+00,0.00000000000000000e+00,0.00000000000000000e+00,0.00000000000000000e+00,0.00000000000000000e+00,0.00000000000000000e+00],"parents":[2147483647,0,0,1,1,2,2,3,3,4,4,5,5,6,6,7,7,8,8,9,9,10,10,11,11,12,12,13,13,14,14,15,15,16,16,17,17,18,18,19,19,20,20,21,21,22,22,23,23,24,24,25,25,26,26,27,27,28,28,29,29,30,30,31,31,32,32,33,33,34,34,35,35,36,36,37,37,38,38,39,39,40,40,41,41,43,43,44,44,45,45,46,46,47,47,48,48,49,49,50,50,51,51,52,52,53,53,54,54,55,55,56,56,57,57,58,58,59,59,60,60,61,61,62,62],"right_children":[2,4,6,8,10,12,14,16,18,20,22,24,26,28,30,32,34,36,38,40,42,44,46,48,50,52,54,56,58,60,62,64,66,68,70,72,74,76,78,80,82,84,-1,86,88,90,92,94,96,98,100,102,104,106,108,110,112,114,116,118,120,122,124,-1,-1,-1,-1,-1,-1,-1,-1,-1,-1,-1,-1,-1,-1,-1,-1,-1,-1,-1,-1,-1,-1,-1,-1,-1,-1,-1,-1,-1,-1,-1,-1,-1,-1,-1,-1,-1,-1,-1,-1,-1,-1,-1,-1,-1,-1,-1,-1,-1,-1,-1,-1,-1,-1,-1,-1,-1,-1,-1,-1,-1,-1],"split_conditions":[1.50850474834442139e-01,1.34563982486724854e-01,1.84074983000755310e-01,2.48262792825698853e-01,-2.30040788650512695e+00,-3.27207517623901367e+00,-4.70861434936523438e+00,1.02718040347099304e-01,-1.50367021560668945e+00,3.28994154930114746e-01,2.60995447635650635e-01,1.91618904471397400e-01,-3.53896546363830566e+00,2.16575622558593750e-01,-5.57081508636474609e+00,1.18744663894176483e-01,1.64063155651092529e-01,3.17047178745269775e-01,2.62157291173934937e-01,2.81496226787567139e-01,2.19091176986694336e+00,-7.86752700805664062e-01,2.84269720315933228e-01,1.21405571699142456e-01,-4.62066364288330078e+00,3.02197575569152832e-01,1.44705295562744141e-01,2.97287344932556152e-01,3.20661485195159912e-01,-7.22654628753662109e+00,1.99942916631698608e-01,8.61556828022003174e-02,-1.44436836242675781e-01,9.41886603832244873e-02,-2.90792614221572876e-01,3.05775642395019531e-01,1.63911414146423340e+00,1.20528399944305420e-01,2.80287325382232666e-01,1.48706331849098206e-01,-3.22640800476074219e+00,1.53378045558929443e+00,1.49853587150573730e+00,-2.03515100479125977e+00,1.48701459169387817e-01,1.48699775338172913e-01,2.93448925018310547e-01,1.75256878137588501e-01,-3.62833118438720703e+00,1.62545680999755859e-01,2.30859547853469849e-01,1.72726631164550781e-01,-4.87764930725097656e+00,1.11947789788246155e-01,3.05443227291107178e-01,-5.05444622039794922e+00,-6.39290237426757812e+00,2.95156002044677734e-01,-6.40974426269531250e+00,3.68664884567260742e+00,1.77351772785186768e-01,3.17496418952941895e-01,2.06615239381790161e-01,-1.48863226175308228e-01,-1.38722985982894897e-01,-8.14367160201072693e-02,-1.28413140773773193e-01,-1.26674771308898926e-01,-1.04395695030689240e-01,-9.44364815950393677e-03,-1.02853991091251373e-01,-1.05513870716094971e-01,1.57502114772796631e-01,-5.19641004502773285e-02,1.45924258232116699e+00,5.68614192306995392e-02,1.82709574699401855e-01,2.27087765932083130e-01,4.17836099863052368e-01,-1.48104265332221985e-01,-3.41434746980667114e-01,-8.61226469278335571e-02,3.48836600780487061e-01,1.28200545907020569e-01,7.45332706719636917e-03,-7.01867341995239258e-02,1.86334013938903809e-01,-7.94736593961715698e-02,-2.53911733627319336e-01,2.45886296033859253e-01,8.15342292189598083e-02,3.79241913557052612e-01,5.44473946094512939e-01,-8.41442421078681946e-02,-2.80579596757888794e-01,-6.98697194457054138e-02,-3.30877187661826611e-03,-1.52203748002648354e-02,4.81279455125331879e-02,2.04654499888420105e-01,5.81453382968902588e-01,-6.81196898221969604e-02,-3.13230305910110474e-01,1.47854564711451530e-02,4.34151500463485718e-01,-1.54879331588745117e-01,4.93002049624919891e-02,3.51537793874740601e-01,7.36687541007995605e-01,-1.94728851318359375e-01,-6.20482504367828369e-01,1.13977223634719849e-01,4.15929049253463745e-01,1.84860929846763611e-01,6.72742664813995361e-01,4.50526297092437744e-01,1.39772987365722656e+00,1.89008548855781555e-01,1.56729780137538910e-02,-8.24548304080963135e-02,5.52132129669189453e-01,5.42007744312286377e-01,1.01909518241882324e+00,6.69271111488342285e-01,1.15863692760467529e+00],"split_indices":[2,2,2,3,1,0,1,2,1,3,3,3,1,2,0,3,3,3,3,3,0,0,3,3,0,3,3,3,3,0,2,3,0,3,0,3,0,2,3,2,1,0,0,0,2,2,3,2,0,2,3,2,1,3,3,1,1,3,1,1,3,3,3,0,0,0,0,0,0,0,0,0,0,0,0,0,0,0,0,0,0,0,0,0,0,0,0,0,0,0,0,0,0,0,0,0,0,0,0,0,0,0,0,0,0,0,0,0,0,0,0,0,0,0,0,0,0,0,0,0,0,0,0,0,0],"sum_hessian":[4.42942000000000000e+05,4.13543000000000000e+05,2.93990000000000000e+04,3.74644000000000000e+05,3.88990000000000000e+04,2.43750000000000000e+04,5.02400000000000000e+03,3.48117000000000000e+05,2.65270000000000000e+04,8.70300000000000000e+03,3.01960000000000000e+04,4.56800000000000000e+03,1.98070000000000000e+04,1.08600000000000000e+03,3.93800000000000000e+03,2.32834000000000000e+05,1.15283000000000000e+05,1.88670000000000000e+04,7.66000000000000000e+03,8.64400000000000000e+03,5.90000000000000000e+01,2.44110000000000000e+04,5.78500000000000000e+03,1.62100000000000000e+03,2.94700000000000000e+03,3.89000000000000000e+03,1.59170000000000000e+04,1.01300000000000000e+03,7.30000000000000000e+01,6.45000000000000000e+02,3.29300000000000000e+03,1.07083000000000000e+05,1.25751000000000000e+05,7.23540000000000000e+04,4.29290000000000000e+04,1.87690000000000000e+04,9.80000000000000000e+01,4.42200000000000000e+03,3.23800000000000000e+03,2.72700000000000000e+03,5.91700000000000000e+03,1.80000000000000000e+01,4.10000000000000000e+01,1.72640000000000000e+04,7.14700000000000000e+03,2.90900000000000000e+03,2.87600000000000000e+03,2.13000000000000000e+02,1.40800000000000000e+03,2.57100000000000000e+03,3.76000000000000000e+02,1.20700000000000000e+03,2.68300000000000000e+03,1.73700000000000000e+03,1.41800000000000000e+04,5.30000000000000000e+01,9.60000000000000000e+02,4.70000000000000000e+01,2.60000000000000000e+01,4.85000000000000000e+02,1.60000000000000000e+02,2.20900000000000000e+03,1.08400000000000000e+03,4.05800000000000000e+04,6.65030000000000000e+04,9.10400000000000000e+03,1.16647000000000000e+05,1.21180000000000000e+04,6.02360000000000000e+04,1.43540000000000000e+04,2.85750000000000000e+04,1.80420000000000000e+04,7.27000000000000000e+02,1.10000000000000000e+01,8.70000000000000000e+01,3.50600000000000000e+03,9.16000000000000000e+02,2.72600000000000000e+03,5.12000000000000000e+02,2.53400000000000000e+03,1.93000000000000000e+02,5.56600000000000000e+03,3.51000000000000000e+02,5.00000000000000000e+00,1.30000000000000000e+01,9.05100000000000000e+03,8.21300000000000000e+03,6.69800000000000000e+03,4.49000000000000000e+02,2.67100000000000000e+03,2.38000000000000000e+02,1.77300000000000000e+03,1.10300000000000000e+03,1.72000000000000000e+02,4.10000000000000000e+01,1.20300000000000000e+03,2.05000000000000000e+02,1.23000000000000000e+03,1.34100000000000000e+03,3.42000000000000000e+02,3.40000000000000000e+01,1.00500000000000000e+03,2.02000000000000000e+02,2.40900000000000000e+03,2.74000000000000000e+02,9.34000000000000000e+02,8.03000000000000000e+02,1.24630000000000000e+04,1.71700000000000000e+03,3.50000000000000000e+01,1.80000000000000000e+01,7.31000000000000000e+02,2.29000000000000000e+02,1.00000000000000000e+00,4.60000000000000000e+01,8.00000000000000000e+00,1.80000000000000000e+01,1.54000000000000000e+02,3.31000000000000000e+02,4.60000000000000000e+01,1.14000000000000000e+02,1.89500000000000000e+03,3.14000000000000000e+02,3.71000000000000000e+02,7.13000000000000000e+02],"tree_param":{"num_feature":"4","num_nodes":"125","size_leaf_vector":"0"}},{"base_weights":[-1.71439424157142639e-01,-2.24153891205787659e-01,7.89993405342102051e-01,-2.61605113744735718e-01,1.27594619989395142e-01,7.14814484119415283e-01,1.79081213474273682e+00,-2.96727240085601807e-01,-1.38463571667671204e-01,-3.23862254619598389e-01,2.10083574056625366e-01,4.70820479094982147e-02,8.44315767288208008e-01,3.85403662919998169e-01,2.00164937973022461e+00,-3.26002299785614014e-01,-2.55840182304382324e-01,-1.42288058996200562e-01,3.08027076721191406e+00,-4.82526749372482300e-01,-1.75327464938163757e-01,-2.00358822941780090e-01,3.64530414342880249e-01,-6.23568356037139893e-01,1.68320044875144958e-01,6.69693052768707275e-02,1.03996312618255615e+00,-4.70682084560394287e-01,4.48631495237350464e-01,6.70289218425750732e-01,2.27561378479003906e+00,-3.25817644596099854e-01,-3.18500280380249023e+00,-2.71610409021377563e-01,-2.12528347969055176e-01,-3.26986700296401978e-01,-1.11589603126049042e-01,-1.03377543389797211e-01,3.47491693496704102e+00,-3.62380027770996094e-01,-5.48621892929077148e-01,-1.39113008975982666e-01,-4.18942064046859741e-01,-2.13065594434738159e-01,4.95735883712768555e+00,2.31886118650436401e-01,1.02206194400787354e+00,-2.12103694677352905e-01,-1.30759656429290771e+00,9.16105136275291443e-02,7.91449785232543945e-01,-8.52604135870933533e-02,2.73310124874114990e-01,5.08683100342750549e-02,1.17727220058441162e+00,-4.88309085369110107e-01,-1.11951902508735657e-01,3.34513425827026367e-01,1.29741549491882324e+00,1.35866594314575195e+00,2.17781797051429749e-01,2.14109230041503906e+00,4.16437244415283203e+00,-3.42815130949020386e-01,-3.09078335762023926e-01,-3.16178679466247559e-01,-2.64962971210479736e-01,-8.97179543972015381e-02,-2.42927119135856628e-01,3.20392394065856934e+00,-3.29906761646270752e-01,-1.56593963503837585e-01,9.30692076683044434e-01,1.83795895427465439e-02,-1.29566937685012817e-01,3.70221495628356934e+00,2.61440873146057129e+00,-2.47499421238899231e-01,-5.46369016170501709e-01,-5.22242009639739990e-01,-6.53813540935516357e-01,-2.27411836385726929e-01,1.84440761804580688e-01,-6.49419486522674561e-01,-2.19381719827651978e-01,-4.68570053577423096e-01,-8.74868333339691162e-02,9.07010808587074280e-02,5.41653108596801758e+00,-1.84691056609153748e-01,3.83003711700439453e-01,8.02492797374725342e-01,1.27273046970367432e+00,-2.75320589542388916e-01,-1.57794401049613953e-01,-2.01243591308593750e+00,-9.12587344646453857e-01,-2.66418397426605225e-01,1.85503914952278137e-01,2.94562220573425293e-01,1.72492039203643799e+00,-2.96161472797393799e-01,2.63720937073230743e-03,1.47395789623260498e-01,1.43241822719573975e+00,-2.49798119068145752e-01,4.62687939405441284e-01,1.06863486766815186e+00,2.22726392745971680e+00,-1.12084090709686279e-01,-5.08627653121948242e-01,1.10134029388427734e+00,2.86303907632827759e-01,7.17941701412200928e-01,1.76877129077911377e+00,-1.63590252399444580e-01,1.48161351680755615e+00,-1.36401560157537460e-02,1.52278017997741699e+00,2.73570489883422852e+00,1.34963250160217285e+00,3.66950392723083496e+00,5.08369207382202148e+00],"default_left":[true,true,true,true,true,true,true,true,true,true,true,true,true,true,true,true,true,true,true,true,true,true,true,true,true,true,true,true,true,true,true,true,false,true,true,true,true,true,true,true,true,true,true,true,true,true,true,true,true,true,true,true,true,true,true,true,false,true,true,true,true,true,true,false,false,false,false,false,false,false,false,false,false,false,false,false,false,false,false,false,false,false,false,false,false,false,false,false,false,false,false,false,false,false,false,false,false,false,false,false,false,false,false,false,false,false,false,false,false,false,false,false,false,false,false,false,false,false,false,false,false,false,false],"id":3,"leaf_child_counts":[0,0,0,0,0,0,0,0,0,0,0,0,0,0,0,1,0,0,0,0,0,0,0,0,0,0,0,1,0,0,0,2,0,2,2,2,2,2,2,2,2,2,2,2,2,2,2,2,2,2,2,2,2,2,2,2,0,2,2,2,2,2,2,0,0,0,0,0,0,0,0,0,0,0,0,0,0,0,0,0,0,0,0,0,0,0,0,0,0,0,0,0,0,0,0,0,0,0,0,0,0,0,0,0,0,0,0,0,0,0,0,0,0,0,0,0,0,0,0,0,0,0,0],"left_children":[1,3,5,7,9,11,13,15,17,19,21,23,25,27,29,31,33,35,37,39,41,43,45,47,49,51,53,55,57,59,61,63,-1,65,67,69,71,73,75,77,79,81,83,85,87,89,91,93,95,97,99,101,103,105,107,109,-1,111,113,115,117,119,121,-1,-1,-1,-1,-1,-1,-1,-1,-1,-1,-1,-1,-1,-1,-1,-1,-1,-1,-1,-1,-1,-1,-1,-1,-1,-1,-1,-1,-1,-1,-1,-1,-1,-1,-1,-1,-1,-1,-1,-1,-1,-1,-1,-1,-1,-1,-1,-1,-1,-1,-1,-1,-1,-1,-1,-1,-1,-1,-1,-1],"loss_changes":[2.24491562500000000e+04,5.53181250000000000e+03,1.73105664062500000e+03,1.64135156250000000e+03,1.50487036132812500e+03,1.85193554687500000e+03,4.75698730468750000e+02,3.53369140625000000e+02,1.03723645019531250e+03,1.47045349121093750e+02,2.16590795898437500e+03,2.83057891845703125e+02,2.72804394531250000e+03,1.16322631835937500e+01,5.08388671875000000e+02,8.98125000000000000e+01,8.41025390625000000e+01,4.76949218750000000e+02,1.26000793457031250e+02,2.37675170898437500e+01,2.84026870727539062e+01,6.13311889648437500e+02,2.16494482421875000e+03,1.49737335205078125e+02,1.40841857910156250e+02,1.13354934692382812e+02,1.94625781250000000e+03,4.01830673217773438e-02,1.86477317810058594e+01,7.44630508422851562e+01,2.85560546875000000e+02,4.88515625000000000e+01,0.00000000000000000e+00,2.66752929687500000e+01,1.22777099609375000e+02,1.24668579101562500e+02,3.38389208984375000e+03,4.06463295221328735e-02,7.72851562500000000e+00,2.25656585693359375e+01,5.05578613281250000e+00,8.03220062255859375e+01,1.90370864868164062e+01,2.98999877929687500e+02,5.09052124023437500e+01,1.30059899902343750e+03,2.28326660156250000e+02,1.10326576232910156e+00,5.38470764160156250e+01,8.83264846801757812e+01,1.49308975219726562e+02,3.85035934448242188e+01,2.23381713867187500e+02,2.16553527832031250e+02,1.43305664062500000e+03,5.00116348266601562e-02,0.00000000000000000e+00,6.15414428710937500e+00,5.01230621337890625e+00,1.80223541259765625e+01,4.41135406494140625e+01,5.06451171875000000e+02,1.59210205078125000e+01,0.00000000000000000e+00,0.00000000000000000e+00,0.00000000000000000e+00,0.00000000000000000e+00,0.00000000000000000e+00,0.00000000000000000e+00,0.00000000000000000e+00,0.00000000000000000e+00,0.00000000000000000e+00,0.00000000000000000e+00,0.00000000000000000e+00,0.00000000000000000e+00,0.00000000000000000e+00,0.00000000000000000e+00,0.00000000000000000e+00,0.00000000000000000e+00,0.00000000000000000e+00,0.00000000000000000e+00,0.00000000000000000e+00,0.00000000000000000e+00,0.00000000000000000e+00,0.00000000000000000e+00,0.00000000000000000e+00,0.00000000000000000e+00,0.00000000000000000e+00,0.00000000000000000e+00,0.00000000000000000e+00,0.00000000000000000e+00,0.00000000000000000e+00,0.00000000000000000e+00,0.00000000000000000e+00,0.00000000000000000e+00,0.00000000000000000e+00,0.00000000000000000e+00,0.00000000000000000e+00,0.00000000000000000e+00,0.00000000000000000e+00,0.00000000000000000e+00,0.00000000000000000e+00,0.00000000000000000e+00,0.00000000000000000e+00,0.00000000000000000e+00,0.00000000000000000e+00,0.00000000000000000e+00,0.00000000000000000e+00,0.00000000000000000e+00,0.00000000000000000e+00,0.00000000000000000e+00,0.00000000000000000e+00,0.00000000000000000e+00,0.00000000000000000e+00,0.00000000000000000e+00,0.00000000000000000e+00,0.00000000000000000e+00,0.00000000000000000e+00,0.00000000000000000e+00,0.00000000000000000e+00,0.00000000000000000e+00,0.00000000000000000e+00,0.00000000000000000e+00],"parents":[2147483647,0,0,1,1,2,2,3,3,4,4,5,5,6,6,7,7,8,8,9,9,10,10,11,11,12,12,13,13,14,14,15,15,16,16,17,17,18,18,19,19,20,20,21,21,22,22,23,23,24,24,25,25,26,26,27,27,28,28,29,29,30,30,31,31,33,33,34,34,35,35,36,36,37,37,38,38,39,39,40,40,41,41,42,42,43,43,44,44,45,45,46,46,47,47,48,48,49,49,50,50,51,51,52,52,53,53,54,54,55,55,57,57,58,58,59,59,60,60,61,61,62,62],"right_children":[2,4,6,8,10,12,14,16,18,20,22,24,26,28,30,32,34,36,38,40,42,44,46,48,50,52,54,56,58,60,62,64,-1,66,68,70,72,74,76,78,80,82,84,86,88,90,92,94,96,98,100,102,104,106,108,110,-1,112,114,116,118,120,122,-1,-1,-1,-1,-1,-1,-1,-1,-1,-1,-1,-1,-1,-1,-1,-1,-1,-1,-1,-1,-1,-1,-1,-1,-1,-1,-1,-1,-1,-1,-1,-1,-1,-1,-1,-1,-1,-1,-1,-1,-1,-1,-1,-1,-1,-1,-1,-1,-1,-1,-1,-1,-1,-1,-1,-1,-1,-1,-1,-1],"split_conditions":[1.56108886003494263e-01,1.36248081922531128e-01,2.01323390007019043e-01,1.74769535660743713e-01,1.56138360500335693e-01,-3.95400476455688477e+00,-7.02192878723144531e+00,9.63340401649475098e-02,3.18079650402069092e-01,1.10507413744926453e-01,-2.31922101974487305e+00,2.98314809799194336e-01,-3.76349925994873047e+00,3.15757036209106445e-01,-5.40999126434326172e+00,1.30764055252075195e+00,1.55329197645187378e-01,-2.25752067565917969e+00,1.73428773880004883e+00,-2.03543853759765625e+00,-1.08434307575225830e+00,3.36681455373764038e-01,2.80694305896759033e-01,1.72300547361373901e-01,-4.74116420745849609e+00,2.24308550357818604e-01,1.54745236039161682e-01,-7.06204032897949219e+00,-8.27091598510742188e+00,3.99212169647216797e+00,3.41023772954940796e-01,8.20026695728302002e-02,-9.55500900745391846e-01,8.09155926108360291e-02,-2.90662169456481934e-01,-4.97900247573852539e+00,2.73204207420349121e-01,1.18404030799865723e+00,3.27200502157211304e-01,1.46955370903015137e-01,1.46950572729110718e-01,-1.75763010978698730e+00,-5.43089509010314941e-01,2.84469336271286011e-01,2.31678676605224609e+00,-3.07041072845458984e+00,2.92407631874084473e-01,-4.41392993927001953e+00,2.87285208702087402e-01,3.12448859214782715e-01,3.10325980186462402e-01,1.64801433682441711e-01,-5.92248821258544922e+00,1.24841034412384033e-01,3.11662971973419189e-01,3.58449029922485352e+00,-3.35855707526206970e-02,3.90075945854187012e+00,3.25770616531372070e-01,1.63023009896278381e-01,2.17901989817619324e-01,-1.85420775413513184e+00,3.49045187234878540e-01,-1.02844543755054474e-01,-9.27235037088394165e-02,-9.48536098003387451e-02,-7.94888958334922791e-02,-2.69153881818056107e-02,-7.28781372308731079e-02,9.61177229881286621e-01,-9.89720299839973450e-02,-4.69781905412673950e-02,2.79207646846771240e-01,5.51387714222073555e-03,-3.88700813055038452e-02,1.11066448688507080e+00,7.84322679042816162e-01,-7.42498263716697693e-02,-1.63910716772079468e-01,-1.56672611832618713e-01,-1.96144074201583862e-01,-6.82235509157180786e-02,5.53322322666645050e-02,-1.94825857877731323e-01,-6.58145174384117126e-02,-1.40571027994155884e-01,-2.62460503727197647e-02,2.72103250026702881e-02,1.62495934963226318e+00,-5.54073192179203033e-02,1.14901117980480194e-01,2.40747854113578796e-01,3.81819158792495728e-01,-8.25961828231811523e-02,-4.73383218050003052e-02,-6.03730797767639160e-01,-2.73776203393936157e-01,-7.99255222082138062e-02,5.56511767208576202e-02,8.83686691522598267e-02,5.17476141452789307e-01,-8.88484418392181396e-02,7.91162834502756596e-04,4.42187376320362091e-02,4.29725497961044312e-01,-7.49394372105598450e-02,1.38806387782096863e-01,3.20590466260910034e-01,6.68179214000701904e-01,-3.36252301931381226e-02,-1.52588307857513428e-01,3.30402106046676636e-01,8.58911722898483276e-02,2.15382516384124756e-01,5.30631422996520996e-01,-4.90770787000656128e-02,4.44484084844589233e-01,-4.09204699099063873e-03,4.56834077835083008e-01,8.20711493492126465e-01,4.04889762401580811e-01,1.10085117816925049e+00,1.52510774135589600e+00],"split_indices":[2,2,2,3,3,1,1,2,3,3,1,3,0,3,0,0,3,1,0,0,0,3,3,2,1,3,3,1,1,1,3,2,0,3,0,0,3,0,3,2,2,0,0,3,0,0,3,1,3,3,3,3,0,3,3,0,0,0,3,3,2,0,3,0,0,0,0,0,0,0,0,0,0,0,0,0,0,0,0,0,0,0,0,0,0,0,0,0,0,0,0,0,0,0,0,0,0,0,0,0,0,0,0,0,0,0,0,0,0,0,0,0,0,0,0,0,0,0,0,0,0,0,0],"sum_hessian":[4.42942000000000000e+05,4.19919000000000000e+05,2.30230000000000000e+04,3.79512000000000000e+05,4.04070000000000000e+04,2.14160000000000000e+04,1.60700000000000000e+03,2.95289000000000000e+05,8.42230000000000000e+04,6.24200000000000000e+03,3.41650000000000000e+04,3.47900000000000000e+03,1.79370000000000000e+04,2.10000000000000000e+02,1.39700000000000000e+03,1.72076000000000000e+05,1.23213000000000000e+05,8.41240000000000000e+04,9.90000000000000000e+01,3.01700000000000000e+03,3.22500000000000000e+03,9.34100000000000000e+03,2.48240000000000000e+04,5.32000000000000000e+02,2.94700000000000000e+03,3.60700000000000000e+03,1.43300000000000000e+04,1.40000000000000000e+01,1.96000000000000000e+02,2.39000000000000000e+02,1.15800000000000000e+03,1.72066000000000000e+05,1.00000000000000000e+01,9.03210000000000000e+04,3.28920000000000000e+04,1.19880000000000000e+04,7.21360000000000000e+04,1.10000000000000000e+01,8.80000000000000000e+01,1.07300000000000000e+03,1.94400000000000000e+03,2.80900000000000000e+03,4.16000000000000000e+02,9.31900000000000000e+03,2.20000000000000000e+01,2.06580000000000000e+04,4.16600000000000000e+03,3.33000000000000000e+02,1.99000000000000000e+02,2.62500000000000000e+03,3.22000000000000000e+02,2.07600000000000000e+03,1.53100000000000000e+03,1.74700000000000000e+03,1.25830000000000000e+04,1.30000000000000000e+01,1.00000000000000000e+00,1.74000000000000000e+02,2.20000000000000000e+01,9.40000000000000000e+01,1.45000000000000000e+02,1.08300000000000000e+03,7.50000000000000000e+01,8.53650000000000000e+04,8.67010000000000000e+04,1.17170000000000000e+04,7.86040000000000000e+04,6.52700000000000000e+03,2.63650000000000000e+04,9.00000000000000000e+00,1.19790000000000000e+04,6.91510000000000000e+04,2.98500000000000000e+03,2.00000000000000000e+00,9.00000000000000000e+00,6.70000000000000000e+01,2.10000000000000000e+01,6.62000000000000000e+02,4.11000000000000000e+02,1.55900000000000000e+03,3.85000000000000000e+02,2.20700000000000000e+03,6.02000000000000000e+02,1.92000000000000000e+02,2.24000000000000000e+02,3.07000000000000000e+03,6.24900000000000000e+03,2.00000000000000000e+00,2.00000000000000000e+01,5.49900000000000000e+03,1.51590000000000000e+04,2.22300000000000000e+03,1.94300000000000000e+03,1.52000000000000000e+02,1.81000000000000000e+02,7.00000000000000000e+01,1.29000000000000000e+02,5.45000000000000000e+02,2.08000000000000000e+03,2.11000000000000000e+02,1.11000000000000000e+02,6.10000000000000000e+02,1.46600000000000000e+03,1.38200000000000000e+03,1.49000000000000000e+02,1.01000000000000000e+03,7.37000000000000000e+02,1.14050000000000000e+04,1.17800000000000000e+03,1.00000000000000000e+00,1.20000000000000000e+01,9.00000000000000000e+00,1.65000000000000000e+02,1.10000000000000000e+01,1.10000000000000000e+01,7.00000000000000000e+00,8.70000000000000000e+01,1.24000000000000000e+02,2.10000000000000000e+01,6.17000000000000000e+02,4.66000000000000000e+02,5.20000000000000000e+01,2.30000000000000000e+01],"tree_param":{"num_feature":"4","num_nodes":"123","size_leaf_vector":"0"}},{"base_weights":[-1.19986176490783691e-01,-1.55724033713340759e-01,5.89181661605834961e-01,-1.94650843739509583e-01,2.17479001730680466e-02,4.42856669425964355e-01,9.06625986099243164e-01,-1.96664556860923767e-01,1.76562166213989258e+00,-1.04552544653415680e-01,1.18653059005737305e-01,1.29661094397306442e-02,5.49286723136901855e-01,3.91099601984024048e-01,1.10083425045013428e+00,-2.06699311733245850e-01,-6.83771893382072449e-02,-2.25667193531990051e-01,2.17954778671264648e+00,-2.24555909633636475e-01,-3.94484102725982666e-02,-1.53921008110046387e-01,2.88477867841720581e-01,1.58155739307403564e-01,-6.66383653879165649e-02,7.31395259499549866e-02,7.60302841663360596e-01,1.81117266416549683e-01,1.21978688240051270e+00,2.73853152990341187e-01,1.35940098762512207e+00,-2.18988239765167236e-01,-1.46219179034233093e-01,-2.01397970318794250e-01,2.35666811466217041e-01,-3.20468753576278687e-01,-1.38169780373573303e-01,1.79572665691375732e+00,3.14996695518493652e+00,-1.65639847517013550e-01,-2.76811301708221436e-01,1.22200451791286469e-01,-1.84667319059371948e-01,-3.84874045848846436e-01,-6.16718418896198273e-02,-1.95516556501388550e-01,4.27950203418731689e-01,4.12833504378795624e-02,3.81793797016143799e-01,-1.05967842042446136e-01,1.09559349715709686e-01,-1.30508565902709961e+00,1.97686001658439636e-01,2.67118096351623535e-01,9.18207228183746338e-01,-1.24904406070709229e+00,2.98054426908493042e-01,2.86070406436920166e-01,1.57757329940795898e+00,1.90362542867660522e-01,2.16469407081604004e+00,6.14395081996917725e-01,1.64946913719177246e+00,-2.39930018782615662e-01,-2.06903472542762756e-01,-3.22266191244125366e-01,-8.35378915071487427e-02,-3.20130556821823120e-01,-1.32076770067214966e-01,1.17767438292503357e-01,4.57267850637435913e-01,-1.81447118520736694e-02,-3.30617994070053101e-01,8.47693532705307007e-03,-1.52634859085083008e-01,1.35041391849517822e+00,2.08664393424987793e+00,3.39036011695861816e+00,2.03138399124145508e+00,-1.58622458577156067e-01,-2.11271300911903381e-01,-3.78998577594757080e-01,-1.95732697844505310e-01,-1.73516765236854553e-01,3.93541306257247925e-01,-1.70359179377555847e-01,-1.03937315940856934e+00,-2.76560574769973755e-01,-1.20055639743804932e+00,-1.55169367790222168e-01,6.80325329303741455e-01,-2.98536449670791626e-01,-7.97107517719268799e-02,9.44414198398590088e-01,2.22530841827392578e-01,-1.11596927046775818e-01,1.16784498095512390e-01,-6.62320330739021301e-02,4.99679118394851685e-01,-8.83188331499695778e-04,-1.33960619568824768e-01,8.58339890837669373e-02,8.13517034053802490e-01,-9.13757562637329102e-01,-2.16713452339172363e+00,5.79650746658444405e-03,5.65284609794616699e-01,-1.29171028733253479e-01,4.64151203632354736e-01,1.22280812263488770e+00,5.65752744674682617e-01,-3.72984409332275391e-01,-1.46140742301940918e+00,1.97013750672340393e-01,8.77681136131286621e-01,-5.46852767467498779e-01,3.33660989999771118e-01,1.01372742652893066e+00,2.75904059410095215e+00,-5.86465358734130859e-01,3.09182584285736084e-01,1.32184112071990967e+00,3.54283809661865234e+00,-3.95959705114364624e-01,7.75727748870849609e-01,2.31865715980529785e+00,8.69401276111602783e-01],"default_left":[true,true,true,true,true,true,true,true,true,true,true,true,true,true,true,true,true,true,true,true,true,true,true,true,true,true,true,true,true,true,true,true,true,true,true,true,true,true,true,true,true,true,true,true,true,true,true,true,true,true,true,true,true,true,true,true,true,true,true,true,true,true,true,false,false,false,false,false,false,false,false,false,false,false,false,false,false,false,false,false,false,false,false,false,false,false,false,false,false,false,false,false,false,false,false,false,false,false,false,false,false,false,false,false,false,false,false,false,false,false,false,false,false,false,false,false,false,false,false,false,false,false,false,false,false,false,false],"id":4,"leaf_child_counts":[0,0,0,0,0,0,0,0,0,0,0,0,0,0,0,0,0,0,0,0,0,0,0,0,0,0,0,0,0,0,0,2,2,2,2,2,2,2,2,2,2,2,2,2,2,2,2,2,2,2,2,2,2,2,2,2,2,2,2,2,2,2,2,0,0,0,0,0,0,0,0,0,0,0,0,0,0,0,0,0,0,0,0,0,0,0,0,0,0,0,0,0,0,0,0,0,0,0,0,0,0,0,0,0,0,0,0,0,0,0,0,0,0,0,0,0,0,0,0,0,0,0,0,0,0,0,0],"left_children":[1,3,5,7,9,11,13,15,17,19,21,23,25,27,29,31,33,35,37,39,41,43,45,47,49,51,53,55,57,59,61,63,65,67,69,71,73,75,77,79,81,83,85,87,89,91,93,95,97,99,101,103,105,107,109,111,113,115,117,119,121,123,125,-1,-1,-1,-1,-1,-1,-1,-1,-1,-1,-1,-1,-1,-1,-1,-1,-1,-1,-1,-1,-1,-1,-1,-1,-1,-1,-1,-1,-1,-1,-1,-1,-1,-1,-1,-1,-1,-1,-1,-1,-1,-1,-1,-1,-1,-1,-1,-1,-1,-1,-1,-1,-1,-1,-1,-1,-1,-1,-1,-1,-1,-1,-1,-1],"loss_changes":[1.12261015625000000e+04,2.91323437500000000e+03,9.86708496093750000e+02,1.36551074218750000e+03,9.28438720703125000e+02,6.65611816406250000e+02,6.70770019531250000e+02,4.44736328125000000e+02,2.93099365234375000e+02,2.57295104980468750e+02,1.98698950195312500e+03,3.33893051147460938e+01,1.17158032226562500e+03,3.19260864257812500e+02,1.04076513671875000e+03,2.38115234375000000e+02,1.01378057861328125e+03,4.70004081726074219e-01,1.03848999023437500e+02,3.56145019531250000e+01,5.01249450683593750e+02,3.51043762207031250e+02,1.78535742187500000e+03,2.67225055694580078e+01,1.29425497055053711e+01,6.15119384765625000e+02,6.28993164062500000e+02,2.45544677734375000e+02,1.23489074707031250e+02,1.82872055053710938e+02,8.00510742187500000e+02,6.73457031250000000e+01,5.97113159179687500e+02,1.43476135253906250e+02,1.99266174316406250e+02,8.29834938049316406e-02,7.34165310859680176e-02,2.47761230468750000e+01,1.51626586914062500e+01,1.71067810058593750e+00,5.07721252441406250e+01,8.10895080566406250e+02,1.37377532958984375e+02,4.15175109863281250e+02,8.17064453125000000e+02,7.05677795410156250e+01,2.17795849609375000e+03,7.78122711181640625e+00,1.85713920593261719e+01,4.48878097534179688e+00,5.62543487548828125e+00,9.82108764648437500e+01,2.31785614013671875e+02,1.53178924560546875e+02,6.56338867187500000e+02,2.01056823730468750e+01,7.92424087524414062e+01,4.30495166778564453e+00,1.75735412597656250e+02,1.02914260864257812e+02,5.22340087890625000e+01,1.69993469238281250e+02,1.39123388671875000e+03,0.00000000000000000e+00,0.00000000000000000e+00,0.00000000000000000e+00,0.00000000000000000e+00,0.00000000000000000e+00,0.00000000000000000e+00,0.00000000000000000e+00,0.00000000000000000e+00,0.00000000000000000e+00,0.00000000000000000e+00,0.00000000000000000e+00,0.00000000000000000e+00,0.00000000000000000e+00,0.00000000000000000e+00,0.00000000000000000e+00,0.00000000000000000e+00,0.00000000000000000e+00,0.00000000000000000e+00,0.00000000000000000e+00,0.00000000000000000e+00,0.00000000000000000e+00,0.00000000000000000e+00,0.00000000000000000e+00,0.00000000000000000e+00,0.00000000000000000e+00,0.00000000000000000e+00,0.00000000000000000e+00,0.00000000000000000e+00,0.00000000000000000e+00,0.00000000000000000e+00,0.00000000000000000e+00,0.00000000000000000e+00,0.00000000000000000e+00,0.00000000000000000e+00,0.00000000000000000e+00,0.00000000000000000e+00,0.00000000000000000e+00,0.00000000000000000e+00,0.00000000000000000e+00,0.00000000000000000e+00,0.00000000000000000e+00,0.00000000000000000e+00,0.00000000000000000e+00,0.00000000000000000e+00,0.00000000000000000e+00,0.00000000000000000e+00,0.00000000000000000e+00,0.00000000000000000e+00,0.00000000000000000e+00,0.00000000000000000e+00,0.00000000000000000e+00,0.00000000000000000e+00,0.00000000000000000e+00,0.00000000000000000e+00,0.00000000000000000e+00,0.00000000000000000e+00,0.00000000000000000e+00,0.00000000000000000e+00,0.00000000000000000e+00,0.00000000000000000e+00,0.00000000000000000e+00,0.00000000000000000e+00,0.00000000000000000e+00,0.00000000000000000e+00],"parents":[2147483647,0,0,1,1,2,2,3,3,4,4,5,5,6,6,7,7,8,8,9,9,10,10,11,11,12,12,13,13,14,14,15,15,16,16,17,17,18,18,19,19,20,20,21,21,22,22,23,23,24,24,25,25,26,26,27,27,28,28,29,29,30,30,31,31,32,32,33,33,34,34,35,35,36,36,37,37,38,38,39,39,40,40,41,41,42,42,43,43,44,44,45,45,46,46,47,47,48,48,49,49,50,50,51,51,52,52,53,53,54,54,55,55,56,56,57,57,58,58,59,59,60,60,61,61,62,62],"right_children":[2,4,6,8,10,12,14,16,18,20,22,24,26,28,30,32,34,36,38,40,42,44,46,48,50,52,54,56,58,60,62,64,66,68,70,72,74,76,78,80,82,84,86,88,90,92,94,96,98,100,102,104,106,108,110,112,114,116,118,120,122,124,126,-1,-1,-1,-1,-1,-1,-1,-1,-1,-1,-1,-1,-1,-1,-1,-1,-1,-1,-1,-1,-1,-1,-1,-1,-1,-1,-1,-1,-1,-1,-1,-1,-1,-1,-1,-1,-1,-1,-1,-1,-1,-1,-1,-1,-1,-1,-1,-1,-1,-1,-1,-1,-1,-1,-1,-1,-1,-1,-1,-1,-1,-1,-1,-1],"split_conditions":[1.57740756869316101e-01,1.25415146350860596e-01,1.79434508085250854e-01,3.03023397922515869e-01,1.95155724883079529e-01,-3.13257741928100586e+00,-3.92143487930297852e+00,2.34480142593383789e-01,-3.44281435012817383e+00,1.40812203288078308e-01,-2.18109869956970215e+00,2.32014036178588867e+00,-2.87166976928710938e+00,2.07038044929504395e-01,-4.37879133224487305e+00,3.35003077983856201e-01,-1.19559502601623535e+00,-4.44647598266601562e+00,1.19256675243377686e-01,1.34561598300933838e-01,-7.80149698257446289e-01,2.78543055057525635e-01,-3.07055854797363281e+00,1.65964871644973755e-01,2.45489731431007385e-01,2.79112398624420166e-01,1.84353768825531006e-01,2.94862270355224609e-01,-8.13401889801025391e+00,2.23257854580879211e-01,1.98313355445861816e-01,8.29356238245964050e-02,-1.27890419960021973e+00,2.57411718368530273e-01,-8.07780623435974121e-01,-5.14371967315673828e+00,1.21485516428947449e-01,1.14116236567497253e-01,3.17941427230834961e-01,-8.96929919719696045e-01,9.66941714286804199e-02,-2.50528717041015625e+00,1.50856643915176392e-01,1.48706331849098206e-01,-2.90567016601562500e+00,1.40646964311599731e-01,-5.33030509948730469e-01,1.87294811010360718e-01,1.58273279666900635e-01,2.43957042694091797e+00,-7.77206659317016602e+00,-3.12693190574645996e+00,-3.73955440521240234e+00,1.28569275140762329e-01,-9.90272939205169678e-01,-5.06677150726318359e+00,-4.25981521606445312e+00,3.24223160743713379e-01,3.19421887397766113e-01,1.69643610715866089e-01,2.07022070884704590e-01,1.24950498342514038e-01,-4.40637022256851196e-01,-7.19790086150169373e-02,-6.20710439980030060e-02,-9.66798588633537292e-02,-2.50613689422607422e-02,-9.60391685366630554e-02,-3.96230332553386688e-02,3.53302322328090668e-02,1.37180358171463013e-01,-5.44341374188661575e-03,-9.91853997111320496e-02,2.54308059811592102e-03,-4.57904599606990814e-02,4.05124187469482422e-01,6.25993192195892334e-01,1.01710808277130127e+00,6.09415233135223389e-01,-4.75867390632629395e-02,-6.33813962340354919e-02,-1.13699577748775482e-01,-5.87198100984096527e-02,-5.20550310611724854e-02,1.18062399327754974e-01,-5.11077567934989929e-02,-3.11811953783035278e-01,-8.29681754112243652e-02,-3.60166937112808228e-01,-4.65508103370666504e-02,2.04097613692283630e-01,-8.95609408617019653e-02,-2.39132270216941833e-02,2.83324271440505981e-01,6.67592585086822510e-02,-3.34790796041488647e-02,3.50353494286537170e-02,-1.98696106672286987e-02,1.49903744459152222e-01,-2.64956499449908733e-04,-4.01881858706474304e-02,2.57501974701881409e-02,2.44055122137069702e-01,-2.74127274751663208e-01,-6.50140404701232910e-01,1.73895235639065504e-03,1.69585391879081726e-01,-3.87513116002082825e-02,1.39245361089706421e-01,3.66842448711395264e-01,1.69725835323333740e-01,-1.11895330250263214e-01,-4.38422232866287231e-01,5.91041259467601776e-02,2.63304352760314941e-01,-1.64055839180946350e-01,1.00098304450511932e-01,3.04118245840072632e-01,8.27712237834930420e-01,-1.75939619541168213e-01,9.27547812461853027e-02,3.96552354097366333e-01,1.06285142898559570e+00,-1.18787914514541626e-01,2.32718333601951599e-01,6.95597171783447266e-01,2.60820388793945312e-01],"split_indices":[2,2,2,3,3,0,1,3,1,3,1,1,1,2,0,1,1,1,2,2,0,3,0,2,3,3,3,3,1,2,3,2,0,3,1,1,2,2,3,0,3,0,2,2,1,2,0,3,3,1,0,1,1,3,0,1,1,3,3,3,3,3,0,0,0,0,0,0,0,0,0,0,0,0,0,0,0,0,0,0,0,0,0,0,0,0,0,0,0,0,0,0,0,0,0,0,0,0,0,0,0,0,0,0,0,0,0,0,0,0,0,0,0,0,0,0,0,0,0,0,0,0,0,0,0,0,0],"sum_hessian":[4.42942000000000000e+05,4.21692000000000000e+05,2.12500000000000000e+04,3.45836000000000000e+05,7.58560000000000000e+04,1.45470000000000000e+04,6.70300000000000000e+03,3.45482000000000000e+05,3.54000000000000000e+02,3.29330000000000000e+04,4.29230000000000000e+04,2.88700000000000000e+03,1.16600000000000000e+04,1.83500000000000000e+03,4.86800000000000000e+03,3.20418000000000000e+05,2.50640000000000000e+04,6.10000000000000000e+01,2.93000000000000000e+02,1.15820000000000000e+04,2.13510000000000000e+04,1.64770000000000000e+04,2.64460000000000000e+04,1.02200000000000000e+03,1.86500000000000000e+03,3.58100000000000000e+03,8.07900000000000000e+03,1.46500000000000000e+03,3.70000000000000000e+02,1.16000000000000000e+03,3.70800000000000000e+03,2.66305000000000000e+05,5.41130000000000000e+04,1.74360000000000000e+04,7.62800000000000000e+03,2.80000000000000000e+01,3.30000000000000000e+01,2.12000000000000000e+02,8.10000000000000000e+01,5.44600000000000000e+03,6.13600000000000000e+03,1.01040000000000000e+04,1.12470000000000000e+04,4.70200000000000000e+03,1.17750000000000000e+04,5.91600000000000000e+03,2.05300000000000000e+04,6.72000000000000000e+02,3.50000000000000000e+02,1.52500000000000000e+03,3.40000000000000000e+02,2.96000000000000000e+02,3.28500000000000000e+03,1.96000000000000000e+03,6.11900000000000000e+03,1.10000000000000000e+02,1.35500000000000000e+03,1.03000000000000000e+02,2.67000000000000000e+02,1.11200000000000000e+03,4.80000000000000000e+01,1.04000000000000000e+03,2.66800000000000000e+03,9.74370000000000000e+04,1.68868000000000000e+05,1.42070000000000000e+04,3.99060000000000000e+04,6.42600000000000000e+03,1.10100000000000000e+04,4.98000000000000000e+03,2.64800000000000000e+03,1.00000000000000000e+00,2.70000000000000000e+01,3.00000000000000000e+00,3.00000000000000000e+01,8.60000000000000000e+01,1.26000000000000000e+02,6.50000000000000000e+01,1.60000000000000000e+01,4.72400000000000000e+03,7.22000000000000000e+02,2.71300000000000000e+03,3.42300000000000000e+03,4.83500000000000000e+03,5.26900000000000000e+03,1.10630000000000000e+04,1.84000000000000000e+02,4.15200000000000000e+03,5.50000000000000000e+02,1.04580000000000000e+04,1.31700000000000000e+03,3.13000000000000000e+03,2.78600000000000000e+03,5.84100000000000000e+03,1.46890000000000000e+04,2.22000000000000000e+02,4.50000000000000000e+02,7.30000000000000000e+01,2.77000000000000000e+02,3.21000000000000000e+02,1.20400000000000000e+03,3.30000000000000000e+02,1.00000000000000000e+01,2.05000000000000000e+02,9.10000000000000000e+01,2.15900000000000000e+03,1.12600000000000000e+03,6.51000000000000000e+02,1.30900000000000000e+03,3.28100000000000000e+03,2.83800000000000000e+03,2.20000000000000000e+01,8.80000000000000000e+01,1.15500000000000000e+03,2.00000000000000000e+02,5.00000000000000000e+00,9.80000000000000000e+01,1.82000000000000000e+02,8.50000000000000000e+01,1.47000000000000000e+02,9.65000000000000000e+02,3.10000000000000000e+01,1.70000000000000000e+01,1.43000000000000000e+02,8.97000000000000000e+02,1.43500000000000000e+03,1.23300000000000000e+03],"tree_param":{"num_feature":"4","num_nodes":"127","size_leaf_vector":"0"}},{"base_weights":[-8.39785933494567871e-02,-1.06346093118190765e-01,4.84942585229873657e-01,-1.28848180174827576e-01,8.06922987103462219e-02,9.23834294080734253e-02,5.61543822288513184e-01,-1.39861613512039185e-01,2.55370289087295532e-02,-5.49603141844272614e-02,1.73221677541732788e-01,4.85804975032806396e-02,1.03087580204010010e+00,3.12773257493972778e-01,8.61200749874114990e-01,-8.31501483917236328e-02,-1.52570247650146484e-01,-1.51600435376167297e-01,3.58099460601806641e-01,2.00758352875709534e-02,-2.69585371017456055e-01,-1.17273531854152679e-01,3.44582349061965942e-01,-1.59164056181907654e-01,1.19471989572048187e-01,7.45726823806762695e-01,2.87337994575500488e+00,-7.54698514938354492e-01,4.98322844505310059e-01,5.06132066249847412e-01,2.34438586235046387e+00,-2.11575284600257874e-01,-2.75821462273597717e-02,-2.69273757934570312e-01,-1.47278770804405212e-01,-1.67003050446510315e-01,1.80785655975341797e+00,3.04578632116317749e-01,8.44593405723571777e-01,-1.60502955317497253e-01,1.44016489386558533e-01,-2.08650872111320496e-01,-6.43019318580627441e-01,-3.01769256591796875e-01,7.74571439251303673e-03,2.35261827707290649e-01,7.87083685398101807e-01,-6.34281635284423828e-01,-1.11076042056083679e-01,4.31513637304306030e-02,4.72138047218322754e-01,5.38639903068542480e-01,1.88986897468566895e+00,3.54970544576644897e-01,3.42724609375000000e+00,-1.58792269229888916e+00,-4.24166679382324219e-01,1.60500407218933105e-01,7.83950924873352051e-01,3.52891832590103149e-01,1.02189254760742188e+00,1.96688604354858398e+00,3.46074700355529785e+00,2.38193535804748535e+00,-2.13547408580780029e-01,-1.10640004277229309e-01,5.21839261054992676e-01,-2.47969284653663635e-01,-3.65987658500671387e-01,-1.53056710958480835e-01,1.36968314647674561e-01,-1.95538684725761414e-01,1.17016963660717010e-01,2.31878664344549179e-02,2.28004145622253418e+00,5.17814308404922485e-02,3.86514931917190552e-01,1.13234579563140869e+00,6.14784359931945801e-01,-2.50668942928314209e-01,-8.46597924828529358e-02,-1.11432448029518127e-01,3.43392491340637207e-01,-1.84175327420234680e-01,-3.75143617391586304e-01,-5.07053375244140625e-01,-1.31354892253875732e+00,-1.87722757458686829e-01,-6.06169104576110840e-01,-7.22223073244094849e-02,7.16957569122314453e-01,4.18731868267059326e-01,1.87723413109779358e-02,6.60756766796112061e-01,9.54026639461517334e-01,-2.08003520965576172e-01,-1.23980188369750977e+00,-6.66236728429794312e-02,-3.46535265445709229e-01,-3.95497567951679230e-02,1.60412371158599854e-01,3.80791783332824707e-01,2.22293090820312500e+00,1.02504277229309082e+00,2.62140929698944092e-01,6.26011610031127930e+00,8.18396866321563721e-01,-4.31330800056457520e-01,-1.75044870376586914e+00,-2.25300639867782593e-01,-1.05428349971771240e+00,7.38655105233192444e-02,9.01781618595123291e-01,4.95235860347747803e-01,1.49006032943725586e+00,-8.35407674312591553e-02,4.57820475101470947e-01,8.92436146736145020e-01,1.31132495403289795e+00,1.69522368907928467e+00,2.36612677574157715e+00,3.10090756416320801e+00,4.16060829162597656e+00],"default_left":[true,true,true,true,true,true,true,true,true,true,true,true,true,true,true,true,true,true,true,true,true,true,true,true,true,true,true,true,true,true,true,true,true,true,true,true,true,true,true,true,true,true,true,true,true,true,true,true,true,true,true,true,true,false,false,true,true,true,true,true,true,true,true,false,false,false,false,false,false,false,false,false,false,false,false,false,false,false,false,false,false,false,false,false,false,false,false,false,false,false,false,false,false,false,false,false,false,false,false,false,false,false,false,false,false,false,false,false,false,false,false,false,false,false,false,false,false,false,false,false,false,false,false],"id":5,"leaf_child_counts":[0,0,0,0,0,0,0,0,0,0,0,0,0,0,0,0,0,0,0,0,0,0,0,0,0,0,2,0,0,0,0,2,2,2,2,2,2,2,2,2,2,2,2,2,2,2,2,2,2,2,2,2,2,0,0,2,2,2,2,2,2,2,2,0,0,0,0,0,0,0,0,0,0,0,0,0,0,0,0,0,0,0,0,0,0,0,0,0,0,0,0,0,0,0,0,0,0,0,0,0,0,0,0,0,0,0,0,0,0,0,0,0,0,0,0,0,0,0,0,0,0,0,0],"left_children":[1,3,5,7,9,11,13,15,17,19,21,23,25,27,29,31,33,35,37,39,41,43,45,47,49,51,53,55,57,59,61,63,65,67,69,71,73,75,77,79,81,83,85,87,89,91,93,95,97,99,101,103,105,-1,-1,107,109,111,113,115,117,119,121,-1,-1,-1,-1,-1,-1,-1,-1,-1,-1,-1,-1,-1,-1,-1,-1,-1,-1,-1,-1,-1,-1,-1,-1,-1,-1,-1,-1,-1,-1,-1,-1,-1,-1,-1,-1,-1,-1,-1,-1,-1,-1,-1,-1,-1,-1,-1,-1,-1,-1,-1,-1,-1,-1,-1,-1,-1,-1,-1,-1],"loss_changes":[5.63665332031250000e+03,1.79373095703125000e+03,5.03809814453125000e+02,6.46837402343750000e+02,5.74482666015625000e+02,1.12464477539062500e+02,1.04486279296875000e+03,2.55909667968750000e+02,1.49234375000000000e+03,2.98907470703125000e+02,1.35448950195312500e+03,3.85456809997558594e+01,6.19546051025390625e+01,1.51798034667968750e+03,3.34767041015625000e+03,4.63912658691406250e+02,1.79096191406250000e+02,4.99159851074218750e+02,2.28977539062500000e+02,3.07829742431640625e+02,1.09271911621093750e+02,2.32871765136718750e+02,8.27695678710937500e+02,1.51459560394287109e+01,5.24921455383300781e+01,2.43342933654785156e+01,2.11012115478515625e+01,3.11913574218750000e+02,6.29771118164062500e+02,4.05248291015625000e+02,5.10704589843750000e+02,1.00925964355468750e+02,2.07073535156250000e+03,2.58316650390625000e+01,4.55780761718750000e+02,1.32947906494140625e+02,1.08654663085937500e+02,1.64298278808593750e+02,5.69675292968750000e+01,3.82605438232421875e+01,4.15426452636718750e+02,1.67810363769531250e+01,6.07819824218750000e+01,1.41456970214843750e+02,3.41414978027343750e+02,5.45140075683593750e+02,7.08627929687500000e+01,1.54874382019042969e+01,6.31974554061889648e+00,1.55710182189941406e+01,5.46486740112304688e+01,1.21043682098388672e+01,6.97983093261718750e+01,0.00000000000000000e+00,0.00000000000000000e+00,5.97733154296875000e+01,1.01763870239257812e+02,1.92082077026367188e+02,7.20330566406250000e+02,1.81292053222656250e+02,4.28557128906250000e+01,9.57709960937500000e+01,6.49160156250000000e+01,0.00000000000000000e+00,0.00000000000000000e+00,0.00000000000000000e+00,0.00000000000000000e+00,0.00000000000000000e+00,0.00000000000000000e+00,0.00000000000000000e+00,0.00000000000000000e+00,0.00000000000000000e+00,0.00000000000000000e+00,0.00000000000000000e+00,0.00000000000000000e+00,0.00000000000000000e+00,0.00000000000000000e+00,0.00000000000000000e+00,0.00000000000000000e+00,0.00000000000000000e+00,0.00000000000000000e+00,0.00000000000000000e+00,0.00000000000000000e+00,0.00000000000000000e+00,0.00000000000000000e+00,0.00000000000000000e+00,0.00000000000000000e+00,0.00000000000000000e+00,0.00000000000000000e+00,0.00000000000000000e+00,0.00000000000000000e+00,0.00000000000000000e+00,0.00000000000000000e+00,0.00000000000000000e+00,0.00000000000000000e+00,0.00000000000000000e+00,0.00000000000000000e+00,0.00000000000000000e+00,0.00000000000000000e+00,0.00000000000000000e+00,0.00000000000000000e+00,0.00000000000000000e+00,0.00000000000000000e+00,0.00000000000000000e+00,0.00000000000000000e+00,0.00000000000000000e+00,0.00000000000000000e+00,0.00000000000000000e+00,0.00000000000000000e+00,0.00000000000000000e+00,0.00000000000000000e+00,0.00000000000000000e+00,0.00000000000000000e+00,0.00000000000000000e+00,0.00000000000000000e+00,0.00000000000000000e+00,0.00000000000000000e+00,0.00000000000000000e+00,0.00000000000000000e+00,0.00000000000000000e+00,0.00000000000000000e+00,0.00000000000000000e+00,0.00000000000000000e+00],"parents":[2147483647,0,0,1,1,2,2,3,3,4,4,5,5,6,6,7,7,8,8,9,9,10,10,11,11,12,12,13,13,14,14,15,15,16,16,17,17,18,18,19,19,20,20,21,21,22,22,23,23,24,24,25,25,26,26,27,27,28,28,29,29,30,30,31,31,32,32,33,33,34,34,35,35,36,36,37,37,38,38,39,39,40,40,41,41,42,42,43,43,44,44,45,45,46,46,47,47,48,48,49,49,50,50,51,51,52,52,55,55,56,56,57,57,58,58,59,59,60,60,61,61,62,62],"right_children":[2,4,6,8,10,12,14,16,18,20,22,24,26,28,30,32,34,36,38,40,42,44,46,48,50,52,54,56,58,60,62,64,66,68,70,72,74,76,78,80,82,84,86,88,90,92,94,96,98,100,102,104,106,-1,-1,108,110,112,114,116,118,120,122,-1,-1,-1,-1,-1,-1,-1,-1,-1,-1,-1,-1,-1,-1,-1,-1,-1,-1,-1,-1,-1,-1,-1,-1,-1,-1,-1,-1,-1,-1,-1,-1,-1,-1,-1,-1,-1,-1,-1,-1,-1,-1,-1,-1,-1,-1,-1,-1,-1,-1,-1,-1,-1,-1,-1,-1,-1,-1,-1,-1],"split_conditions":[1.61918789148330688e-01,1.36540725827217102e-01,-4.43462753295898438e+00,2.53249555826187134e-01,2.08184704184532166e-01,2.14368551969528198e-01,1.47045230865478516e+00,-2.10490465164184570e-01,-1.81079816818237305e+00,-1.19631600379943848e+00,-2.47722482681274414e+00,1.96895048022270203e-01,2.43616119027137756e-01,2.86292403936386108e-01,2.41816997528076172e-01,-1.54811859130859375e+00,-1.02105021476745605e+00,3.17055374383926392e-01,2.82068431377410889e-01,1.50165572762489319e-01,1.48709282279014587e-01,2.92580693960189819e-01,2.89323329925537109e-01,1.31422743201255798e-01,-6.47708034515380859e+00,2.28214919567108154e-01,-8.90487289428710938e+00,2.70338058471679688e-01,-4.21952342987060547e+00,2.18215912580490112e-01,2.62985825538635254e-01,-8.22750282287597656e+00,1.70738488435745239e-01,1.25034719705581665e-01,2.25695997476577759e-01,3.02983701229095459e-01,1.69357895851135254e+00,1.09266370534896851e-01,1.24691665172576904e-01,1.05361551046371460e-01,-2.53606629371643066e+00,1.95418223738670349e-01,1.95079505443572998e-01,1.50935411453247070e-01,-3.88424062728881836e+00,-5.62742710113525391e-01,2.99227595329284668e-01,1.84724271297454834e-01,3.61757946014404297e+00,2.47321516275405884e-01,2.43944093585014343e-01,3.92657375335693359e+00,2.28640228509902954e-01,1.06491170823574066e-01,1.02817392349243164e+00,-5.05912899971008301e-01,1.76576256752014160e-01,2.07952424883842468e-01,3.13561797142028809e-01,1.31887122988700867e-01,2.34873384237289429e-01,2.52000719308853149e-01,2.74277150630950928e-01,7.14580655097961426e-01,-6.40642270445823669e-02,-3.31920012831687927e-02,1.56551778316497803e-01,-7.43907913565635681e-02,-1.09796300530433655e-01,-4.59170155227184296e-02,4.10904958844184875e-02,-5.86616061627864838e-02,3.51050905883312225e-02,6.95636030286550522e-03,6.84012472629547119e-01,1.55344298109412193e-02,1.15954481065273285e-01,3.39703738689422607e-01,1.84435307979583740e-01,-7.52006843686103821e-02,-2.53979396075010300e-02,-3.34297344088554382e-02,1.03017754852771759e-01,-5.52526004612445831e-02,-1.12543091177940369e-01,-1.52116015553474426e-01,-3.94064694643020630e-01,-5.63168302178382874e-02,-1.81850731372833252e-01,-2.16666925698518753e-02,2.15087279677391052e-01,1.25619560480117798e-01,5.63170248642563820e-03,1.98227033019065857e-01,2.86208003759384155e-01,-6.24010600149631500e-02,-3.71940582990646362e-01,-1.99871025979518890e-02,-1.03960581123828888e-01,-1.18649275973439217e-02,4.81237135827541351e-02,1.14237539470195770e-01,6.66879296302795410e-01,3.07512849569320679e-01,7.86422789096832275e-02,1.87803494930267334e+00,2.45519071817398071e-01,-1.29399240016937256e-01,-5.25134623050689697e-01,-6.75901919603347778e-02,-3.16285073757171631e-01,2.21596546471118927e-02,2.70534485578536987e-01,1.48570761084556580e-01,4.47018116712570190e-01,-2.50622313469648361e-02,1.37346148490905762e-01,2.67730861902236938e-01,3.93397510051727295e-01,5.08567154407501221e-01,7.09838032722473145e-01,9.30272281169891357e-01,1.24818253517150879e+00],"split_indices":[2,2,0,3,3,2,1,0,1,0,1,3,3,3,3,0,1,3,3,3,2,3,3,3,0,2,0,3,1,3,3,0,3,2,3,3,0,2,2,3,0,3,3,2,1,0,3,2,1,3,3,1,2,0,0,0,2,2,3,3,3,3,3,0,0,0,0,0,0,0,0,0,0,0,0,0,0,0,0,0,0,0,0,0,0,0,0,0,0,0,0,0,0,0,0,0,0,0,0,0,0,0,0,0,0,0,0,0,0,0,0,0,0,0,0,0,0,0,0,0,0,0,0],"sum_hessian":[4.42942000000000000e+05,4.26187000000000000e+05,1.67550000000000000e+04,3.80420000000000000e+05,4.57670000000000000e+04,2.73600000000000000e+03,1.40190000000000000e+04,3.55089000000000000e+05,2.53310000000000000e+04,1.85590000000000000e+04,2.72080000000000000e+04,2.61500000000000000e+03,1.21000000000000000e+02,7.66100000000000000e+03,6.35800000000000000e+03,6.50070000000000000e+04,2.90082000000000000e+05,1.65280000000000000e+04,8.80300000000000000e+03,1.37520000000000000e+04,4.80700000000000000e+03,1.00950000000000000e+04,1.71130000000000000e+04,6.65000000000000000e+02,1.95000000000000000e+03,1.06000000000000000e+02,1.50000000000000000e+01,1.13400000000000000e+03,6.52700000000000000e+03,5.13100000000000000e+03,1.22700000000000000e+03,1.96320000000000000e+04,4.53750000000000000e+04,1.25800000000000000e+04,2.77502000000000000e+05,1.64000000000000000e+04,1.28000000000000000e+02,7.93200000000000000e+03,8.71000000000000000e+02,5.59700000000000000e+03,8.15500000000000000e+03,4.13400000000000000e+03,6.73000000000000000e+02,4.07700000000000000e+03,6.01800000000000000e+03,1.37240000000000000e+04,3.38900000000000000e+03,6.00000000000000000e+01,6.05000000000000000e+02,1.60400000000000000e+03,3.46000000000000000e+02,9.10000000000000000e+01,1.50000000000000000e+01,3.00000000000000000e+00,1.20000000000000000e+01,3.21000000000000000e+02,8.13000000000000000e+02,2.99100000000000000e+03,3.53600000000000000e+03,3.95700000000000000e+03,1.17400000000000000e+03,9.19000000000000000e+02,3.08000000000000000e+02,1.40000000000000000e+01,1.96180000000000000e+04,3.94170000000000000e+04,5.95800000000000000e+03,1.03120000000000000e+04,2.26800000000000000e+03,2.71974000000000000e+05,5.52800000000000000e+03,1.49030000000000000e+04,1.49700000000000000e+03,2.70000000000000000e+01,1.01000000000000000e+02,1.94200000000000000e+03,5.99000000000000000e+03,3.85000000000000000e+02,4.86000000000000000e+02,2.55600000000000000e+03,3.04100000000000000e+03,3.57500000000000000e+03,4.58000000000000000e+03,3.60600000000000000e+03,5.28000000000000000e+02,5.61000000000000000e+02,1.12000000000000000e+02,2.96700000000000000e+03,1.11000000000000000e+03,5.40900000000000000e+03,6.09000000000000000e+02,7.42800000000000000e+03,6.29600000000000000e+03,1.93200000000000000e+03,1.45700000000000000e+03,3.60000000000000000e+01,2.40000000000000000e+01,5.10000000000000000e+02,9.50000000000000000e+01,9.41000000000000000e+02,6.63000000000000000e+02,3.30000000000000000e+02,1.60000000000000000e+01,3.20000000000000000e+01,5.90000000000000000e+01,2.00000000000000000e+00,1.30000000000000000e+01,4.00000000000000000e+01,2.81000000000000000e+02,6.19000000000000000e+02,1.94000000000000000e+02,2.67900000000000000e+03,3.12000000000000000e+02,2.51100000000000000e+03,1.02500000000000000e+03,7.67000000000000000e+02,3.19000000000000000e+03,8.14000000000000000e+02,3.60000000000000000e+02,5.50000000000000000e+02,3.69000000000000000e+02,2.07000000000000000e+02,1.01000000000000000e+02],"tree_param":{"num_feature":"4","num_nodes":"123","size_leaf_vector":"0"}},{"base_weights":[-5.87632134556770325e-02,-7.44668021798133850e-02,3.39277595281600952e-01,-8.89779478311538696e-02,8.71621966361999512e-02,2.76409715414047241e-01,6.24452650547027588e-01,-1.04942239820957184e-01,3.93262831494212151e-03,-7.19430074095726013e-02,3.90992373228073120e-01,1.68379908427596092e-03,3.55875939130783081e-01,5.51222920417785645e-01,1.30046045780181885e+00,-1.02955847978591919e-01,-1.43911826610565186e+00,-1.25796169042587280e-01,9.51897501945495605e-02,-7.57474526762962341e-02,2.50477051734924316e+00,2.39222288131713867e-01,5.98245561122894287e-01,-3.55385452508926392e-01,1.64338544011116028e-01,6.50401460006833076e-04,4.90512222051620483e-01,6.69596552848815918e-01,-2.36482284963130951e-02,5.62757492065429688e-01,1.55726575851440430e+00,-2.58932828903198242e-01,-9.93892326951026917e-02,-6.34645819664001465e-01,-1.68579018115997314e+00,-2.02319875359535217e-01,-9.14455130696296692e-02,-3.97156216204166412e-02,5.33637225627899170e-01,-1.09091967344284058e-01,1.46005496382713318e-01,2.49779105186462402e-01,3.88882350921630859e+00,3.30844931304454803e-02,3.32527548074722290e-01,5.12765347957611084e-01,8.36029171943664551e-01,-1.30219176411628723e-01,-5.81214487552642822e-01,-3.98742360994219780e-03,5.46315133571624756e-01,-1.31437584757804871e-01,1.13796733319759369e-01,2.69055813550949097e-01,6.27484202384948730e-01,5.30029475688934326e-01,1.61093723773956299e+00,-4.29021447896957397e-01,3.91580648720264435e-02,3.67466092109680176e-01,1.04315984249114990e+00,7.97717511653900146e-01,1.93157601356506348e+00,1.71499347686767578e+00,-2.62880891561508179e-01,-1.03597506880760193e-01,1.94887310266494751e-01,-5.54460823535919189e-01,-8.84363472461700439e-01,-1.93352770805358887e+00,-1.49992561340332031e+00,-3.05094987154006958e-01,-1.74277901649475098e-01,-1.74915611743927002e-01,-4.47858795523643494e-02,-1.03297621011734009e-01,1.07571691274642944e-01,4.14197474718093872e-01,1.06540167331695557e+00,-1.61104127764701843e-01,5.45899420976638794e-02,1.55683504417538643e-02,1.89279019832611084e+00,1.20285406708717346e-01,3.62089186906814575e-01,2.21566200256347656e+00,4.56714248657226562e+00,-7.47354477643966675e-02,2.85663992166519165e-01,3.51352155208587646e-01,-9.51216071844100952e-02,5.83950340747833252e-01,3.01149457693099976e-01,1.11937737464904785e+00,7.08659112453460693e-01,-2.11735755205154419e-01,2.67599951475858688e-02,-1.36165606975555420e+00,-4.34413522481918335e-01,9.81786549091339111e-02,-2.08519130945205688e-01,5.03971815109252930e-01,7.25876998901367188e+00,-2.02775020152330399e-02,-2.41913944482803345e-01,4.09736437723040581e-03,4.44833427667617798e-01,-1.48279473185539246e-01,3.19286763668060303e-01,1.16885244846343994e+00,3.32498043775558472e-01,8.98043662309646606e-02,7.10884213447570801e-01,7.58114337921142578e-01,1.79611015319824219e+00,-5.56486487388610840e-01,1.59658119082450867e-02,-6.06686547398567200e-02,5.55848658084869385e-01,4.89945083856582642e-01,-1.89259305596351624e-01,4.87452477216720581e-01,1.79168677330017090e+00,8.75345170497894287e-01,-1.33125174045562744e+00,1.39296233654022217e+00,2.45110797882080078e+00],"default_left":[true,true,true,true,true,true,true,true,true,true,true,true,true,true,true,true,true,true,true,true,true,true,true,true,true,true,true,true,true,true,true,true,true,true,true,true,true,true,true,true,true,true,true,true,true,true,true,true,true,true,true,true,true,true,true,true,true,true,true,true,true,true,true,false,false,false,false,false,false,false,false,false,false,false,false,false,false,false,false,false,false,false,false,false,false,false,false,false,false,false,false,false,false,false,false,false,false,false,false,false,false,false,false,false,false,false,false,false,false,false,false,false,false,false,false,false,false,false,false,false,false,false,false,false,false,false,false],"id":6,"leaf_child_counts":[0,0,0,0,0,0,0,0,0,0,0,0,0,0,0,0,0,0,0,0,0,0,0,0,0,0,0,0,0,0,0,2,2,2,2,2,2,2,2,2,2,2,2,2,2,2,2,2,2,2,2,2,2,2,2,2,2,2,2,2,2,2,2,0,0,0,0,0,0,0,0,0,0,0,0,0,0,0,0,0,0,0,0,0,0,0,0,0,0,0,0,0,0,0,0,0,0,0,0,0,0,0,0,0,0,0,0,0,0,0,0,0,0,0,0,0,0,0,0,0,0,0,0,0,0,0,0],"left_children":[1,3,5,7,9,11,13,15,17,19,21,23,25,27,29,31,33,35,37,39,41,43,45,47,49,51,53,55,57,59,61,63,65,67,69,71,73,75,77,79,81,83,85,87,89,91,93,95,97,99,101,103,105,107,109,111,113,115,117,119,121,123,125,-1,-1,-1,-1,-1,-1,-1,-1,-1,-1,-1,-1,-1,-1,-1,-1,-1,-1,-1,-1,-1,-1,-1,-1,-1,-1,-1,-1,-1,-1,-1,-1,-1,-1,-1,-1,-1,-1,-1,-1,-1,-1,-1,-1,-1,-1,-1,-1,-1,-1,-1,-1,-1,-1,-1,-1,-1,-1,-1,-1,-1,-1,-1,-1],"loss_changes":[2.76871582031250000e+03,9.99467041015625000e+02,3.01238891601562500e+02,5.79990234375000000e+02,1.69713439941406250e+03,3.00770996093750000e+02,1.49576904296875000e+02,8.84196533203125000e+02,6.78806213378906250e+02,2.26069244384765625e+02,3.79390991210937500e+02,1.79638687133789062e+02,5.11071044921875000e+02,1.86539733886718750e+02,5.51996765136718750e+01,1.85334228515625000e+02,9.73566894531250000e+01,6.22224121093750000e+01,1.99097375488281250e+03,1.70150146484375000e+02,1.05143585205078125e+02,1.33990447998046875e+02,1.03232910156250000e+02,4.91462249755859375e+01,1.36632415771484375e+02,4.39241638183593750e+01,2.34883911132812500e+02,2.97773315429687500e+02,1.19575338363647461e+01,6.93451309204101562e+00,6.07222900390625000e+01,5.84946289062500000e+01,4.03425292968750000e+02,1.87244033813476562e+00,1.45512695312500000e+01,2.10864257812500000e+01,6.36468811035156250e+01,2.41070999145507812e+02,5.02588134765625000e+02,1.70294784545898438e+02,6.85330200195312500e+02,1.60054266452789307e-01,1.37144165039062500e+01,5.91716613769531250e+01,3.86428222656250000e+01,5.63739013671875000e+01,4.78201293945312500e+01,6.22471809387207031e+00,5.47455749511718750e+01,3.08632659912109375e+01,1.81089797973632812e+02,1.66475353240966797e+01,5.74840583801269531e+01,6.21611633300781250e+01,7.64077026367187500e+02,1.57656982421875000e+02,4.49088134765625000e+01,3.58226394653320312e+00,2.10265903472900391e+01,3.97939538955688477e+00,8.27780151367187500e+00,1.33950500488281250e+01,3.74404907226562500e+01,0.00000000000000000e+00,0.00000000000000000e+00,0.00000000000000000e+00,0.00000000000000000e+00,0.00000000000000000e+00,0.00000000000000000e+00,0.00000000000000000e+00,0.00000000000000000e+00,0.00000000000000000e+00,0.00000000000000000e+00,0.00000000000000000e+00,0.00000000000000000e+00,0.00000000000000000e+00,0.00000000000000000e+00,0.00000000000000000e+00,0.00000000000000000e+00,0.00000000000000000e+00,0.00000000000000000e+00,0.00000000000000000e+00,0.00000000000000000e+00,0.00000000000000000e+00,0.00000000000000000e+00,0.00000000000000000e+00,0.00000000000000000e+00,0.00000000000000000e+00,0.00000000000000000e+00,0.00000000000000000e+00,0.00000000000000000e+00,0.00000000000000000e+00,0.00000000000000000e+00,0.00000000000000000e+00,0.00000000000000000e+00,0.00000000000000000e+00,0.00000000000000000e+00,0.00000000000000000e+00,0.00000000000000000e+00,0.00000000000000000e+00,0.00000000000000000e+00,0.00000000000000000e+00,0.00000000000000000e+00,0.00000000000000000e+00,0.00000000000000000e+00,0.00000000000000000e+00,0.00000000000000000e+00,0.00000000000000000e+00,0.00000000000000000e+00,0.00000000000000000e+00,0.00000000000000000e+00,0.00000000000000000e+00,0.00000000000000000e+00,0.00000000000000000e+00,0.00000000000000000e+00,0.00000000000000000e+00,0.00000000000000000e+00,0.00000000000000000e+00,0.00000000000000000e+00,0.00000000000000000e+00,0.00000000000000000e+00,0.00000000000000000e+00,0.00000000000000000e+00,0.00000000000000000e+00,0.00000000000000000e+00,0.00000000000000000e+00,0.00000000000000000e+00],"parents":[2147483647,0,0,1,1,2,2,3,3,4,4,5,5,6,6,7,7,8,8,9,9,10,10,11,11,12,12,13,13,14,14,15,15,16,16,17,17,18,18,19,19,20,20,21,21,22,22,23,23,24,24,25,25,26,26,27,27,28,28,29,29,30,30,31,31,32,32,33,33,34,34,35,35,36,36,37,37,38,38,39,39,40,40,41,41,42,42,43,43,44,44,45,45,46,46,47,47,48,48,49,49,50,50,51,51,52,52,53,53,54,54,55,55,56,56,57,57,58,58,59,59,60,60,61,61,62,62],"right_children":[2,4,6,8,10,12,14,16,18,20,22,24,26,28,30,32,34,36,38,40,42,44,46,48,50,52,54,56,58,60,62,64,66,68,70,72,74,76,78,80,82,84,86,88,90,92,94,96,98,100,102,104,106,108,110,112,114,116,118,120,122,124,126,-1,-1,-1,-1,-1,-1,-1,-1,-1,-1,-1,-1,-1,-1,-1,-1,-1,-1,-1,-1,-1,-1,-1,-1,-1,-1,-1,-1,-1,-1,-1,-1,-1,-1,-1,-1,-1,-1,-1,-1,-1,-1,-1,-1,-1,-1,-1,-1,-1,-1,-1,-1,-1,-1,-1,-1,-1,-1,-1,-1,-1,-1,-1,-1],"split_conditions":[1.61842733621597290e-01,2.64051556587219238e-01,1.92284107208251953e-01,6.97214722633361816e-01,-2.19163537025451660e+00,-3.32346343994140625e+00,2.16499537229537964e-01,1.50725692510604858e-01,-2.13712978363037109e+00,3.36801409721374512e-01,2.81940937042236328e-01,3.03403258323669434e-01,-3.25216913223266602e+00,3.79238796234130859e+00,-4.79433917999267578e+00,-1.65841293334960938e+00,2.01503515243530273e-01,1.28153964877128601e-01,1.86157599091529846e-01,3.12028527259826660e-01,2.52936410903930664e+00,-1.86106133460998535e+00,2.99649357795715332e-01,1.72526001930236816e-01,-5.80576801300048828e+00,2.07221955060958862e-01,2.23187193274497986e-01,3.23237180709838867e-01,3.12217682600021362e-01,2.26857379078865051e-01,-4.71322441101074219e+00,-4.95316314697265625e+00,2.51979231834411621e-01,1.92659556865692139e-01,2.51210510730743408e-01,1.14139601588249207e-01,-4.34399938583374023e+00,1.47701099514961243e-01,2.29369714856147766e-01,-2.62622165679931641e+00,-4.87735748291015625e+00,3.38859975337982178e-01,1.48059114813804626e-01,2.76450663805007935e-01,1.48431718349456787e-01,1.46954506635665894e-01,1.46948218345642090e-01,1.68090820312500000e-01,2.83507585525512695e-01,3.11278772354125977e+00,3.42963874340057373e-01,1.72148063778877258e-01,-6.71013069152832031e+00,1.09928324818611145e-01,-9.34028625488281250e-02,2.27397346496582031e+00,-8.25860023498535156e+00,2.13327452540397644e-01,-7.55290365219116211e+00,-4.92769145965576172e+00,-5.12955856323242188e+00,4.63775300979614258e+00,2.11708441376686096e-01,5.14498054981231689e-01,-7.88642689585685730e-02,-3.10792531818151474e-02,5.84661960601806641e-02,-1.66338250041007996e-01,-2.65309065580368042e-01,-5.80058336257934570e-01,-4.49977695941925049e-01,-9.15284976363182068e-02,-5.22833727300167084e-02,-5.24746850132942200e-02,-1.34357642382383347e-02,-3.09892874211072922e-02,3.22715081274509430e-02,1.24259248375892639e-01,3.19620519876480103e-01,-4.83312420547008514e-02,1.63769833743572235e-02,4.67050541192293167e-03,5.67837059497833252e-01,3.60856242477893829e-02,1.08626760542392731e-01,6.64698600769042969e-01,1.37014281749725342e+00,-2.24206354469060898e-02,8.56992006301879883e-02,1.05405651032924652e-01,-2.85364836454391479e-02,1.75185114145278931e-01,9.03448387980461121e-02,3.35813224315643311e-01,2.12597742676734924e-01,-6.35207295417785645e-02,8.02799873054027557e-03,-4.08496826887130737e-01,-1.30324065685272217e-01,2.94535979628562927e-02,-6.25557452440261841e-02,1.51191547513008118e-01,2.17763113975524902e+00,-6.08325097709894180e-03,-7.25741833448410034e-02,1.22920935973525047e-03,1.33450031280517578e-01,-4.44838441908359528e-02,9.57860350608825684e-02,3.50655734539031982e-01,9.97494161128997803e-02,2.69413106143474579e-02,2.13265269994735718e-01,2.27434307336807251e-01,5.38833081722259521e-01,-1.66945949196815491e-01,4.78974357247352600e-03,-1.82005967944860458e-02,1.66754603385925293e-01,1.46983534097671509e-01,-5.67777939140796661e-02,1.46235749125480652e-01,5.37506043910980225e-01,2.62603551149368286e-01,-3.99375528097152710e-01,4.17888730764389038e-01,7.35332429409027100e-01],"split_indices":[2,3,2,1,1,1,2,2,0,3,3,3,0,0,0,1,3,2,3,3,0,1,3,2,1,3,3,3,3,2,1,0,3,3,3,2,0,3,3,1,1,3,2,3,2,2,2,2,3,0,3,2,0,3,0,1,1,2,1,0,0,0,3,0,0,0,0,0,0,0,0,0,0,0,0,0,0,0,0,0,0,0,0,0,0,0,0,0,0,0,0,0,0,0,0,0,0,0,0,0,0,0,0,0,0,0,0,0,0,0,0,0,0,0,0,0,0,0,0,0,0,0,0,0,0,0,0],"sum_hessian":[4.42942000000000000e+05,4.26131000000000000e+05,1.68110000000000000e+04,3.91025000000000000e+05,3.51060000000000000e+04,1.37760000000000000e+04,3.03500000000000000e+03,3.33689000000000000e+05,5.73360000000000000e+04,2.30410000000000000e+04,1.20650000000000000e+04,3.09100000000000000e+03,1.06850000000000000e+04,2.74000000000000000e+03,2.95000000000000000e+02,3.33194000000000000e+05,4.95000000000000000e+02,2.36770000000000000e+04,3.36590000000000000e+04,2.30080000000000000e+04,3.30000000000000000e+01,6.96600000000000000e+03,5.09900000000000000e+03,9.67000000000000000e+02,2.12400000000000000e+03,2.93700000000000000e+03,7.74800000000000000e+03,2.27200000000000000e+03,4.68000000000000000e+02,7.70000000000000000e+01,2.18000000000000000e+02,7.44700000000000000e+03,3.25747000000000000e+05,1.17000000000000000e+02,3.78000000000000000e+02,